<?xml version="1.0"?>
<opencv_storage>
<opencv_ml_svm>
  <format>3</format>
  <svmType>C_SVC</svmType>
  <kernel>
    <type>LINEAR</type></kernel>
  <C>1.</C>
  <term_criteria><iterations>10000</iterations></term_criteria>
  <var_count>108</var_count>
  <class_count>10</class_count>
  <class_labels type_id="opencv-matrix">
    <rows>10</rows>
    <cols>1</cols>
    <dt>i</dt>
    <data>
      28 29 30 31 32 33 34 35 36 37</data></class_labels>
  <sv_total>45</sv_total>
  <support_vectors>
    <_>
      2.31869474e-01 8.77080560e-01 1.39001846e+00 1.57587802e+00
      -2.25126728e-01 -1.11272109e+00 -6.04032338e-01 -7.33901620e-01
      6.17497981e-01 -5.06009519e-01 7.83803165e-02 -7.25935698e-02
      -6.35421216e-01 -1.01105773e+00 1.95930445e+00 5.43313205e-01
      3.82834941e-01 6.08879626e-01 1.44204307e+00 2.50852257e-01
      6.87553108e-01 8.74976993e-01 -1.00624986e-01 -2.00634077e-01
      1.94439396e-01 4.81126428e-01 1.33827162e+00 2.36387849e-01
      2.69670844e-01 3.97021919e-01 1.58825666e-02 -1.11857188e+00
      1.76465356e+00 7.79583037e-01 8.98778915e-01 7.07768202e-01
      -1.38993278e-01 -1.11577296e+00 -1.66548893e-01 -4.44639415e-01
      8.22073698e-01 1.59297153e-01 4.22604501e-01 3.40123981e-01
      -2.20965251e-01 3.90288174e-01 3.53093654e-01 6.31903231e-01
      8.34039748e-01 2.63070166e-01 3.02676529e-01 -1.48159387e-02
      -4.13946837e-01 3.40884268e-01 -3.95138701e-03 -1.26992315e-01
      1.20323434e-01 3.29998970e-01 2.19147182e+00 4.02192175e-01
      2.91013420e-02 -5.45945108e-01 -1.40517578e-01 3.59636098e-01
      5.26434183e-01 8.11798811e-01 6.72265172e-01 4.22276139e-01
      8.50742936e-01 8.12391102e-01 4.62671340e-01 1.98699936e-01
      7.98034370e-01 2.11724788e-01 1.79468036e-01 3.76916260e-01
      1.05159497e+00 6.05416417e-01 2.57969141e-01 -1.83858976e-01
      4.56332535e-01 1.24059223e-01 6.94917798e-01 6.87571764e-01
      9.47291195e-01 7.55128145e-01 5.43070555e-01 7.41309524e-01
      2.68213719e-01 3.78726751e-01 1.27651036e+00 1.09446585e+00
      2.00139701e-01 2.27034271e-01 -8.14946949e-01 1.57287323e+00
      7.47080088e-01 -1.10544354e-01 1.15007830e+00 3.93667400e-01
      1.21473122e+00 9.97214675e-01 1.92432308e+00 4.59861308e-01
      -2.10168868e-01 -1.87915549e-01 6.72717869e-01 1.08969247e+00</_>
    <_>
      3.83072346e-01 9.21920002e-01 1.00550091e+00 3.37864101e-01
      -7.81642318e-01 -2.40705833e-01 6.30575120e-02 6.77782893e-02
      1.15924843e-01 3.60251993e-01 7.13892281e-02 -3.42378557e-01
      -7.26587236e-01 -1.69286788e-01 6.50768876e-01 2.24789232e-01
      5.85862175e-02 2.04750314e-01 6.99477434e-01 8.53613198e-01
      2.75616208e-03 -4.13195401e-01 -7.77644813e-01 -2.85087347e-01
      1.20457046e-01 2.37232551e-01 6.22546792e-01 5.41546226e-01
      1.43883020e-01 -7.95302451e-01 -1.43160725e+00 -8.21207881e-01
      4.32147861e-01 1.75229579e-01 2.17416137e-01 6.61461949e-01
      -7.48689994e-02 3.41903180e-01 2.49729201e-01 -1.86319917e-01
      -1.21478908e-01 -3.06847036e-01 -9.87879857e-02 3.78666632e-02
      -6.42427504e-02 2.42651701e-01 1.08610518e-01 -7.74746656e-01
      -9.10614789e-01 -3.63065630e-01 2.59626061e-01 2.02789649e-01
      2.13669240e-01 2.14930326e-01 -3.76325190e-01 -3.68540376e-01
      -4.99489605e-01 -3.00580710e-01 2.74307370e-01 -3.11377436e-01
      -1.05094858e-01 -1.95133105e-01 -2.39703700e-01 3.39629531e-01
      1.92676440e-01 -1.47422045e-01 -3.20813924e-01 -3.75825584e-01
      -1.86513081e-01 1.77972376e-01 1.17166173e-02 1.24778539e-01
      -9.96176824e-02 -1.62971541e-01 -7.57373512e-01 -9.06839252e-01
      2.60786623e-01 -7.95866325e-02 -1.33751631e-01 -1.57843620e-01
      -1.43224046e-01 5.82619011e-01 6.69047892e-01 4.75265622e-01
      -1.45030439e-01 -2.89241761e-01 -3.23835820e-01 -1.90699622e-02
      6.00967258e-02 1.22851118e-01 -2.25394040e-01 3.34602952e-01
      1.87255457e-01 -1.46197855e-01 1.25801757e-01 5.58668859e-02
      -2.88371623e-01 -1.02559425e-01 -4.37913507e-01 5.57277445e-03
      9.83730435e-01 1.08456051e+00 3.71328712e-01 2.64789939e-01
      -5.19070439e-02 -1.60387337e-01 -5.02740815e-02 -3.84503603e-01</_>
    <_>
      4.54737484e-01 9.05763566e-01 1.03543460e+00 1.01000428e+00
      -9.91394341e-01 -6.12165809e-01 -7.77423009e-02 2.97386408e-01
      3.28422129e-01 9.77119058e-02 2.48232454e-01 8.25238287e-01
      -1.64471298e-01 -7.47885048e-01 -2.45367020e-01 1.16459176e-01
      3.10722202e-01 5.03904641e-01 1.02046406e+00 7.47601628e-01
      3.63972396e-01 -7.47068673e-02 -9.23758030e-01 -5.54032981e-01
      2.85352111e-01 7.24612057e-01 1.25476468e+00 1.88114718e-01
      2.59589523e-01 3.69687587e-01 -3.26237857e-01 -1.36704624e+00
      -6.11811459e-01 -1.33767590e-01 5.89424789e-01 8.87216330e-01
      6.03154898e-02 8.26466009e-02 4.75372225e-01 3.07953302e-02
      -4.89240587e-01 -6.29135191e-01 5.28246015e-02 2.68102080e-01
      2.57243395e-01 -1.56374156e-01 -2.98377331e-02 -2.74538308e-01
      -3.35749090e-01 -7.06782818e-01 -6.83181509e-02 2.31589809e-01
      5.32390296e-01 3.27592164e-01 -8.41004550e-02 -3.36015552e-01
      -5.37868619e-01 -1.18785346e+00 -2.37680182e-01 -2.52131999e-01
      3.22197229e-01 -1.80828534e-02 1.44316033e-01 -6.00185059e-02
      -2.99497787e-02 -1.78407952e-01 2.83606234e-03 -3.95987362e-01
      -7.18948245e-01 1.27533719e-01 2.62844980e-01 1.37719035e-01
      -1.76498368e-02 -2.75122851e-01 -6.01653934e-01 -9.70725358e-01
      -1.28628518e-02 -1.63794622e-01 8.71961191e-02 1.18244730e-01
      2.21168116e-01 -6.18543923e-02 1.04100369e-01 -1.06732555e-01
      5.91362417e-02 5.42550564e-01 -1.05768847e+00 -4.57624227e-01
      1.00583561e-01 -8.28976706e-02 3.98110598e-01 -9.17632431e-02
      -7.27743924e-01 -5.52984893e-01 -1.78102329e-01 -3.50098848e-01
      2.14140862e-01 2.01963559e-01 7.31984556e-01 -4.80401218e-01
      2.07549557e-01 -1.25405952e-01 1.05082774e+00 8.14407825e-01
      -8.65406871e-01 -6.47897243e-01 -4.87675257e-02 -2.07937077e-01</_>
    <_>
      3.02793235e-01 2.61882275e-01 2.74542361e-01 1.71098650e-01
      -3.44632268e-02 1.05348215e-01 2.07689688e-01 2.01563507e-01
      3.83541018e-01 4.19441164e-01 -5.40416129e-02 -7.67654240e-01
      -9.49934900e-01 -1.03061736e+00 2.83139229e-01 2.84742624e-01
      3.35365057e-01 7.43764400e-01 8.91717076e-01 3.30334455e-01
      -5.17940462e-01 -3.07966113e-01 -5.42797372e-02 2.90428668e-01
      2.98352897e-01 3.65183890e-01 7.48734415e-01 6.98993146e-01
      6.63937390e-01 -4.16402578e-01 -5.36969066e-01 -8.78050625e-01
      6.35859907e-01 3.14599067e-01 2.71851748e-01 8.73648107e-01
      2.59092331e-01 4.55165893e-01 -2.03269795e-01 3.18747275e-02
      8.13946009e-01 1.30417183e-01 1.11606754e-01 1.32962659e-01
      2.85368562e-01 -1.54559791e-01 5.76053001e-02 -5.51554978e-01
      -2.93002188e-01 -6.08066857e-01 8.70965272e-02 -1.30405858e-01
      -1.75856829e-01 -9.51162204e-02 -3.51386636e-01 2.09943429e-02
      -9.42704737e-01 -5.73324859e-01 -2.47681007e-01 3.16982120e-01
      1.17545761e-01 -1.96797736e-02 -1.95110962e-01 -5.16443431e-01
      4.71532997e-03 -3.83454293e-01 -3.79974514e-01 -4.59223151e-01
      -1.01267803e+00 -6.04076624e-01 -5.12294233e-01 -4.00919706e-01
      -4.49826531e-02 2.56924808e-01 -5.44194102e-01 -4.89092708e-01
      -1.58240169e-01 4.02802736e-01 1.90208063e-01 -1.38733432e-01
      -8.73773023e-02 -5.28304338e-01 4.64025199e-01 2.91466832e-01
      -1.12071283e-01 -7.58063018e-01 -1.06707692e+00 -6.41339004e-01
      -4.93343413e-01 -5.50593674e-01 -1.23963013e-01 6.03547513e-01
      6.16048217e-01 6.70395195e-01 5.68835855e-01 1.83642581e-01
      -2.56814808e-01 -6.21494889e-01 -2.50291288e-01 -5.32065928e-01
      6.69988036e-01 9.50729787e-01 1.19611716e+00 -2.03710720e-02
      -3.23566973e-01 -3.09445471e-01 -3.83580804e-01 -4.07220602e-01</_>
    <_>
      -3.24443549e-01 -7.64813274e-02 4.46976006e-01 6.03038132e-01
      -1.57036197e+00 -4.30277467e-01 -2.49988884e-01 -2.08248235e-02
      -2.61209421e-02 6.09084368e-01 4.31482166e-01 5.50301611e-01
      -9.08325613e-02 -1.19557178e+00 -1.84968799e-01 1.57203853e-01
      2.56433070e-01 5.56287646e-01 4.41291183e-01 2.54426509e-01
      3.78429264e-01 3.48227769e-01 -1.21884823e+00 -1.40752345e-01
      1.51155144e-01 3.67298454e-01 9.37004983e-01 6.59123898e-01
      4.94863540e-01 2.98100322e-01 -3.42414796e-01 -1.09576440e+00
      -1.09043129e-01 3.03985536e-01 5.00310361e-01 8.75825763e-01
      1.59808740e-01 2.56487101e-01 3.73825759e-01 1.85205311e-01
      -6.87440157e-01 -2.80442744e-01 6.99447989e-02 1.91359445e-01
      2.87754446e-01 2.81129509e-01 3.22633058e-01 -1.61437675e-01
      -8.64054978e-01 -4.00997818e-01 2.68523067e-01 1.41861498e-01
      4.47391331e-01 4.55677688e-01 -5.12848198e-02 -1.10489801e-01
      -3.45387459e-02 -3.92855555e-01 -3.50428373e-01 -4.77779388e-01
      -1.71430036e-01 4.03964184e-02 -2.29421668e-02 -4.39679995e-02
      2.32574597e-01 -1.98436216e-01 -3.28189582e-01 -2.20397756e-01
      -6.00513160e-01 -2.75040537e-01 2.03767836e-01 6.21291809e-02
      2.58809090e-01 7.49110729e-02 4.08995412e-02 -6.08022921e-02
      -4.57786590e-01 -5.19727886e-01 -1.47042692e-01 2.94923991e-01
      2.78145283e-01 -1.42238304e-01 1.40743911e-01 -1.01897128e-01
      3.69977392e-02 -2.07504854e-01 -7.91874886e-01 -4.70987439e-01
      4.42246720e-02 -7.31269717e-02 6.32303596e-01 2.24063829e-01
      2.00315952e-01 2.33837739e-01 -2.75437474e-01 -1.70327842e-01
      2.80386060e-01 6.37123168e-01 8.06913257e-01 -2.28714004e-01
      7.67588317e-02 -3.02899063e-01 5.47170222e-01 3.64562631e-01
      -6.45650864e-01 -3.47967833e-01 1.15409203e-01 -1.64806604e-01</_>
    <_>
      -1.74297884e-01 -5.65923452e-01 -3.89077961e-02 1.31604506e-03
      -7.88892433e-02 2.26921588e-02 2.77899861e-01 7.62808859e-01
      2.89645761e-01 -1.55294061e-01 1.15658250e-02 2.89958835e-01
      -1.44091025e-01 -7.87060320e-01 -8.54192078e-01 -3.68894756e-01
      9.06467661e-02 1.18458606e-01 5.97776175e-01 5.82739890e-01
      -3.47253084e-01 -6.14116311e-01 -1.25803018e+00 -1.07216537e+00
      1.65684640e-01 6.74857318e-01 1.27488053e+00 -4.22472119e-01
      1.14500500e-01 -6.46344900e-01 -1.57088768e+00 -1.52702403e+00
      -8.25878501e-01 -1.26690030e-01 8.16582069e-02 4.60469544e-01
      1.44456461e-01 2.30025515e-01 4.32016671e-01 -2.19296023e-01
      -8.35111022e-01 -1.60300231e+00 -1.21323112e-02 3.16203713e-01
      4.26286548e-01 -2.64253635e-02 -1.82212234e-01 -8.97526264e-01
      -1.23624730e+00 -1.18036342e+00 -2.47732535e-01 -9.47667137e-02
      -2.22381838e-02 3.92082125e-01 -2.82111675e-01 -2.36612216e-01
      -4.81019765e-01 -5.02282381e-01 -5.35903096e-01 -2.29839742e-01
      -8.67068693e-02 2.26141423e-01 -1.14342138e-01 3.29575757e-03
      6.91779852e-02 4.97552864e-02 -3.13679725e-01 -8.76587451e-01
      -1.48564529e+00 -9.24908578e-01 -1.34531587e-01 7.87979513e-02
      2.91109085e-01 3.26126426e-01 -2.77878731e-01 -6.90101266e-01
      -9.85218823e-01 2.29565442e-01 2.18129128e-01 5.84252536e-01
      3.48456830e-01 -2.58758336e-01 7.30284214e-01 3.19931805e-01
      -6.46993220e-02 -1.14279389e+00 -1.76232302e+00 -1.19571531e+00
      -2.28671625e-01 -4.91387188e-01 9.58527207e-01 7.44529545e-01
      5.62459290e-01 3.99755538e-01 -4.19959605e-01 -7.90334046e-01
      1.21122420e+00 1.24372160e+00 1.37230873e+00 -1.88870400e-01
      9.65666771e-01 2.62867779e-01 2.76217312e-01 1.06096432e-01
      -1.09858930e+00 -2.56268770e-01 5.27779102e-01 -1.04171500e-01</_>
    <_>
      9.11839128e-01 1.63793719e+00 1.34337413e+00 1.47590220e+00
      -1.57643175e+00 -2.05548063e-01 -3.33139598e-02 4.84581143e-02
      2.87369937e-01 4.52320307e-01 7.25079238e-01 2.02174112e-01
      2.51515806e-01 -4.45492238e-01 3.41130078e-01 -1.07113503e-01
      -4.90074933e-01 -1.41909108e-01 1.03984725e+00 8.82740617e-01
      -5.58704510e-02 1.95059627e-01 -1.58373380e+00 -4.28770930e-02
      2.12047607e-01 6.04593396e-01 9.75265861e-01 4.08833444e-01
      -1.83698963e-02 -4.22128975e-01 -4.77483779e-01 -7.05908418e-01
      2.93641537e-01 2.04368725e-01 2.33660370e-01 3.66275638e-01
      4.57295209e-01 5.32711446e-01 4.41163450e-01 5.56267142e-01
      -4.38200772e-01 -3.05914491e-01 -1.08825683e-03 1.01147458e-01
      4.61224288e-01 -4.30694848e-01 -3.92373323e-01 -3.58739495e-01
      -4.64071542e-01 6.29711971e-02 -1.20068211e-02 1.18770245e-02
      1.13410763e-02 -2.75201946e-01 -2.57005066e-01 -4.38252240e-01
      -7.58080125e-01 -1.21411383e-01 2.29324281e-01 2.02198789e-01
      2.08214343e-01 -1.00499894e-02 -2.61220276e-01 -7.79065371e-01
      -5.93550801e-01 -2.88138628e-01 -5.29974550e-02 4.68021296e-02
      6.97226375e-02 1.81602314e-01 -3.16074751e-02 -7.23085463e-01
      2.43687674e-01 -3.70303631e-01 -9.54377592e-01 -8.80115330e-01
      7.74285197e-01 7.84148633e-01 3.38933378e-01 9.47170928e-02
      2.80535370e-01 -4.28899556e-01 -3.70164611e-03 2.32009813e-01
      3.30357164e-01 -1.06015608e-01 1.69392407e-01 1.61004558e-01
      3.57865244e-02 -5.11827350e-01 4.14472789e-01 -2.29680389e-01
      -5.82785368e-01 -4.66115594e-01 -8.89338702e-02 1.15279007e+00
      5.29299855e-01 3.91308248e-01 4.73230779e-01 -6.04314744e-01
      2.07846552e-01 5.92846751e-01 8.34859371e-01 8.35610703e-02
      1.02755412e-01 5.85906208e-02 3.13695264e-03 -2.40496725e-01</_>
    <_>
      -7.43344665e-01 1.31101962e-02 3.68524522e-01 -2.47727901e-01
      -3.97001535e-01 -1.15398741e+00 -8.54196370e-01 -4.04552728e-01
      -5.48782468e-01 -3.13805491e-01 -2.92696148e-01 -6.52637184e-01
      -9.90280986e-01 -9.28198397e-02 -2.12887108e-01 -3.97563666e-01
      2.25742161e-01 2.26272061e-01 6.30731881e-01 6.90114379e-01
      3.04753929e-01 -7.81837106e-01 -1.11506510e+00 -1.16739583e+00
      -3.38953048e-01 4.30804640e-01 9.88746583e-01 -2.95609206e-01
      4.32410896e-01 -5.60318470e-01 -1.70724893e+00 -1.22729158e+00
      -9.02824759e-01 1.10095501e-01 5.42280257e-01 6.48590624e-01
      -1.52764237e-02 8.02192152e-01 1.01751351e+00 -1.01373093e-02
      -1.32808566e+00 -1.45427454e+00 -3.75686914e-01 7.09535554e-02
      1.80532448e-02 3.72200646e-02 5.85254788e-01 -4.59509224e-01
      -1.42177331e+00 -1.19548500e+00 -1.21966302e-01 2.33805448e-01
      3.87934059e-01 2.67031521e-01 -5.07118940e-01 -3.35558027e-01
      -2.22818553e-01 -1.06854367e+00 -8.75259042e-01 -6.73473418e-01
      -2.78716147e-01 -5.02242386e-01 -3.77609581e-01 -1.16215721e-01
      -1.73229232e-01 -1.23419993e-01 -3.84659708e-01 -8.49545538e-01
      -1.35152423e+00 -5.41118145e-01 -3.16437781e-01 6.72339723e-02
      1.88901559e-01 -3.70694667e-01 -9.01784778e-01 -2.08936119e+00
      -7.48490691e-01 -4.46381092e-01 -1.66289434e-01 1.13658771e-01
      3.04516017e-01 2.53249049e-01 5.15896082e-01 1.36334151e-01
      5.53164110e-02 -5.26051641e-01 -1.55581582e+00 -7.19835162e-01
      -2.44926542e-01 3.26714456e-01 1.61297217e-01 -2.52032250e-01
      -2.37052128e-01 -9.44414914e-01 -6.28476202e-01 7.68384576e-01
      2.76661277e-01 1.90983161e-01 6.85529590e-01 -2.64706492e-01
      3.28152329e-01 2.29529172e-01 7.42139518e-01 2.63420403e-01
      -7.22218812e-01 -5.45051932e-01 9.27008986e-02 -2.10083718e-03</_>
    <_>
      4.81409490e-01 5.15497148e-01 -1.12701178e-01 -1.24306507e-01
      -6.82640433e-01 -1.20833337e+00 -8.40454936e-01 1.58813298e-01
      5.07259011e-01 2.63585687e-01 6.05352163e-01 6.21501207e-01
      2.12057400e-02 -1.00010383e+00 -9.38998818e-01 -9.92528737e-01
      1.26034051e-01 1.10812061e-01 5.03275394e-01 2.79427439e-01
      -5.14504500e-02 -4.15711552e-01 -7.58625329e-01 -6.73264384e-01
      3.14218812e-02 7.96073079e-01 1.50330544e+00 7.12970555e-01
      5.86994588e-01 -1.12535767e-01 -6.55881941e-01 -1.04627824e+00
      -9.85138595e-01 1.28243908e-01 7.52843440e-01 1.33898890e+00
      -1.53845355e-01 2.41479263e-01 4.56985325e-01 -1.47559047e-01
      -7.81775355e-01 -8.13762546e-01 -1.29296973e-01 2.45619237e-01
      3.25875610e-01 2.17242703e-01 1.22303955e-01 -6.13823473e-01
      -5.45726657e-01 -7.13428259e-01 -7.74770319e-01 1.92775965e-01
      3.04056227e-01 5.78031123e-01 -3.55120778e-01 -9.03507918e-02
      7.23778754e-02 -2.85106927e-01 -4.63046849e-01 -1.03357784e-01
      2.83147722e-01 1.93539839e-02 -2.61268944e-01 -2.32820168e-01
      -3.38208005e-02 9.15641040e-02 -3.87630016e-02 -4.85245109e-01
      -6.25798821e-01 1.46637276e-01 6.11907104e-03 5.14110131e-03
      3.10280337e-03 -2.04889357e-01 -6.93003237e-01 -1.25876760e+00
      -8.86606693e-01 -4.56092089e-01 1.05991952e-01 1.40467077e-01
      4.91895787e-02 -2.72179455e-01 1.15523608e-02 -6.79421663e-01
      -5.88352501e-01 1.67955950e-01 -5.72128415e-01 -3.20749246e-02
      -1.19853176e-01 -1.30041435e-01 3.63893330e-01 -9.63540897e-02
      -1.56288221e-01 -2.84088254e-01 -7.29271591e-01 -9.23450232e-01
      1.22809410e-01 3.49406958e-01 5.42379379e-01 1.22655532e-03
      8.19996595e-02 -1.18521325e-01 1.17630363e+00 1.50209618e+00
      7.04399496e-02 1.27599493e-01 -3.77257951e-02 1.06915541e-01</_>
    <_>
      -2.88406819e-01 8.89272541e-02 3.40296328e-01 -1.01551020e+00
      -2.19329143e+00 3.84743631e-01 -2.90796235e-02 -6.90355599e-02
      -3.04508924e-01 -1.99338570e-02 5.89176655e-01 -1.35700524e+00
      -1.49366403e+00 3.74546260e-01 -1.39060065e-01 -4.06454176e-01
      -2.41574183e-01 -1.29953310e-01 1.27318114e-01 3.22665185e-01
      6.79774642e-01 -1.11002636e+00 -1.12269926e+00 -2.70480365e-01
      -1.43013820e-01 1.54716102e-02 2.07714289e-01 4.74584162e-01
      4.48127359e-01 -1.13433993e+00 -1.94102871e+00 6.43923208e-02
      -3.91248256e-01 -5.03864467e-01 -3.53982747e-01 3.20685446e-01
      3.07411432e-01 5.67062013e-02 7.54489899e-01 -2.50536531e-01
      -6.11008883e-01 -4.41239417e-01 -3.22384119e-01 4.22629602e-02
      1.40800059e-01 3.32790524e-01 -1.88585877e-01 -9.86564815e-01
      -8.32224250e-01 -6.17481172e-01 1.37711479e-03 -1.19838864e-01
      -1.37838647e-01 1.55509934e-01 -9.76093635e-02 3.24110955e-01
      -2.10554063e-01 -3.07155609e-01 -6.07028604e-01 -2.45125696e-01
      -3.13204467e-01 -2.97572255e-01 -2.94000179e-01 3.33285213e-01
      3.80745202e-01 -9.23366964e-01 -1.63004243e+00 -6.72915578e-01
      -3.35857868e-01 -2.40531921e-01 -2.63687968e-01 8.81920382e-02
      -4.53555673e-01 3.46343666e-01 -4.20087308e-01 -1.07067680e+00
      -3.88038814e-01 -1.80086315e-01 -3.30261528e-01 -6.15224764e-02
      -2.40283534e-01 4.97181594e-01 7.02655017e-01 2.19868943e-01
      -7.12857068e-01 -4.09963518e-01 -3.31847727e-01 -1.10553257e-01
      3.35943252e-02 2.96052098e-01 -1.32591879e+00 1.01229720e-01
      -1.45828947e-01 -1.75175047e+00 4.17145669e-01 -5.05773485e-01
      -2.17197552e-01 1.49963364e-01 -1.00450194e+00 -7.45905638e-01
      2.95640022e-01 9.18490648e-01 -1.05985153e+00 -9.45615232e-01
      -3.06221306e-01 -2.67254673e-02 2.03241602e-01 -1.00860214e+00</_>
    <_>
      -5.26994109e-01 3.74807805e-01 9.62442085e-02 8.10332522e-02
      -5.95578134e-01 -2.41038099e-01 -1.59348652e-01 -1.88112527e-01
      -7.78308690e-01 4.07948852e-01 1.55719221e-01 2.82356679e-01
      -3.92173886e-01 -5.35034299e-01 -1.68468308e+00 -3.49208057e-01
      1.16645247e-01 5.31944156e-01 -4.26782161e-01 1.69722423e-01
      -6.19380951e-01 -7.37850070e-01 -7.40918875e-01 -8.56513202e-01
      -4.47188728e-02 -2.16178641e-01 -5.22049725e-01 1.92403570e-01
      5.34539577e-03 -4.95775007e-02 -3.72407466e-01 -4.69171137e-01
      -2.25160480e+00 -3.71524155e-01 5.79058051e-01 5.71258843e-01
      -8.87577236e-02 -6.60269782e-02 3.19333762e-01 -1.92315310e-01
      -1.08385611e+00 -6.69061780e-01 -9.19321328e-02 -1.94219857e-01
      -1.21821582e-01 1.90630496e-01 4.85974774e-02 1.77159458e-02
      5.41374013e-02 -5.30873954e-01 -5.13793409e-01 3.88677627e-01
      6.58255398e-01 3.37713301e-01 -7.31462538e-02 -1.92308545e-01
      -2.56851614e-01 -1.51495588e+00 -1.43988156e+00 -5.28222144e-01
      2.44497031e-01 -3.57959047e-02 1.63713902e-01 3.61935198e-01
      7.95575529e-02 7.47439265e-02 -3.75337422e-01 -4.64426130e-01
      -1.42132652e+00 7.16427490e-02 -8.91651064e-02 6.23018965e-02
      -1.05268352e-01 -1.17597587e-01 -2.73858577e-01 -1.03908801e+00
      -3.55887175e-01 -1.02741110e+00 -4.19945531e-02 3.71143311e-01
      3.98868322e-02 1.20250571e+00 -1.33550493e-02 -3.35071713e-01
      -8.68734419e-01 -1.42434210e-01 -1.15113246e+00 -2.31740758e-01
      -2.92707682e-01 1.46812096e-01 -5.18351614e-01 -5.31732917e-01
      -6.91249669e-01 -7.03574061e-01 9.83716488e-01 -7.51511693e-01
      2.05499642e-02 2.30375417e-02 -3.57706696e-01 -7.30084717e-01
      -2.59965569e-01 -8.23552191e-01 -1.09241629e+00 -6.14537060e-01
      -1.03282070e+00 -5.46247780e-01 -4.07163918e-01 -8.57590377e-01</_>
    <_>
      2.03281119e-01 -1.31983504e-01 -1.02958274e+00 -1.18326676e+00
      5.43141998e-02 4.22581851e-01 1.51778474e-01 -2.45391726e-02
      2.83202142e-01 3.69718939e-01 6.71769381e-01 -1.57266891e+00
      -1.18627059e+00 -2.89352029e-03 -5.33438563e-01 -7.05240816e-02
      3.59323621e-02 2.80779660e-01 3.31358403e-01 1.72515944e-01
      -8.43963563e-01 -9.49565589e-01 -9.42980573e-02 5.62167525e-01
      1.65651038e-01 1.09464191e-01 3.81821036e-01 8.75018612e-02
      7.14360714e-01 -5.35423219e-01 -3.91042590e-01 6.35130405e-01
      1.91434398e-02 -1.01377018e-01 -6.80999383e-02 5.76790832e-02
      4.35334802e-01 3.40841979e-01 1.45334616e-01 -1.35907635e-01
      4.96431850e-02 5.30298173e-01 2.10577577e-01 1.74464449e-01
      4.09612656e-01 -3.13919634e-01 -7.45892897e-02 -2.66771734e-01
      -4.97581720e-01 -2.83125848e-01 -4.23122495e-02 -6.16125539e-02
      -3.07596087e-01 -3.06196719e-01 4.25801158e-01 5.37837505e-01
      -6.09575927e-01 -7.61665404e-01 -1.37998796e+00 2.95677841e-01
      -1.91289708e-02 -5.08017801e-02 2.72935838e-01 -2.04466715e-01
      -5.17460890e-02 -5.83402574e-01 -9.16112542e-01 -4.40659374e-01
      -1.17921400e+00 -6.30208671e-01 -5.53897321e-01 -2.90842950e-01
      1.21095562e-02 8.09573233e-01 -9.02436256e-01 -8.00221682e-01
      -1.05858672e+00 -3.65380675e-01 -3.72008592e-01 -3.71185720e-01
      -3.33190203e-01 -3.18386465e-01 -3.47577304e-01 -3.32002342e-01
      -8.26108932e-01 -1.51138753e-01 -1.52865756e+00 -1.44193840e+00
      -6.84088647e-01 -5.55368304e-01 -6.57964945e-01 3.81316632e-01
      7.90023625e-01 4.64271188e-01 8.80404472e-01 -6.54336989e-01
      -2.50660747e-01 -5.75787544e-01 -9.49217081e-01 -1.34071326e+00
      -7.43164182e-01 3.17620814e-01 2.50418246e-01 -6.13129973e-01
      -1.24357319e+00 -8.16630185e-01 -4.01087791e-01 -1.10164487e+00</_>
    <_>
      -1.05133617e+00 -7.62837768e-01 1.70105189e-01 1.76269144e-01
      -7.50203609e-01 -6.35430396e-01 -1.97287530e-01 -2.79753298e-01
      -7.72921085e-01 8.32759738e-01 3.62760067e-01 3.06406051e-01
      -6.32037818e-01 -8.74751508e-01 -1.64888370e+00 -1.40335321e-01
      1.57269955e-01 5.33494532e-01 -5.19063711e-01 -3.39002043e-01
      2.39643380e-01 2.17764273e-01 -1.63754427e+00 -1.01070702e+00
      -2.77566522e-01 -3.35767955e-01 -5.32376766e-01 7.99435914e-01
      2.98378825e-01 6.99092597e-02 -6.96190059e-01 -9.05481935e-01
      -1.13418353e+00 2.75831837e-02 5.19336283e-01 7.86751926e-01
      -8.09817985e-02 -2.39114195e-01 1.86564267e-01 1.05116330e-02
      -1.36072552e+00 -7.87847400e-01 1.00380361e-01 -7.98228011e-02
      -1.71454266e-01 3.30971330e-01 4.29489352e-02 3.56074832e-02
      -3.38103563e-01 -8.40992391e-01 -5.84048685e-03 9.78109911e-02
      6.31745696e-01 4.05392557e-01 1.19630486e-01 -2.05414593e-01
      1.17219239e-01 -7.65924215e-01 -1.46657348e+00 -4.77408141e-01
      6.88738599e-02 2.22258821e-01 2.14246973e-01 2.70759780e-02
      5.07563241e-02 1.65785044e-01 -3.92499000e-01 -1.03959656e+00
      -6.00444257e-01 -4.06485975e-01 2.77595371e-01 1.04455417e-02
      4.11969751e-01 6.23502843e-02 1.54382527e-01 -6.03529252e-02
      -6.83118403e-01 -8.66005778e-01 1.60765946e-01 4.44445759e-01
      4.96454716e-01 2.67832279e-01 -7.16564432e-02 -2.00463131e-01
      -9.01204824e-01 -5.96850574e-01 -4.44638878e-01 -3.85644019e-01
      -1.61715761e-01 -8.35130829e-03 -7.63778761e-02 -1.58534184e-01
      1.00666225e-01 2.71100681e-02 -1.00504898e-01 -2.00866270e+00
      1.54134095e-01 1.91960961e-01 -1.06024280e-01 -5.86943686e-01
      -3.53773057e-01 -5.69793642e-01 -1.78787506e+00 -3.18221688e-01
      -1.92830372e+00 -7.39719391e-01 -6.65520370e-01 -6.49101198e-01</_>
    <_>
      3.31056237e-01 -2.51244277e-01 -8.28409970e-01 -1.68754423e+00
      5.75799346e-01 2.86363125e-01 5.13442278e-01 2.48823717e-01
      1.14490226e-01 3.91173959e-01 -1.14523701e-01 -1.40109472e-02
      -3.48232299e-01 5.59821665e-01 -2.54261374e+00 -4.51583952e-01
      1.13953255e-01 1.96209475e-01 -1.86819479e-01 1.60920456e-01
      -7.72923589e-01 -9.95084286e-01 -4.32889819e-01 -6.83924675e-01
      -1.24954931e-01 -2.87366152e-01 -1.10126629e-01 -4.35189635e-01
      -9.31138266e-03 -5.51716983e-01 -1.42041552e+00 3.03132206e-01
      -1.28631842e+00 -4.07267898e-01 -1.30940676e-01 -3.73862386e-01
      4.11182404e-01 2.77267158e-01 5.61255038e-01 2.14560851e-01
      -1.27962291e+00 -3.86991411e-01 -1.06062271e-01 -8.83779675e-02
      4.03784692e-01 -1.66626513e-01 -1.77258536e-01 -5.98531663e-01
      -1.16667378e+00 -5.33161998e-01 -1.62108541e-01 1.52012482e-01
      2.12429717e-01 1.83440316e-02 1.08764946e-01 -1.32458001e-01
      -2.98791885e-01 -6.72457814e-01 -2.14607310e+00 -7.21330106e-01
      2.12534264e-01 5.47229387e-02 3.36283416e-01 -2.12154016e-01
      -1.89602077e-01 5.62288724e-02 -4.08674091e-01 -8.33862066e-01
      -1.48974824e+00 -5.45172989e-01 -5.70605025e-02 -4.65619285e-03
      7.71502852e-02 4.33737516e-01 2.41259500e-01 -6.44035697e-01
      -1.55290210e+00 -7.00361252e-01 2.09692255e-01 -1.65341496e-02
      -1.93056896e-01 2.51955956e-01 -2.99162149e-01 7.18247220e-02
      -3.37909251e-01 -4.39921290e-01 -6.59388006e-01 -4.13216650e-01
      -2.96885401e-01 -7.69810855e-01 -3.40708137e-01 -7.86206722e-02
      -1.59551457e-01 -7.14405894e-01 3.18135291e-01 -1.65847719e+00
      4.49380815e-01 5.02944946e-01 -5.03916323e-01 -6.04478121e-01
      -1.07185654e-01 -7.16147348e-02 -1.45514393e+00 -9.86129999e-01
      -1.92944109e+00 -6.13771617e-01 1.37818426e-01 -1.01266396e+00</_>
    <_>
      1.49424657e-01 6.65873468e-01 -6.68903053e-01 -1.56307966e-02
      -3.22810435e+00 1.86417699e-02 -2.02878103e-01 5.12804508e-01
      -2.61810119e-03 1.68255135e-01 6.92554772e-01 -3.44204068e-01
      2.79862851e-01 4.16985422e-01 -7.41121411e-01 -6.86055303e-01
      -5.13075411e-01 -4.04460430e-01 -3.47861677e-01 -5.54932117e-01
      -8.99533927e-01 2.02414826e-01 -1.76981115e+00 7.10407272e-02
      -2.13545799e-01 -2.50902865e-02 -9.08963680e-02 1.89784676e-01
      4.09038141e-02 -9.29461956e-01 -6.11099482e-01 4.20060068e-01
      -4.24311072e-01 -7.29301751e-01 -4.35591131e-01 1.42617688e-01
      6.94761455e-01 -5.18665798e-02 5.53570926e-01 5.00699699e-01
      -1.29635215e+00 3.64118546e-01 3.49999875e-01 6.01664707e-02
      6.24233902e-01 -2.01857790e-01 -4.62213635e-01 -7.19969928e-01
      -5.87069929e-01 -7.87417114e-01 -1.05323881e-01 -4.52984795e-02
      -2.45176390e-01 -2.74359226e-01 2.16645729e-02 -7.01780757e-03
      -6.54508471e-02 4.16339129e-01 -1.20594680e+00 7.66627967e-01
      4.59996372e-01 -2.86956340e-01 -4.97498751e-01 -3.80101651e-01
      -5.25176287e-01 -5.58457971e-01 -1.18157506e+00 -5.45062125e-01
      -2.61625379e-01 -2.20366910e-01 -9.70850229e-01 -6.60889372e-02
      -2.39306137e-01 -4.33918506e-01 -1.18466401e+00 -1.20986640e+00
      1.70618713e-01 9.94653463e-01 5.40908337e-01 -9.52798724e-02
      1.79775164e-01 3.44484538e-01 1.33620545e-01 -2.13702191e-02
      -7.59443521e-01 3.77222002e-01 -6.52341265e-03 -4.78103697e-01
      -1.05834496e+00 1.04686983e-01 -9.22044069e-02 -6.18277788e-01
      -2.29507375e+00 -1.33590233e+00 8.51321876e-01 4.59898226e-02
      2.54513204e-01 -2.46980548e-01 -3.95760387e-01 -7.30160952e-01
      -3.46305728e-01 -5.02900541e-01 -1.18161917e+00 -1.54323983e+00
      -3.26400995e-01 -3.77104908e-01 -9.04795825e-01 -1.70760727e+00</_>
    <_>
      -9.72571373e-01 -1.69429198e-01 -2.45352834e-01 -1.53459549e+00
      1.13694273e-01 -2.26856515e-01 -4.36614245e-01 -2.25563079e-01
      -6.80024803e-01 7.95821920e-02 9.93453488e-02 -7.13458121e-01
      -4.98319954e-01 3.35658431e-01 -1.87115049e+00 -3.80498856e-01
      4.78109904e-02 -6.12320006e-02 -5.61640441e-01 -2.04603016e-01
      -2.68354326e-01 -1.52846825e+00 -3.84137154e-01 -8.42881382e-01
      -7.60518670e-01 -1.96658626e-01 -6.90724134e-01 -5.16373694e-01
      -2.37930611e-01 -7.49757171e-01 -1.29415262e+00 -7.35573396e-02
      -2.12228441e+00 -5.89696050e-01 1.31771073e-01 -4.25784320e-01
      2.32773721e-01 9.75084379e-02 1.33998322e+00 1.00739980e+00
      -1.38987529e+00 -5.75650752e-01 -2.48850346e-01 -1.03944400e-02
      -2.06425071e-01 3.27831000e-01 4.02269773e-02 -2.72733301e-01
      -1.08767843e+00 -1.15390420e+00 -1.26374617e-01 3.98591280e-01
      4.47992742e-01 -1.77133277e-01 3.33046727e-02 -6.90711617e-01
      2.96022296e-01 -6.21235430e-01 -2.41480541e+00 -6.89477623e-01
      7.14433640e-02 -4.43618953e-01 -2.87875623e-01 -1.01848304e-01
      -5.55230975e-01 1.15637586e-01 -1.01394367e+00 -1.22645581e+00
      -1.66805756e+00 -4.08359975e-01 -3.98225754e-01 -6.13470256e-01
      2.35055462e-01 -7.81981289e-01 -9.74280462e-02 -6.51179016e-01
      -1.08287656e+00 -5.77582002e-01 3.39351185e-02 3.88130024e-02
      3.15090418e-02 2.91293621e-01 -3.92872870e-01 1.51114702e-01
      -5.99329293e-01 -7.18360543e-01 -5.75312793e-01 1.15033723e-01
      -2.40613297e-02 -3.51587713e-01 -8.92708898e-01 -7.77656317e-01
      -9.67546776e-02 -6.99026108e-01 1.77733600e-01 -5.33879638e-01
      2.89838910e-01 1.54654518e-01 -5.83998919e-01 -7.68115759e-01
      -5.02141416e-01 -1.74129829e-01 -1.00681531e+00 -6.06366038e-01
      -7.90992677e-01 -3.72349620e-01 -2.79900879e-01 -6.79686189e-01</_>
    <_>
      -3.52197528e-01 2.84775704e-01 -1.91428274e-01 -9.01965082e-01
      -4.40551668e-01 -7.38438964e-01 -5.02765119e-01 1.36089176e-01
      -4.25412625e-01 3.37241322e-01 7.47741222e-01 4.56489652e-01
      -6.36713326e-01 -5.24483442e-01 -2.14466190e+00 -6.92739785e-01
      2.08388522e-01 -3.75997238e-02 -3.42898190e-01 2.65639424e-01
      9.15387943e-02 -6.74831629e-01 -7.27629185e-01 -8.19149017e-01
      -1.60207585e-01 -1.27944804e-03 -1.91877350e-01 3.46745849e-01
      2.65894145e-01 -4.35513914e-01 -1.13534224e+00 -3.11603583e-02
      -1.47568429e+00 3.96235622e-02 7.12107956e-01 8.20416510e-01
      -2.95387447e-01 2.19114393e-01 6.30576253e-01 -1.61396578e-01
      -1.09264660e+00 -1.16112232e+00 -6.33243173e-02 -1.19336598e-01
      -1.62949339e-01 6.39667287e-02 2.90133152e-02 -5.23272932e-01
      -5.48042297e-01 -5.03105342e-01 -1.05987811e+00 6.83263898e-01
      4.64395076e-01 3.77313077e-01 -2.38237336e-01 1.10340334e-01
      4.38070446e-01 -9.65982378e-02 -1.52430665e+00 -2.88796663e-01
      -1.01228610e-01 -1.98652819e-01 -3.20105821e-01 1.53159857e-01
      8.98383092e-03 -1.55183107e-01 -6.80174053e-01 -8.07988703e-01
      -4.11029428e-01 1.02555834e-01 -1.33414567e-01 2.17575714e-01
      5.55046052e-02 2.87234694e-01 2.63002276e-01 -5.37706792e-01
      -1.04539764e+00 -3.14908415e-01 1.38024226e-01 1.42311499e-01
      -4.97633964e-03 9.09358621e-01 -3.17992736e-03 -3.48784506e-01
      -1.21175182e+00 -1.76372513e-01 1.77037984e-01 1.17267832e-01
      -7.48773441e-02 3.86941344e-01 -4.01685894e-01 6.78985491e-02
      -3.15175772e-01 -9.16022182e-01 4.18950200e-01 -1.65613627e+00
      1.33368462e-01 2.49184132e-01 -4.80751544e-01 -1.70983225e-01
      -2.92336047e-01 -7.01193094e-01 -1.49557078e+00 5.17974138e-01
      3.08711324e-02 -5.76602183e-02 -2.12948129e-01 1.13913029e-01</_>
    <_>
      -4.54613343e-02 9.09136981e-02 3.30688804e-01 4.84065205e-01
      -1.39631450e-01 -6.91561937e-01 -2.33668417e-01 -8.66681710e-02
      3.07145789e-02 1.70327261e-01 4.43929613e-01 8.19652379e-01
      1.00963128e+00 -4.98314291e-01 -1.31610835e+00 -5.14184356e-01
      -1.59101546e-01 5.69480509e-02 -1.53636172e-01 6.62398934e-02
      1.70771584e-01 7.11591601e-01 -2.33365446e-01 -1.42449483e-01
      -1.25691801e-01 -1.32855713e-01 -1.49601072e-01 -1.72488406e-01
      1.70353606e-01 7.10767329e-01 1.24274099e+00 -4.35817987e-01
      -9.52729344e-01 -4.16258216e-01 -4.26183432e-01 -3.25880080e-01
      3.20620723e-02 5.04692830e-02 2.72625893e-01 3.02250355e-01
      8.24308172e-02 -2.19876140e-01 -1.52937993e-01 -1.53086752e-01
      -6.64810762e-02 -4.75640520e-02 6.12307750e-02 3.63161862e-01
      6.32432818e-01 1.10289603e-02 -7.85566568e-01 -3.30164343e-01
      -3.30877662e-01 -1.08126864e-01 -3.19203287e-02 4.40751389e-02
      1.88658863e-01 8.95818844e-02 -1.64772555e-01 -2.66381949e-01
      -1.87939838e-01 -1.96373582e-01 -2.30596840e-01 -2.88832694e-01
      -3.51350218e-01 7.49964938e-02 1.75221205e-01 6.74536899e-02
      -1.28010976e+00 -5.77291310e-01 -3.20427656e-01 -2.08678260e-01
      -1.29834369e-01 -1.79454729e-01 4.72144671e-02 -7.38353059e-02
      1.06489561e-01 -4.23904210e-01 -8.17006752e-02 -1.26474783e-01
      -2.21349016e-01 -3.82646054e-01 -3.65919113e-01 -4.93109189e-02
      1.05869532e-01 3.15596461e-01 -6.83511496e-01 -4.69593883e-01
      -1.69282854e-01 -1.96284026e-01 -2.56547332e-01 -4.15990472e-01
      -4.46754605e-01 1.87456623e-01 8.69608521e-02 -6.68076456e-01
      -1.99871734e-01 -1.79514259e-01 -1.39432609e-01 -4.60275441e-01
      -4.79376197e-01 -5.10884047e-01 1.29938439e-01 1.02908909e-01
      -4.62526947e-01 -2.20901430e-01 8.28279406e-02 -9.54998881e-02</_>
    <_>
      4.40557092e-01 2.61054151e-02 -9.51221764e-01 -5.27271032e-01
      2.20790267e+00 5.21698236e-01 2.35484630e-01 2.49203652e-01
      4.46594983e-01 5.06583750e-01 4.52346504e-01 -2.44795427e-01
      -1.47480801e-01 -8.78212512e-01 -1.31978095e-01 2.56799489e-01
      3.94545227e-01 4.03515100e-01 1.87119439e-01 -1.13813385e-01
      -1.30822754e+00 -4.10771072e-01 8.33992720e-01 9.60206926e-01
      3.36158812e-01 3.34732473e-01 8.14388469e-02 -2.83269763e-01
      3.63782346e-01 1.59500986e-01 8.38917911e-01 -3.85288984e-01
      -4.87981141e-01 -1.31024078e-01 5.51175512e-02 -5.36939919e-01
      4.89440352e-01 1.39781684e-01 -3.18682678e-02 -2.15232342e-01
      8.45371783e-01 7.74442494e-01 3.76817644e-01 2.19599828e-01
      3.75429779e-01 -2.21493021e-01 2.35455926e-03 5.59727192e-01
      5.73565364e-01 -3.73758197e-01 -8.08660567e-01 -1.98156878e-01
      -2.69837081e-01 -3.03528726e-01 8.50164056e-01 6.42619550e-01
      -1.67415902e-01 -3.84945780e-01 -7.46458650e-01 1.09112906e+00
      4.94893909e-01 2.04230741e-01 5.64836442e-01 -4.29340303e-01
      -3.31847161e-01 7.10925236e-02 3.23639631e-01 -3.55085880e-01
      -1.08111894e+00 -3.78618062e-01 -4.73499089e-01 -3.94625664e-01
      3.14280063e-01 1.88406751e-01 -7.37243593e-01 -5.10173261e-01
      -6.88514352e-01 2.02504441e-01 6.31840974e-02 -2.83538610e-01
      1.99390113e-01 -1.58271575e+00 -1.38939679e+00 -1.04888499e+00
      -1.85732201e-01 2.49086797e-01 -2.12695694e+00 -1.46536744e+00
      -8.82126689e-01 -1.01146352e+00 5.76249480e-01 1.54414281e-01
      1.53236532e+00 8.87269199e-01 1.24546990e-01 2.86773920e-01
      3.01037639e-01 -3.77490938e-01 6.79307878e-01 -1.06232476e+00
      -1.55535507e+00 -8.61305892e-02 8.32330585e-01 7.47206271e-01
      -9.25342023e-01 -9.39458907e-01 -6.48505151e-01 -5.97461104e-01</_>
    <_>
      -2.16137469e-01 -2.26343825e-01 3.95333886e-01 9.91670787e-01
      -2.86171585e-01 -3.61841053e-01 -1.34018123e-01 -1.72697246e-01
      -2.32960075e-01 1.71545982e-01 2.09390640e-01 5.75822473e-01
      8.44528794e-01 -4.34933454e-01 -1.01023090e+00 -2.48368949e-01
      -9.01438370e-02 6.22067079e-02 -3.40567499e-01 -2.37075344e-01
      2.19018430e-01 1.29884565e+00 -3.98509890e-01 -4.18341607e-01
      -3.07006001e-01 -2.88770884e-01 -2.86831528e-01 1.40229523e-01
      1.73794121e-01 3.54761600e-01 9.58871186e-01 -3.84791106e-01
      -7.47825503e-01 -4.90779549e-01 -1.40734240e-01 6.81916550e-02
      -1.56345949e-01 -9.45915431e-02 3.09474558e-01 6.52718604e-01
      -1.02759644e-01 -4.84325737e-01 -2.97055691e-01 -1.64505452e-01
      -1.33323342e-01 -6.83021471e-02 -5.62865811e-04 2.33964995e-01
      7.06939757e-01 -8.72635320e-02 -3.93817902e-01 -4.34325367e-01
      -1.07478313e-01 -6.27618656e-03 -1.11378236e-02 1.02859018e-02
      2.89875656e-01 3.65717858e-01 -1.31062493e-01 -2.79493332e-01
      -1.66509092e-01 -6.13769852e-02 -1.61274746e-02 -2.69678295e-01
      -1.62174672e-01 -1.26224801e-01 9.09533054e-02 -9.26115140e-02
      -2.61130780e-01 -3.20960313e-01 -1.24333762e-01 -1.09535776e-01
      5.69015816e-02 -4.63498645e-02 1.21660098e-01 4.78437364e-01
      -6.65478855e-02 -1.71947643e-01 3.87822725e-02 -2.26070993e-02
      1.57347739e-01 -3.18180948e-01 -2.69513905e-01 -2.37247363e-01
      1.34714752e-01 -3.96126360e-02 -1.82848260e-01 -1.62005499e-01
      -1.68167934e-01 -4.53680567e-02 -6.58637211e-02 -1.52397022e-01
      -5.24692461e-02 6.29903376e-01 -5.52525371e-02 -4.13130701e-01
      -5.01640365e-02 -4.15418036e-02 7.51409456e-02 -2.71781027e-01
      -2.67229140e-01 -1.73859581e-01 3.32527399e-01 8.29029828e-02
      -2.35283494e-01 2.49184892e-02 -9.06062964e-03 -4.21231724e-02</_>
    <_>
      3.85965288e-01 -1.85936570e-01 -1.60861373e+00 -1.03816497e+00
      1.17161083e+00 -1.73409536e-01 -4.80543897e-02 9.02820379e-03
      3.25203657e-01 -1.34758458e-01 1.22525766e-02 -5.02150238e-01
      5.97875297e-01 5.04553974e-01 -1.71399021e+00 -4.51764703e-01
      -1.43639371e-01 -2.46125728e-01 -8.91866833e-02 1.56223467e-02
      -7.16263890e-01 3.39535564e-01 4.34632629e-01 -1.56303011e-02
      -6.77900314e-02 -2.10481454e-02 -1.77735373e-01 -7.00435340e-01
      -2.72069246e-01 -2.05835223e-01 1.23763299e+00 6.67154551e-01
      -1.63984561e+00 -1.08851278e+00 -6.10044479e-01 -7.79142141e-01
      1.88582346e-01 1.36433706e-01 6.13474011e-01 -1.99771188e-02
      -3.29800844e-01 -5.80700003e-02 4.46954882e-03 -6.22198395e-02
      -1.02104908e-02 -1.88105136e-01 1.59320727e-01 4.34639394e-01
      3.19594622e-01 1.10715725e-01 -7.32684135e-01 -5.12836099e-01
      -1.79911166e-01 -1.20829627e-01 1.40781775e-01 2.12074995e-01
      6.80770993e-01 1.21838659e-01 -6.33809984e-01 -5.38765132e-01
      -3.04818243e-01 -1.63647309e-01 -1.94826975e-01 -3.09361756e-01
      4.83732000e-02 5.22938609e-01 4.76353586e-01 -2.08723590e-01
      -6.57539368e-01 -3.46083224e-01 -8.40358585e-02 -7.28005916e-02
      -1.04894988e-01 2.61737019e-01 2.93145031e-01 -6.96400255e-02
      -7.64355540e-01 -5.30260980e-01 -1.98699459e-01 -1.16482573e-02
      -9.90448818e-02 -8.08106780e-01 -1.46453738e-01 2.41433799e-01
      7.86929250e-01 -1.95722967e-01 -1.36785829e+00 -6.10874057e-01
      -2.44085163e-01 -4.99269485e-01 5.15305996e-01 3.55504245e-01
      1.59742802e-01 -1.48423389e-01 -1.96290717e-01 -4.84188735e-01
      3.82896245e-01 2.34582230e-01 6.87988579e-01 -2.21058726e-01
      -2.57860631e-01 -2.61343628e-01 2.41580918e-01 2.04878673e-01
      -1.88378942e+00 -4.91247743e-01 2.03407243e-01 6.64516687e-02</_>
    <_>
      6.77688897e-01 1.18193172e-01 -8.34607363e-01 1.01385808e+00
      -1.65677249e-01 3.96678418e-01 2.67998070e-01 3.72036338e-01
      6.96177900e-01 -1.23768650e-01 -8.14768851e-01 1.35102284e+00
      1.62562478e+00 -6.74010441e-02 -2.88842320e-01 2.11925507e-01
      2.03894138e-01 1.65259913e-01 4.58828002e-01 -4.23789382e-01
      -3.87459487e-01 1.71324265e+00 -1.18803933e-01 4.68743145e-01
      2.51400292e-01 1.93938762e-01 3.43747735e-01 -4.19695795e-01
      -9.03474092e-01 9.54845965e-01 1.21248472e+00 -1.90506168e-02
      -8.03163052e-02 6.19609803e-02 7.83432052e-02 1.89530570e-02
      2.26465434e-01 -9.43487212e-02 2.24532813e-01 9.28524613e-01
      -6.70199916e-02 -2.55842619e-02 9.46773440e-02 2.13468447e-01
      2.92930603e-01 -4.65751261e-01 -8.66074383e-01 4.22024965e-01
      7.77529120e-01 5.49675763e-01 -4.93821442e-01 -5.84658571e-02
      2.00624868e-01 -2.67599616e-02 -2.23752841e-01 -2.28985235e-01
      5.36894441e-01 6.85049832e-01 3.15889180e-01 4.70443934e-01
      2.65929550e-01 1.91039816e-01 -2.02416644e-01 -1.06375742e+00
      -1.10218751e+00 -1.69756383e-01 1.53488278e-01 8.47688198e-01
      2.76276231e-01 1.16227269e-01 -3.19950096e-02 -8.59701157e-01
      2.02321753e-01 -4.56926167e-01 -1.91899285e-01 3.93054634e-01
      2.67386079e-01 7.68334210e-01 5.17447948e-01 1.62038356e-01
      -4.61502792e-03 -1.13289678e+00 -1.44793200e+00 -1.12130451e+00
      -1.27437159e-01 1.24869084e+00 4.23380613e-01 -5.16738277e-03
      -2.96969384e-01 -9.67381179e-01 1.57744396e+00 3.99166703e-01
      -1.03004467e+00 2.90236712e-01 -1.26099408e+00 1.24758744e+00
      8.46751034e-01 3.17218155e-01 1.30355620e+00 -1.70260817e-01
      -9.48727608e-01 -3.79489183e-01 3.90940085e-02 7.85457134e-01
      2.07306162e-01 -4.91125993e-02 -3.04354399e-01 3.91279250e-01</_>
    <_>
      -9.53724921e-01 -4.89553243e-01 -2.89776415e-01 -8.52938235e-01
      8.46503139e-01 -1.91958740e-01 -1.62752286e-01 -3.51747185e-01
      -9.75388646e-01 -4.55505252e-01 -1.20637842e-01 1.34490266e-01
      4.28623229e-01 2.94015497e-01 -1.62630820e+00 -5.02641976e-01
      -3.10714781e-01 -5.45045495e-01 -8.70668530e-01 -2.85640359e-01
      -1.20751075e-02 2.30846584e-01 5.86252749e-01 9.83544067e-03
      -3.01802337e-01 -3.85507554e-01 -9.12153363e-01 -4.27252471e-01
      -1.83932576e-02 8.17985311e-02 1.02187490e+00 3.58960003e-01
      -1.60303450e+00 -6.36362195e-01 -4.66730714e-01 -5.12714386e-01
      -9.50759053e-02 3.07379276e-01 7.66851604e-01 6.58578992e-01
      -4.47751492e-01 -4.74917322e-01 -2.06975192e-01 -2.69509554e-01
      -2.32910618e-01 4.64077108e-02 4.89021510e-01 6.28633022e-01
      1.08515054e-01 -4.52061743e-01 -6.46008968e-01 -2.46401057e-01
      -2.39041090e-01 6.82555884e-03 2.57015489e-02 2.53318757e-01
      7.55869448e-01 4.19786394e-01 -5.84494412e-01 -7.06849337e-01
      -1.07612185e-01 -2.80492991e-01 -2.61263162e-01 -3.07151169e-01
      -2.75347143e-01 1.69437811e-01 2.81487048e-01 -2.69703805e-01
      -8.96869063e-01 -2.93441445e-01 -3.99835944e-01 -1.79332972e-01
      1.76244020e-01 1.37745859e-02 2.77277857e-01 4.17988867e-01
      -4.29571241e-01 -3.74568820e-01 2.41102591e-01 -2.07913980e-01
      1.92233384e-01 -4.53755230e-01 -4.92570072e-01 -2.04479381e-01
      5.24135411e-01 -8.87040719e-02 -6.01020575e-01 -1.72234148e-01
      -3.68817955e-01 -2.15084910e-01 1.41356383e-02 -5.97921669e-01
      -4.69973058e-01 2.18967929e-01 -1.30378619e-01 -2.23985523e-01
      1.02155857e-01 -2.94563860e-01 3.69813770e-01 -3.87758464e-01
      -1.03102183e+00 -7.93145359e-01 -5.28059490e-02 2.05185935e-01
      -3.73470694e-01 -3.30776662e-01 -1.71639368e-01 1.26888409e-01</_>
    <_>
      -5.64916618e-02 1.11033551e-01 5.01765609e-01 8.16240132e-01
      -3.13962817e-01 -1.10105252e+00 -2.43083596e-01 8.86573866e-02
      -2.03949854e-01 -1.84432700e-01 3.33094507e-01 1.19757175e+00
      6.26613975e-01 -5.65962613e-01 -1.86841750e+00 -7.50607431e-01
      -1.10160820e-01 -4.02429193e-01 -1.45269156e-01 1.43249929e-01
      4.57588822e-01 1.78442931e+00 -2.51796931e-01 -8.30541611e-01
      -2.43048862e-01 -2.97943324e-01 -1.89570516e-01 1.44561261e-01
      3.37442905e-01 1.34376049e+00 1.36203393e-01 -3.16581547e-01
      -1.00659072e+00 -3.95870864e-01 -8.13847780e-02 5.73651157e-02
      -1.14616781e-01 9.43415835e-02 3.24673533e-01 7.79219687e-01
      -1.17686644e-01 -1.36750531e+00 -4.85811740e-01 -2.14106843e-01
      -1.30918562e-01 -4.73669544e-02 5.51041551e-02 5.81562817e-01
      1.53589457e-01 -1.22890800e-01 -9.16845560e-01 -4.04752761e-01
      -1.61945194e-01 -1.91454962e-02 -2.17809334e-01 -5.34152100e-03
      8.89551878e-01 7.00903356e-01 -2.18070775e-01 -3.44394028e-01
      -2.45352313e-01 -2.11463258e-01 -4.30674821e-01 -1.41096368e-01
      -7.08152652e-02 3.85140300e-01 -2.99506247e-01 -1.15944542e-01
      -2.31331974e-01 -1.95901498e-01 -1.56742156e-01 -2.05393434e-01
      -2.22684816e-01 -3.60892475e-01 8.58709440e-02 2.26224750e-01
      -8.19362402e-02 3.10444888e-02 7.85375014e-02 -1.51992276e-01
      -2.69518495e-01 -7.67202601e-02 -1.15924798e-01 -4.92699862e-01
      -4.62616295e-01 3.67347538e-01 2.77237326e-01 1.85687438e-01
      -5.10350503e-02 -4.59946729e-02 -2.56106317e-01 -5.47697306e-01
      -4.74893957e-01 2.66727936e-02 2.07551241e-01 6.12417236e-02
      1.58151105e-01 -1.66772813e-01 -2.23985568e-01 -2.71459043e-01
      -3.37604195e-01 -6.31272078e-01 -4.61062253e-01 8.81002784e-01
      2.53758013e-01 1.95741698e-01 -2.32205223e-02 6.95702881e-02</_>
    <_>
      1.57473028e-01 -5.66597164e-01 -5.91023922e-01 -1.02417099e+00
      6.69634998e-01 1.17180204e+00 4.00266796e-01 2.47887611e-01
      4.19759691e-01 1.66158959e-01 -3.41022432e-01 -1.13783240e+00
      -1.15897882e+00 1.50531270e-02 7.61239827e-01 4.11315948e-01
      2.70942628e-01 3.44560415e-01 1.86195046e-01 -2.50967473e-01
      -5.08012831e-01 -6.36394680e-01 7.33631968e-01 5.62089205e-01
      2.31051207e-01 1.24159433e-01 3.51587981e-01 4.16666299e-01
      2.83976436e-01 -3.28709126e-01 -8.45438018e-02 -1.88524704e-02
      1.42274976e+00 5.67311585e-01 4.32536930e-01 4.44710553e-01
      9.45398863e-03 7.58426413e-02 -6.10090792e-01 -4.44399804e-01
      5.56247771e-01 3.11565697e-01 2.23727494e-01 1.64187893e-01
      1.01658553e-01 -5.46269631e-03 1.78847805e-01 -1.46870418e-02
      -1.66349225e-02 -2.97639936e-01 1.03094649e+00 4.19269145e-01
      2.98153222e-01 7.95246139e-02 -7.63171613e-02 2.79192869e-02
      -6.75534308e-01 -1.52161628e-01 1.75106436e-01 6.21165037e-01
      7.35176951e-02 7.26683959e-02 -1.64274126e-02 -7.01514333e-02
      3.38551961e-02 -8.72577578e-02 -1.85815975e-01 -1.84301734e-01
      1.10032296e+00 6.69430718e-02 6.69994652e-02 -1.39558598e-01
      -1.57290604e-02 8.78657475e-02 -1.27077520e-01 2.67312139e-01
      1.19897023e-01 7.20153034e-01 1.28389776e-01 -1.89513490e-01
      -3.34689915e-02 -1.24136396e-02 4.51905988e-02 3.49817351e-02
      -8.64633620e-02 -6.67281091e-01 -2.66862303e-01 -5.37350774e-01
      -2.73822993e-01 -1.27841085e-01 2.02230915e-01 3.29485893e-01
      9.54668522e-01 7.80026615e-01 7.43937016e-01 8.53292942e-01
      1.81925192e-01 -3.44128996e-01 -6.81942850e-02 6.57506406e-01
      6.66493103e-02 6.84591413e-01 7.51413107e-01 -6.83609247e-01
      -1.76725253e-01 1.80573873e-02 -3.22757810e-02 3.06224287e-01</_>
    <_>
      -1.36817908e+00 -6.24388576e-01 1.58189908e-01 3.10144991e-01
      -1.08896792e+00 -1.09477389e+00 -3.54883038e-02 -1.69200450e-01
      -1.15844643e+00 4.98915426e-02 2.38440186e-01 -6.73860461e-02
      -1.31660151e+00 -3.85850519e-01 3.92739713e-01 -3.78326088e-01
      -8.94705951e-02 -1.29866287e-01 -3.60648751e-01 -6.39040694e-02
      1.13909578e+00 2.01129055e+00 -5.79399765e-01 1.44319093e+00
      4.12022322e-01 -3.25316638e-01 -2.36621331e-02 4.64534134e-01
      2.37404406e-01 -2.33161315e-01 -1.67392778e+00 -2.94450104e-01
      9.19591427e-01 1.00261819e+00 2.21189946e-01 3.93965900e-01
      -1.34593740e-01 5.58539569e-01 8.70297313e-01 1.13363099e+00
      -7.25632370e-01 4.13379937e-01 -4.42215651e-01 -2.32575879e-01
      -3.61430389e-03 9.56763700e-02 2.05541506e-01 -2.17047825e-01
      -1.11907744e+00 -6.06247544e-01 1.21180475e+00 -1.38749689e-01
      -3.72964032e-02 5.66646717e-02 5.24588525e-01 1.12726712e+00
      1.42166197e+00 1.21475458e+00 -6.39502525e-01 -4.45081532e-01
      -3.84926677e-01 3.73495549e-01 5.13394773e-01 -3.12977999e-01
      2.04709858e-01 -3.03448349e-01 -3.83671224e-01 -5.67014456e-01
      1.10410714e+00 -3.96910459e-01 -2.62113847e-02 -3.27992588e-01
      7.15997636e-01 9.00117099e-01 1.05937004e+00 1.96061516e+00
      -6.81178153e-01 -9.58451748e-01 -4.34455842e-01 4.86476958e-01
      8.19733441e-01 -4.25938219e-01 4.16522883e-02 -1.56636480e-02
      3.88526827e-01 -4.46836144e-01 1.19865417e+00 -5.41346073e-02
      2.52384301e-02 -5.09278886e-02 7.68219054e-01 6.35900140e-01
      1.80400252e+00 3.57297754e+00 -7.01120317e-01 -5.85660875e-01
      4.48860303e-02 3.87337267e-01 5.11470616e-01 -3.18004936e-01
      8.77517182e-03 5.37346266e-02 3.04400265e-01 2.28698164e-01
      9.03079629e-01 -4.63604212e-01 -3.16505551e-01 -2.82591045e-01</_>
    <_>
      1.17247567e-01 -9.23313677e-01 -1.63746476e+00 -2.53864288e+00
      1.81408072e+00 1.56726384e+00 5.60461760e-01 4.33981925e-01
      6.39891267e-01 -3.89564514e-01 -6.22790933e-01 -9.28503811e-01
      1.75906435e-01 5.28432488e-01 -1.29976082e+00 -4.79548365e-01
      3.58983845e-01 -1.65980875e-01 -6.72934592e-01 -7.51669705e-01
      -1.36675283e-01 -7.64530957e-01 1.18131196e+00 8.63424361e-01
      7.23434687e-02 -3.56397390e-01 -7.11859941e-01 -1.01102734e+00
      -9.66438472e-01 -1.41378808e+00 -1.43194568e+00 5.57009690e-02
      6.42287374e-01 1.05757855e-01 -5.76744556e-01 -1.08455074e+00
      -3.70505340e-02 -2.08601505e-01 -1.49396509e-01 1.02166280e-01
      -1.07841142e-01 -3.16999964e-02 -3.01208231e-03 3.70155685e-02
      -5.07709058e-03 -5.28741956e-01 -4.49770659e-01 -6.29423797e-01
      -5.96952975e-01 -3.59567165e-01 2.31441960e-01 1.57528058e-01
      -2.91412532e-01 -3.49720061e-01 1.51279300e-01 1.13688521e-02
      1.58748746e-01 5.18194139e-01 -4.57896411e-01 -4.20201540e-01
      -5.21473944e-01 9.35572162e-02 3.46022069e-01 -3.85645568e-01
      -2.54438724e-02 -1.09699212e-01 -8.19831192e-02 -3.46784979e-01
      4.62480336e-01 -1.11387163e-01 -6.52097538e-02 -4.59680669e-02
      5.23007661e-02 6.50432646e-01 6.86012864e-01 4.07157540e-01
      -6.42930686e-01 2.61443943e-01 -1.67128965e-01 1.52552962e-01
      1.37260154e-01 -4.96897489e-01 1.64201528e-01 5.75084746e-01
      -9.57013890e-02 -9.40346122e-01 6.29274786e-01 -3.30117524e-01
      -1.84491783e-01 -2.81191975e-01 2.16554523e-01 8.13996851e-01
      1.52223969e+00 1.42803895e+00 -1.24751635e-01 2.70344019e-01
      1.02966118e+00 1.11157835e+00 4.97660995e-01 1.90082878e-01
      5.95462807e-02 1.07445276e+00 -8.78569245e-01 -9.52695131e-01
      7.75055110e-01 -1.12733170e-01 8.23205292e-01 5.29167831e-01</_>
    <_>
      2.93310136e-01 1.35072157e-01 -3.91276926e-02 -1.33563176e-01
      -5.27099609e-01 2.01193288e-01 2.46994212e-01 3.30732375e-01
      4.57808882e-01 4.23372388e-02 -9.11054686e-02 -4.21089709e-01
      -3.12436998e-01 9.41533685e-01 1.44539750e+00 7.07073152e-01
      3.25983435e-01 4.38199304e-02 3.73351753e-01 -1.41105562e-01
      -4.47461754e-01 -2.14474322e-03 -2.03626648e-01 4.03633356e-01
      2.86939621e-01 3.82500678e-01 6.55612767e-01 1.35623757e-02
      -3.98559809e-01 -7.83576846e-01 1.42672315e-01 5.27872980e-01
      1.66358745e+00 4.72615570e-01 3.89053792e-01 2.32411921e-01
      2.14743555e-01 -2.21328452e-01 -1.62442803e-01 3.73508394e-01
      1.00817136e-01 6.89867020e-01 4.62860912e-01 4.04764771e-01
      3.85074347e-01 -2.55985502e-02 -4.79027569e-01 -4.15573269e-01
      4.40108687e-01 2.92539924e-01 7.11900473e-01 3.11967939e-01
      3.54179054e-01 1.88170359e-01 -6.51430190e-01 -6.28061295e-01
      -4.70812708e-01 5.58916748e-01 3.65556151e-01 6.72235191e-01
      9.98261422e-02 -4.33396436e-02 -4.79150474e-01 -3.70279521e-01
      -6.93921983e-01 -2.96125084e-01 3.63485456e-01 6.53208047e-02
      9.17758763e-01 2.64461339e-01 8.78137723e-02 -3.24714631e-01
      -2.27387324e-01 -3.65737319e-01 -8.81168246e-02 6.74753368e-01
      4.33885217e-01 8.82790029e-01 3.39243501e-01 3.56623642e-02
      8.24470893e-02 -2.02692151e-01 -5.36240339e-01 -5.60497977e-02
      2.77540177e-01 -2.72937328e-01 7.35043764e-01 3.02960217e-01
      9.06218216e-02 -3.40413153e-02 1.17949083e-01 -4.21564639e-01
      6.47596121e-02 3.55723947e-01 2.46557891e-02 1.10616708e+00
      7.17455208e-01 3.82291257e-01 1.53330475e-01 -1.26515582e-01
      -7.40479589e-01 -2.12851807e-01 -3.54375720e-01 -7.92221606e-01
      2.78911769e-01 1.39237463e-01 2.07030065e-02 1.19468793e-02</_>
    <_>
      -1.61793995e+00 -1.52436316e+00 -5.71688116e-01 -1.79462934e+00
      1.36027086e+00 -5.46432026e-02 -7.95874000e-01 -1.17064357e+00
      -8.64327371e-01 -8.87212515e-01 -1.23338819e+00 -9.55925465e-01
      -4.14025486e-01 1.14012849e+00 -4.23269004e-01 -7.43914068e-01
      -6.59593403e-01 -8.81877840e-01 -9.37611580e-01 -7.35094488e-01
      2.92066216e-01 -8.22713912e-01 7.51028836e-01 6.15238510e-02
      -8.92777026e-01 -1.07271957e+00 -6.21947348e-01 -9.06821191e-01
      -8.86736453e-01 -1.53163850e+00 -2.73425841e+00 6.20131016e-01
      -2.05931559e-01 7.76376948e-02 -5.45222580e-01 -9.72511351e-01
      1.24009281e-01 3.27713072e-01 7.39899278e-01 6.93924069e-01
      -7.08452404e-01 -2.13521764e-01 -3.03337008e-01 -7.50107924e-03
      5.80519512e-02 6.76349774e-02 -1.37650901e-02 -5.86312748e-02
      -9.69868004e-01 -6.92976177e-01 7.69483685e-01 2.30353191e-01
      -9.55219418e-02 -8.67770389e-02 -1.70969158e-01 2.46445268e-01
      1.04922104e+00 9.49314654e-01 -7.87756145e-01 -2.48135507e-01
      -5.96173525e-01 -9.93797183e-02 -2.27098107e-01 -1.95390224e-01
      -1.54628530e-01 5.79689741e-01 -1.44054487e-01 -6.07351661e-01
      4.28082377e-01 -5.08371353e-01 -1.87534586e-01 6.50981814e-02
      6.55384287e-02 -9.34862494e-02 1.63598150e-01 1.64513905e-02
      -6.59414530e-01 -2.21959278e-02 -9.83283371e-02 -6.71055019e-02
      -1.88753441e-01 -2.56897449e-01 2.13910863e-01 8.05972338e-01
      -2.91352063e-01 -7.86234319e-01 6.29007041e-01 -7.52934515e-02
      1.67470872e-01 1.65225729e-01 -8.72566551e-02 -4.58132923e-02
      1.09323823e+00 1.24106693e+00 1.11630821e+00 7.84094334e-01
      -3.23765762e-02 -3.99020426e-02 1.68555871e-01 2.95416087e-01
      2.79733330e-01 1.16171777e+00 -9.36748445e-01 -1.69764030e+00
      6.68637395e-01 -1.32508606e-01 5.05374849e-01 3.69172990e-01</_>
    <_>
      1.42475575e-01 -5.08355558e-01 -1.08025479e+00 -2.78688192e+00
      1.53620374e+00 -1.86243939e+00 -8.97621870e-01 -2.09583506e-01
      2.17165619e-01 -4.17131670e-02 -3.79868560e-02 -6.53801739e-01
      -2.03439325e-01 1.09668422e+00 2.95018941e-01 -5.93640924e-01
      6.10289514e-01 -1.46275237e-01 -1.36809003e+00 -1.24386704e+00
      2.25355089e-01 -1.39029399e-01 1.08300328e+00 -4.08910066e-01
      -7.48759508e-01 -9.64486778e-01 -7.34522760e-01 -2.58431375e-01
      -5.60506940e-01 -1.44684732e+00 -2.20689702e+00 7.92741835e-01
      1.44713640e+00 1.43699801e+00 -2.75179327e-01 -2.75373846e-01
      -3.80500793e-01 -3.19542199e-01 1.17631756e-01 6.45145476e-01
      -4.13078904e-01 -1.10886359e+00 -6.87815487e-01 -1.93237200e-01
      -1.64456621e-01 1.02448359e-01 -1.96680114e-01 -6.60368145e-01
      -6.05499744e-01 -5.66396713e-01 -4.51391369e-01 3.94963950e-01
      -4.38042730e-01 1.48499936e-01 4.49216932e-01 3.21142584e-01
      1.00474310e+00 1.16275096e+00 -5.85023880e-01 -2.74215788e-01
      -1.62031576e-01 3.34050983e-01 3.18559766e-01 -4.59226370e-02
      2.02173755e-01 -2.37211306e-02 -5.19648969e-01 -3.61355066e-01
      7.08596051e-01 3.73783529e-01 -1.52422145e-01 3.17817986e-01
      5.57971716e-01 5.25392592e-01 6.31807685e-01 -2.22432554e-01
      -1.01051784e+00 -2.90988833e-01 -5.28704286e-01 2.67455757e-01
      2.96680868e-01 -5.54994226e-01 -2.48518333e-01 -4.62581664e-01
      -8.97259772e-01 6.62828535e-02 1.91021049e+00 1.08374858e+00
      9.02714804e-02 -9.26729366e-02 2.85884112e-01 2.24436969e-01
      6.54289305e-01 9.97725308e-01 -3.57771993e-01 -3.45188498e-01
      -7.65067220e-01 6.02718778e-02 4.47987765e-02 2.86867559e-01
      2.48358786e-01 -2.09515486e-02 -1.55833387e-03 9.20897186e-01
      2.21204066e+00 1.44190824e+00 2.80004770e-01 2.97966033e-01</_>
    <_>
      -3.32328588e-01 -1.42832184e-02 5.45012534e-01 1.07814932e+00
      -5.85582733e-01 -2.97612727e-01 -2.23209918e-01 -2.86029518e-01
      -3.57076734e-01 -1.17892679e-03 1.88994184e-01 5.61618805e-01
      2.61943847e-01 -2.52144694e-01 -3.92400295e-01 -3.07213724e-01
      -3.55327845e-01 -1.45574674e-01 -1.31327480e-01 -1.69694107e-02
      6.10424101e-01 8.88589025e-01 -8.60331655e-01 -4.56154704e-01
      -2.35567629e-01 -2.34899715e-01 -1.61801368e-01 2.20491230e-01
      3.07109077e-02 2.73289233e-01 -1.98643357e-01 -2.52144694e-01
      -7.46325076e-01 -2.46233344e-01 -1.13769501e-01 1.74883336e-01
      9.03178453e-02 -6.86846301e-02 3.72408748e-01 5.61175823e-01
      -5.71836770e-01 -5.58068216e-01 -2.22197428e-01 -8.18029568e-02
      1.81701537e-02 1.39133945e-01 -2.61277072e-02 8.77449214e-02
      -1.86578259e-01 5.77481873e-02 -5.67799330e-01 -2.34488800e-01
      8.42034370e-02 1.23857141e-01 1.35904685e-01 -7.31193498e-02
      5.59662580e-01 4.80487883e-01 -7.58747309e-02 -4.61420685e-01
      -2.15284526e-01 -9.97902919e-03 6.24335147e-02 -1.21908084e-01
      -1.18452348e-01 -2.39110842e-01 -1.08936362e-01 5.77481873e-02
      2.77018882e-02 -1.51964292e-01 7.52012804e-02 -6.20675944e-02
      2.24555328e-01 1.00293666e-01 4.44450200e-01 4.83353823e-01
      -3.40894163e-01 -3.23599845e-01 -1.72078282e-01 1.98397189e-01
      3.12418133e-01 -9.63377357e-02 -5.00877276e-02 -3.33213687e-01
      -4.86740321e-02 1.79345608e-01 5.79211235e-01 2.07584426e-01
      1.18745796e-01 6.81573227e-02 1.77464843e-01 3.15154605e-02
      1.06259368e-01 2.07369596e-01 -6.09963834e-01 -5.82063258e-01
      -8.91693458e-02 4.63931978e-01 4.24133390e-01 -2.96253949e-01
      -1.35498717e-01 -4.94332105e-01 -4.09980059e-01 3.21610063e-01
      6.81002066e-02 -5.16715795e-02 2.52503082e-02 -8.96826461e-02</_>
    <_>
      -2.39144824e-02 -1.88267738e-01 -9.49640989e-01 -1.15191318e-01
      -3.41347158e-01 -3.19631606e-01 -1.36623591e-01 -1.07125051e-01
      -1.97182223e-01 -1.34194326e+00 -1.05494511e+00 1.66686445e-01
      6.03573620e-01 1.44644189e+00 -1.51274323e+00 -7.72711694e-01
      -5.62396944e-01 -1.16563237e+00 7.99570382e-02 7.44701624e-01
      6.30040228e-01 7.97051072e-01 -5.91444433e-01 -8.99072349e-01
      -4.06052738e-01 -2.75320500e-01 -3.26088041e-01 -1.13132429e+00
      -3.33158374e-01 -3.22618037e-01 -8.28434706e-01 5.97425401e-01
      -1.57011712e+00 -9.77038145e-01 -7.41003096e-01 -8.40652943e-01
      -1.21393137e-01 4.35739100e-01 1.08158600e+00 1.09725818e-03
      -1.14249134e+00 -1.01493156e+00 -4.15358663e-01 -2.91384161e-01
      -2.52655298e-01 2.28075646e-02 5.51965475e-01 3.02696794e-01
      -9.69525397e-01 3.10410738e-01 -4.67753381e-01 -3.37315530e-01
      -1.31746322e-01 1.05758324e-01 -4.14767563e-01 -2.15602368e-02
      9.67493236e-01 1.71428949e-01 -2.99883336e-01 -1.38991213e+00
      -5.09169161e-01 -1.92430422e-01 -3.66155744e-01 3.04314867e-02
      5.31838715e-01 4.55553383e-01 4.06590551e-01 -1.09458603e-02
      -7.86366820e-01 1.57825891e-02 1.62920445e-01 5.68938106e-02
      1.20621540e-01 2.44431034e-01 7.03924358e-01 -2.72420406e-01
      -4.84017313e-01 -6.94174409e-01 -1.45208677e-02 7.00877428e-01
      3.70936811e-01 1.93392724e-01 9.24632490e-01 2.96113968e-01
      1.18801928e+00 1.92449778e-01 6.01608157e-01 6.89434946e-01
      1.22811906e-01 7.04195946e-02 3.38892043e-01 2.07965538e-01
      -1.06029475e+00 -1.92645133e+00 -6.33505523e-01 -9.32576299e-01
      8.96323144e-01 1.71265805e+00 1.11142218e+00 -4.01006460e-01
      8.96899879e-01 -2.36253619e-01 -7.22636998e-01 4.24078166e-01
      -6.53202176e-01 -1.17734872e-01 6.49596006e-02 -6.17645085e-01</_>
    <_>
      1.61305189e-01 2.48050168e-01 3.25868011e-01 1.46845245e+00
      -1.63217759e+00 -1.64736733e-01 -4.31755185e-02 5.16600087e-02
      3.13266665e-02 -3.85228515e-01 -3.35861593e-01 9.85550463e-01
      1.63573253e+00 4.37865168e-01 7.48489350e-02 -2.38936186e-01
      -2.04306647e-01 -2.44284973e-01 -3.76480483e-02 -1.83420897e-01
      4.84579533e-01 6.82806253e-01 -8.10925066e-01 -2.21473813e-01
      -5.37775867e-02 -1.64315756e-02 -9.38068926e-02 3.57551090e-02
      -7.37068474e-01 5.44753253e-01 2.70251393e-01 2.03099236e-01
      -2.36091003e-01 -1.40146300e-01 1.37577161e-01 2.72346824e-01
      -2.08546475e-01 -2.91440040e-01 6.38719976e-01 5.40395617e-01
      -5.03308117e-01 -2.94491589e-01 -3.62623222e-02 -1.29686687e-02
      -8.29905570e-02 1.00507833e-01 -5.79949200e-01 4.59716395e-02
      -1.69953406e-02 4.62209940e-01 1.88908651e-01 2.47721985e-01
      4.32248235e-01 2.88199037e-01 -6.45016372e-01 -5.68247437e-01
      3.75406176e-01 5.03081441e-01 7.66283453e-01 8.30365419e-02
      -6.29754215e-02 -1.09781921e-01 -5.10904491e-01 -5.08910060e-01
      -3.18547577e-01 -3.23745370e-01 -1.36991262e-01 5.59659243e-01
      1.20908403e+00 3.17498565e-01 2.97851771e-01 -3.15869331e-01
      -3.62203896e-01 -5.86267173e-01 -4.96488325e-02 2.97778159e-01
      7.47960687e-01 5.56880355e-01 2.59750903e-01 4.36786152e-02
      -3.49830329e-01 4.15273517e-01 2.71504164e-01 -1.08990826e-01
      2.80837685e-01 2.22806871e-01 1.69625187e+00 9.38761055e-01
      4.07078832e-01 9.98093709e-02 2.86011010e-01 -1.29552027e-02
      -1.72506201e+00 -8.98468316e-01 -5.95648527e-01 5.38165033e-01
      4.65169609e-01 3.46323639e-01 3.85071009e-01 1.01609588e+00
      5.71417630e-01 4.35265116e-02 -3.99240762e-01 -4.81623173e-01
      1.12288451e+00 9.33660865e-01 4.28303987e-01 7.52280772e-01</_>
    <_>
      -9.45959568e-01 1.73412822e-02 3.11444044e-01 2.37272978e-02
      -1.22761846e-01 -6.43058717e-01 -5.47366679e-01 -7.05355585e-01
      -1.22433603e+00 -7.80251622e-01 -3.20424795e-01 4.19798464e-01
      4.53063875e-01 8.63185644e-01 -2.54576474e-01 -5.50535738e-01
      -8.22022200e-01 -1.12278688e+00 -4.10831600e-01 2.77001202e-01
      1.06586659e+00 3.97594392e-01 -6.42369747e-01 -8.92686427e-01
      -4.80004996e-01 -6.49334073e-01 -1.00584877e+00 -3.61010015e-01
      -5.06056666e-01 -1.86608005e-02 -3.36701930e-01 4.06702638e-01
      -1.28367913e+00 -5.28358519e-01 -5.39553165e-01 -4.64182734e-01
      -3.59864533e-02 2.96890259e-01 1.08246231e+00 5.65900683e-01
      -1.36871040e+00 -8.90438914e-01 -3.47417444e-01 -4.15471524e-01
      -4.35185581e-01 4.11838263e-01 5.74680626e-01 2.28240132e-01
      -5.39619327e-01 3.47289897e-04 -4.65274483e-01 3.92331183e-03
      -8.00998509e-02 2.18365222e-01 -2.72992224e-01 1.71978939e-02
      1.24062431e+00 4.44114878e-04 -2.69632250e-01 -7.66884267e-01
      -1.54601574e-01 -2.93309569e-01 -3.93940687e-01 -6.64651170e-02
      -1.07420489e-01 7.77348131e-02 -8.34545270e-02 1.62717953e-01
      -3.16848874e-01 9.40350518e-02 -1.88364238e-02 1.91706140e-02
      1.74021170e-01 -2.09197879e-01 5.43230891e-01 1.10995784e-01
      -5.15226960e-01 -2.57960707e-01 1.68748543e-01 3.31119657e-01
      2.96086639e-01 1.64222151e-01 6.60738945e-02 -7.95496106e-02
      2.14861140e-01 2.11244762e-01 7.99846351e-01 5.10389388e-01
      3.13304216e-01 7.49399811e-02 -1.01026192e-01 -5.51155448e-01
      -7.80600429e-01 -4.83398408e-01 -7.72505939e-01 -2.53885329e-01
      3.70502323e-02 5.03789365e-01 4.66328323e-01 -8.16444755e-02
      -4.41175282e-01 -7.49331892e-01 -5.89463353e-01 3.07229757e-01
      7.96269119e-01 2.14651242e-01 9.65449065e-02 1.64927885e-01</_>
    <_>
      -9.85378250e-02 1.97082758e-01 6.93928063e-01 8.15511942e-01
      -6.46003246e-01 -7.81455338e-01 -3.66831273e-01 -1.62046611e-01
      -1.83993429e-01 -3.77730206e-02 1.93176538e-01 8.17411005e-01
      4.79746968e-01 -6.56202137e-02 -6.22422814e-01 -5.89855194e-01
      -1.81130528e-01 -1.63066536e-01 -1.06191963e-01 6.76814169e-02
      1.03864241e+00 9.11210716e-01 -6.08713388e-01 -7.25950718e-01
      -2.67851144e-01 -2.17787415e-01 -1.62115902e-01 3.59637178e-02
      2.04376820e-02 3.71110171e-01 -2.48674408e-01 -6.56202137e-02
      -8.92371178e-01 -4.89218593e-01 -1.47347897e-01 2.53286827e-02
      -1.86712518e-02 2.36606505e-02 6.18572891e-01 4.73212898e-01
      -6.78201199e-01 -6.48464918e-01 -2.17209756e-01 -1.32876188e-01
      -6.11203536e-02 7.37896189e-02 4.87111472e-02 -9.26306471e-02
      -2.01632604e-01 2.52032164e-03 -8.02226603e-01 -2.46374026e-01
      1.54237181e-03 7.57165924e-02 -4.63857129e-02 -7.49968886e-02
      8.14669847e-01 6.24741614e-01 -8.06781426e-02 -4.16111439e-01
      -1.22477151e-01 -1.09894641e-01 -2.24321440e-01 6.38565570e-02
      -9.78064910e-03 -6.45522326e-02 3.83292092e-03 1.33752838e-01
      3.55196714e-01 1.92547262e-01 1.52583137e-01 1.19812697e-01
      9.34357475e-03 -1.53697357e-01 4.57513005e-01 4.28797126e-01
      -2.17899010e-01 -3.57222974e-01 2.01020185e-02 -1.11545473e-02
      -6.96964487e-02 1.62826300e-01 9.62886959e-02 -2.44370922e-01
      -2.65058100e-01 3.42568874e-01 1.03676963e+00 6.62038147e-01
      1.78085238e-01 2.99894273e-01 -8.72404426e-02 -7.93637633e-02
      -5.52013874e-01 -3.96584198e-02 -3.05266172e-01 -4.06679630e-01
      -9.97786373e-02 1.33571550e-01 8.62473026e-02 -1.33914530e-01
      1.96966529e-01 -5.23172438e-01 -8.04048836e-01 7.10876584e-01
      7.50714481e-01 3.65683377e-01 1.04792677e-01 3.00360143e-01</_>
    <_>
      8.49140704e-01 1.86408117e-01 -9.20647979e-01 -2.17324734e+00
      2.46098542e+00 1.49262083e+00 5.34949541e-01 4.36304063e-01
      8.91809046e-01 -4.91403520e-01 -2.67533392e-01 -1.54116247e-02
      8.36351395e-01 4.43055749e-01 -7.96631515e-01 1.18764974e-01
      2.22831085e-01 -2.32234612e-01 -1.10613398e-01 -2.49441907e-01
      -9.25556362e-01 -2.05412698e+00 1.34336340e+00 -4.46562059e-02
      9.42793339e-02 1.02870561e-01 -6.61231399e-01 -1.76793003e+00
      -1.10883486e+00 -7.28510797e-01 1.75155297e-01 5.87355271e-02
      -3.96243751e-01 -2.72482157e-01 -7.75718927e-01 -1.81339622e+00
      -1.18545756e-01 -1.57433361e-01 -3.58696014e-01 -8.02880585e-01
      4.68436807e-01 -1.14913553e-01 2.22753763e-01 7.64563307e-02
      -2.55742401e-01 -6.33289337e-01 -4.59421188e-01 -9.21400413e-02
      7.79395878e-01 2.44462397e-02 -5.96268654e-01 2.29596928e-01
      -2.90436506e-01 -5.96243858e-01 -2.76480108e-01 -1.22946925e-01
      -3.22622299e-01 -3.45715016e-01 2.15330478e-02 4.37366337e-01
      3.30424488e-01 -1.23649888e-01 -9.81582180e-02 9.44858417e-02
      2.76538841e-02 4.31947052e-01 6.97105646e-01 1.50672406e-01
      -8.75016510e-01 1.59687042e-01 -2.41660893e-01 2.09152371e-01
      -4.83552337e-01 -1.23683222e-01 -1.51673421e-01 -5.76983690e-01
      3.04083586e-01 6.14223301e-01 2.00429171e-01 -2.59531170e-01
      -3.42847168e-01 2.04226613e-01 2.65742596e-02 4.52289402e-01
      2.26736218e-01 9.49256420e-02 -6.63861111e-02 2.09102854e-01
      -5.22419035e-01 7.54483864e-02 -6.43942297e-01 -1.01958878e-01
      -1.97175518e-01 -5.98165810e-01 9.00986612e-01 3.98121417e-01
      5.41041195e-01 8.55117962e-02 -4.10023898e-01 1.73744783e-02
      1.81978717e-01 3.11146230e-01 -5.08612514e-01 -9.51684192e-02
      4.96016473e-01 8.35034847e-01 2.33943447e-01 2.82022327e-01</_>
    <_>
      6.33945763e-01 8.74837756e-01 9.58960652e-02 -4.85241503e-01
      -2.37814799e-01 1.61088511e-01 9.65273157e-02 2.26267964e-01
      3.37575138e-01 9.81859937e-02 5.90181574e-02 -3.00392091e-01
      -1.31853178e-01 1.12048995e+00 1.08930099e+00 4.64919865e-01
      3.28955173e-01 9.67995003e-02 4.15999353e-01 3.91391367e-01
      -5.70588708e-01 -7.09934711e-01 2.55575031e-01 3.51258308e-01
      7.96797648e-02 2.04553261e-01 2.26887941e-01 -2.18690380e-01
      -3.99937958e-01 -7.05598712e-01 4.68211845e-02 3.28393340e-01
      8.64129663e-01 3.30896437e-01 2.01127067e-01 -2.18657315e-01
      -1.38832340e-02 -8.58010873e-02 -3.71727169e-01 -2.89303735e-02
      3.79489064e-01 4.56912041e-01 1.19284548e-01 2.00089402e-02
      -4.77892980e-02 -1.81189850e-01 -5.47345996e-01 -3.94770920e-01
      3.69653434e-01 2.74034590e-01 1.51069194e-01 1.49669513e-01
      -7.04545081e-02 -1.70874864e-01 -4.82875496e-01 -3.08710247e-01
      -1.61863640e-01 4.43751723e-01 5.47688901e-01 4.90806550e-01
      2.72627801e-01 -6.67168275e-02 -4.68328983e-01 2.44482849e-02
      -5.64030945e-01 -4.24772464e-02 6.41991436e-01 6.23275876e-01
      4.50465977e-01 3.20029289e-01 -6.70176698e-03 -1.30945519e-01
      -5.22506058e-01 -4.50774550e-01 -3.06506485e-01 -1.24413989e-01
      9.36616540e-01 8.51960540e-01 3.92266124e-01 -7.74043202e-02
      -4.46029305e-01 -1.13696828e-01 -5.64242125e-01 -5.05152456e-02
      3.98847759e-01 6.55763447e-01 4.37239408e-01 2.73881733e-01
      2.85223611e-02 -3.01966488e-01 -1.95972502e-01 -3.95375043e-01
      -3.99012893e-01 -4.45898533e-01 4.28918272e-01 1.15646708e+00
      4.93024170e-01 1.96372315e-01 2.07760017e-02 -8.01621825e-02
      -4.59215760e-01 1.81372389e-01 -1.04540689e-02 -2.88989514e-01
      6.41115680e-02 5.37404492e-02 1.31763473e-01 5.39675988e-02</_>
    <_>
      1.78832218e-01 2.84276992e-01 -3.16650927e-01 -2.16011882e+00
      1.72729301e+00 8.97456586e-01 -3.83753926e-01 -3.40717971e-01
      5.60023367e-01 -1.02666664e+00 -6.48591638e-01 -4.81768727e-01
      5.87289035e-01 1.37513852e+00 2.81780213e-01 -4.88831639e-01
      -4.87121046e-01 -5.95208645e-01 -6.36222586e-02 -1.91100985e-01
      -4.41268206e-01 -1.77197433e+00 1.19271612e+00 -6.97281837e-01
      -5.50904453e-01 -2.15608254e-01 -2.50688195e-01 -1.85299301e+00
      -9.71433043e-01 -1.02162540e+00 -1.03172660e+00 7.74239242e-01
      -5.48446000e-01 -5.32446146e-01 -6.14769936e-01 -1.54683483e+00
      2.37915993e-01 2.65827440e-02 1.00981072e-01 2.85098076e-01
      -4.72708978e-02 5.89084672e-03 2.41404667e-01 1.25418201e-01
      6.22891113e-02 -4.79720503e-01 -3.15187305e-01 7.42548183e-02
      2.87547469e-01 -2.48923134e-02 1.47005409e-01 5.25922239e-01
      -1.87178090e-01 -5.29028714e-01 -1.75836399e-01 -2.57581472e-01
      -1.41256228e-01 -5.72579563e-01 -3.29577446e-01 -5.93746267e-02
      2.79842645e-01 -1.58636034e-01 -2.48151466e-01 7.77222291e-02
      -1.06162548e-01 5.48567772e-01 4.63878036e-01 -3.26248944e-01
      -6.64875746e-01 3.94194007e-01 -2.70927966e-01 -4.86285388e-02
      -6.76610231e-01 -6.19046926e-01 -1.20981671e-01 -1.55649161e+00
      -4.19129014e-01 -1.32264897e-01 -1.19459830e-01 -5.25534570e-01
      -7.39790022e-01 3.38085800e-01 1.65786177e-01 8.74511719e-01
      -3.33046108e-01 -4.34763223e-01 -3.05238307e-01 4.50875551e-01
      -2.80896686e-02 1.45613462e-01 -7.75793850e-01 -4.93195862e-01
      -6.52200505e-02 -1.20230365e+00 1.10035264e+00 1.32967448e+00
      -1.25179261e-01 -6.36510849e-01 -6.87933445e-01 6.24220014e-01
      4.39313024e-01 8.51128042e-01 -4.41891909e-01 -8.88781071e-01
      4.38618720e-01 4.63309318e-01 -8.37002024e-02 3.56144041e-01</_>
    <_>
      9.76824641e-01 8.15259159e-01 -8.90884936e-01 -2.71755147e+00
      8.76923084e-01 -4.86717522e-01 -4.97956902e-01 1.35625303e-01
      7.84481525e-01 -1.98952317e-01 -7.51333535e-02 -2.47318447e-01
      8.50821733e-01 1.18147910e+00 6.95108712e-01 -1.29429013e-01
      4.36906889e-02 -1.60678297e-01 -1.45606965e-01 -8.01599398e-02
      -9.64879215e-01 -1.46724188e+00 9.97820437e-01 -1.20834935e+00
      -7.56045282e-01 -1.95259601e-01 -5.47734834e-03 -8.54883969e-01
      -5.06474078e-01 -1.07611501e+00 -3.89498711e-01 9.36141431e-01
      1.32057384e-01 1.68772027e-01 -3.84342343e-01 -7.40161002e-01
      -1.18078433e-01 -6.91855848e-02 -1.85746342e-01 -3.17355424e-01
      2.12014452e-01 -8.14705193e-01 -9.82101485e-02 5.87795861e-02
      -5.27583025e-02 -4.98060346e-01 -4.07374918e-01 -6.66664600e-01
      -6.69085205e-01 2.38282800e-01 -1.60440636e+00 6.62610456e-02
      -2.41998926e-01 -3.25990260e-01 -6.54538646e-02 -8.45303312e-02
      3.27457309e-01 3.86138082e-01 2.47170389e-01 7.30373740e-01
      5.76516092e-01 2.12706216e-02 5.51308393e-02 -1.62497237e-01
      -3.36658150e-01 4.77976128e-02 -4.89874572e-01 3.24575782e-01
      -6.69956446e-01 5.40995657e-01 -1.59627944e-01 2.17747346e-01
      -3.65184993e-01 -3.41444790e-01 -3.46919805e-01 -1.32584226e+00
      -2.22640112e-02 4.91575778e-01 2.01772779e-01 -3.66548866e-01
      -3.08479577e-01 -2.38217145e-01 -3.18663448e-01 -1.02508880e-01
      -9.20447826e-01 8.28464091e-01 4.07875121e-01 5.46639502e-01
      -1.19436540e-01 5.60660884e-02 -3.61085474e-01 -4.54972714e-01
      -6.08684301e-01 -1.49926078e+00 5.47665171e-02 3.07781875e-01
      7.42182927e-03 -6.31902814e-01 -2.77761191e-01 9.46981192e-01
      6.47532761e-01 1.37766331e-01 2.93430984e-01 9.11544919e-01
      1.61409128e+00 8.85659397e-01 5.88730052e-02 7.66983569e-01</_>
    <_>
      2.59522676e-01 3.59570801e-01 6.90896213e-01 1.03579473e+00
      -7.92681813e-01 -5.95972762e-02 7.68219903e-02 8.03566203e-02
      1.77788794e-01 2.89918751e-01 1.56024441e-01 4.01468366e-01
      7.22630620e-01 3.41693312e-01 1.10273623e+00 3.18826318e-01
      1.51540279e-01 2.02615529e-01 2.36040026e-01 -1.63121596e-01
      1.45339698e-01 3.48166645e-01 -3.97393942e-01 6.05176687e-01
      3.51398349e-01 1.47614062e-01 2.01191276e-01 8.55515778e-01
      1.17182992e-01 5.70727400e-02 1.77137122e-01 -7.21569755e-04
      1.11867154e+00 7.18191147e-01 5.26280165e-01 6.61191165e-01
      -2.53288805e-01 -1.97146282e-01 -2.03058705e-01 5.90428591e-01
      3.09728414e-01 6.87820077e-01 2.77982205e-01 4.80047576e-02
      -6.61361516e-02 3.10172081e-01 -2.48318106e-01 -2.71748602e-01
      2.68912733e-01 6.27380684e-02 7.92283535e-01 6.10837460e-01
      3.79810423e-01 1.94744021e-01 -6.85457170e-01 -3.66278321e-01
      -5.08861661e-01 3.04373205e-01 6.96784854e-01 8.08400929e-01
      1.43115222e-01 -1.65639833e-01 -5.19920468e-01 -3.00955355e-01
      -4.68155950e-01 -3.18522155e-01 2.05312729e-01 4.81688470e-01
      8.94298136e-01 4.18548524e-01 2.26232521e-02 -5.76000333e-01
      -5.71708009e-02 -5.38276494e-01 -6.74063981e-01 4.24480259e-01
      9.65090096e-01 8.30975771e-01 4.69955623e-01 1.48568407e-01
      2.41419934e-02 2.09316507e-01 -1.32525161e-01 -2.17673942e-01
      9.91219953e-02 6.49189293e-01 9.61897016e-01 5.01340568e-01
      2.72495508e-01 1.42885238e-01 -1.40244007e-01 -6.53884351e-01
      -5.65748274e-01 1.30040616e-01 -1.45431265e-01 1.19795132e+00
      2.78719842e-01 -9.93239135e-02 8.83995146e-02 -1.69620126e-01
      -7.93566585e-01 -5.13607681e-01 -2.23221749e-01 -1.96700484e-01
      9.90927100e-01 2.47826412e-01 -2.26498812e-01 1.30045503e-01</_>
    <_>
      -1.50012887e+00 4.52544093e-01 1.08231592e+00 2.72292048e-01
      -1.39550078e+00 -2.28470945e+00 -2.39630842e+00 -2.30823851e+00
      -1.83168590e+00 -6.30052745e-01 -6.50163531e-01 -1.38263297e+00
      -1.72009408e+00 4.13990289e-01 1.18212175e+00 -5.05404294e-01
      -7.93668807e-01 -5.20222723e-01 -6.52670979e-01 -3.08937043e-01
      1.53234375e+00 2.00998694e-01 -9.85714793e-02 -1.05604315e+00
      -1.02367258e+00 -1.42723393e+00 -8.72861385e-01 -1.38424143e-01
      3.15447189e-02 -5.08067429e-01 -1.52383339e+00 1.02652931e+00
      -6.55413926e-01 4.25674140e-01 7.01692998e-02 1.65204287e-01
      3.98592710e-01 4.38481152e-01 1.20992851e+00 2.13947797e+00
      -8.46528769e-01 -1.30490017e+00 -6.24209523e-01 -4.86246914e-01
      3.35880369e-01 7.53937960e-01 4.89303440e-01 3.04631323e-01
      -5.45595884e-01 -5.91634989e-01 3.96466911e-01 4.32943553e-01
      2.17882067e-01 6.95004523e-01 8.11497644e-02 5.93503229e-02
      1.23691261e+00 7.75337934e-01 -9.65509713e-01 -8.14464509e-01
      -3.43062550e-01 -4.01521415e-01 -2.23764107e-01 9.08864290e-02
      -4.61654752e-01 -2.29293376e-01 -3.69170517e-01 -1.07743335e+00
      -3.10567111e-01 1.86993599e-01 -3.70618701e-01 1.75827034e-02
      -2.81710207e-01 -1.02159095e+00 -2.64844477e-01 -8.05879354e-01
      -7.41108775e-01 -5.02280891e-01 -1.61988735e-01 -3.36995006e-01
      -3.76309663e-01 5.31934679e-01 -6.58528432e-02 2.20312953e-01
      -9.67222810e-01 -2.50953019e-01 -7.60736108e-01 2.52208650e-01
      2.85977781e-01 7.05804229e-01 -1.28032160e+00 -1.80111814e+00
      -1.69611669e+00 -1.49162591e+00 5.68985641e-01 1.76318622e+00
      -6.74109101e-01 -8.66202414e-01 -9.28351462e-01 6.81363583e-01
      -1.69020832e-01 1.66946158e-01 -7.90885627e-01 -9.26540345e-02
      7.97464728e-01 9.85958651e-02 -2.39219174e-01 8.20209205e-01</_>
    <_>
      1.15125962e-01 5.57822526e-01 5.09721398e-01 1.20220691e-01
      -2.24559164e+00 -2.33064079e+00 -1.06563759e+00 -5.24517715e-01
      -3.41420114e-01 1.04976922e-01 5.93098164e-01 3.81935686e-01
      1.76667780e-01 1.75932646e-01 8.46945167e-01 -9.30548787e-01
      -4.54972237e-01 -4.43405986e-01 -2.98088670e-01 -3.28662604e-01
      5.43106377e-01 5.50368190e-01 -7.81579595e-03 -8.05049598e-01
      -2.44570345e-01 -5.84904514e-02 4.31230932e-01 9.39600646e-01
      1.02649033e+00 4.40931946e-01 2.07052037e-01 5.42942941e-01
      4.96819228e-01 5.28341830e-01 4.67611909e-01 9.47903574e-01
      -2.64962107e-01 -1.34123608e-01 -8.37279037e-02 2.33863771e-01
      -1.02521621e-01 -8.08053732e-01 -4.50707436e-01 -1.03011571e-01
      4.85552400e-02 2.07263753e-01 3.53878051e-01 -1.32620752e-01
      -5.36255419e-01 -6.67875074e-03 -1.09015930e+00 -2.37527877e-01
      5.52731864e-02 2.56961942e-01 1.93723783e-01 3.89359295e-01
      7.98810959e-01 7.72601962e-01 1.45944938e-01 1.47448361e-01
      3.13540757e-01 1.55541927e-01 1.21962339e-01 -4.42772865e-01
      -2.20941082e-01 -2.00048208e-01 -6.29196823e-01 1.15580903e-02
      2.94853717e-01 2.52599388e-01 -1.65236089e-02 -5.48048615e-02
      -5.75556755e-02 -1.45866811e-01 -2.76665717e-01 -4.15927231e-01
      -4.88936454e-01 -3.15516353e-01 -3.28858825e-03 1.04869930e-02
      -1.15214484e-02 -4.17418808e-01 -5.50016046e-01 -1.36428189e+00
      -1.47001398e+00 3.72441649e-01 8.84979069e-01 8.19115520e-01
      4.57707830e-02 1.97037548e-01 -5.67727029e-01 -5.47347426e-01
      -6.26706660e-01 -6.91302121e-01 -7.10536242e-01 -6.16785467e-01
      -1.33820510e+00 -8.69115353e-01 -8.96804988e-01 2.95412302e-01
      -1.85505107e-01 -5.58327258e-01 1.41461039e+00 2.31465745e+00
      1.95691323e+00 7.05907524e-01 -4.83204454e-01 2.65057564e-01</_>
    <_>
      -1.21524060e+00 -7.31082618e-01 -2.47553304e-01 -9.84208882e-01
      1.06852520e+00 3.08960497e-01 -5.84899262e-02 -1.79439366e-01
      -9.83940065e-01 -3.80548239e-01 -2.70826191e-01 -3.85663733e-02
      -5.86059153e-01 -4.29911315e-01 -8.99757922e-01 -5.07742986e-02
      1.80668265e-01 -3.82238239e-01 -6.13978803e-01 -1.36054948e-01
      2.59325564e-01 -5.60292900e-01 2.51886129e-01 -2.37246767e-01
      -2.51785249e-01 -4.35012817e-01 -7.39088118e-01 -2.03108937e-01
      2.43082687e-01 -9.89171714e-02 -3.69144678e-01 -2.68006057e-01
      -1.34999216e+00 -5.22508562e-01 -3.81786764e-01 -4.11158174e-01
      -1.53508902e-01 3.96634698e-01 7.21089244e-01 -1.02879912e-01
      -5.65548122e-01 -5.39934218e-01 -2.46436000e-01 -4.12646204e-01
      -3.54096174e-01 2.40660936e-01 7.93464899e-01 3.99497002e-01
      -3.86641175e-01 -5.51850080e-01 -2.50503778e-01 -1.97155789e-01
      -3.48605096e-01 -2.14313320e-03 4.60204005e-01 4.69167054e-01
      5.60124457e-01 -5.45146525e-01 -6.17735565e-01 -1.17816412e+00
      -3.99012506e-01 -4.33064044e-01 1.31904408e-01 4.34267223e-01
      3.94490927e-01 1.28632694e-01 -4.46666837e-01 -4.33643490e-01
      -7.75084794e-01 -2.98227936e-01 -3.67372274e-01 3.61868739e-01
      3.86970669e-01 3.15220267e-01 1.43313870e-01 -3.50868255e-01
      -7.37685502e-01 -9.77989912e-01 -5.04119694e-01 -4.23195899e-01
      -3.15293260e-02 3.99710387e-01 4.23716128e-01 1.46775022e-01
      -8.35949332e-02 -3.12125921e-01 -6.05501235e-01 -2.05805436e-01
      -3.37571859e-01 2.86347985e-01 -2.50743628e-01 -8.54446087e-03
      1.73716113e-01 -5.79533204e-02 -1.06196143e-01 -6.89232647e-01
      -5.38431942e-01 -5.59643269e-01 -1.21947445e-01 1.24690436e-01
      3.72718982e-02 1.17493860e-01 6.03797615e-01 4.57024962e-01
      -2.98917919e-01 -3.18708092e-01 -3.93264174e-01 1.28680050e-01</_>
    <_>
      -3.75731915e-01 -2.61198699e-01 2.16214329e-01 3.56752574e-01
      5.71532249e-01 -7.48995483e-01 -3.77715349e-01 -2.54690528e-01
      -3.52953225e-01 5.87204657e-02 4.52130586e-01 5.76577306e-01
      -8.05693984e-01 -1.10214698e+00 -1.38337326e+00 -5.18439293e-01
      -1.13801748e-01 -6.50182441e-02 -4.53101337e-01 -3.34157832e-02
      9.85119641e-01 2.99696475e-01 -1.21499173e-01 -7.30917454e-01
      -3.84529322e-01 -4.71832126e-01 -4.21937287e-01 7.43108988e-02
      5.58785498e-01 5.32930136e-01 -9.00304973e-01 -3.48944128e-01
      -1.37167120e+00 -4.07538623e-01 -1.95252880e-01 3.71014550e-02
      -7.29550868e-02 2.40064040e-01 7.03666925e-01 -3.48455608e-01
      -2.03840747e-01 -9.50688779e-01 -3.01957458e-01 -2.81688184e-01
      -1.20726459e-01 2.01312572e-01 4.78775918e-01 1.28700048e-01
      -7.86508501e-01 -3.39760542e-01 -1.02198040e+00 -2.91857868e-01
      -2.35911205e-01 1.41884223e-01 1.35676891e-01 2.05800995e-01
      6.43624544e-01 -4.78336871e-01 -4.59003747e-01 -4.10882801e-01
      -2.88109004e-01 -2.56877959e-01 -5.62030710e-02 4.32592452e-01
      7.26665497e-01 2.13085130e-01 -6.65564477e-01 -7.84243166e-01
      -2.05074012e-01 -1.92660019e-02 2.24176105e-02 4.53482121e-01
      1.71706881e-02 1.24069400e-01 3.01425755e-01 -4.55404133e-01
      -5.87266266e-01 -6.49967134e-01 -4.84951377e-01 -3.54285866e-01
      -6.57888651e-02 3.40577304e-01 6.92045629e-01 1.01360306e-01
      -6.06546581e-01 -3.80529940e-01 -2.18011644e-02 8.40929449e-02
      7.82636553e-03 4.89208370e-01 -1.56492412e-01 -1.35203689e-01
      -3.98288250e-01 -3.85268539e-01 6.95399269e-02 -1.44146931e+00
      -8.05443704e-01 -4.51205999e-01 -2.76027113e-01 5.85290015e-01
      5.64918935e-01 3.02724421e-01 -3.90099152e-03 1.14717555e+00
      -3.96238118e-02 -1.16205700e-01 -1.09668396e-01 7.29663193e-01</_>
    <_>
      2.02937150e+00 1.01451707e+00 -6.72597289e-02 6.09604359e-01
      -1.48651230e+00 -1.83382845e+00 3.16673480e-02 1.20147276e+00
      1.41117156e+00 1.17411971e+00 1.38879776e+00 1.03722489e+00
      1.18865597e+00 -6.64271712e-01 1.72316596e-01 -4.62421507e-01
      3.67960095e-01 5.88198483e-01 2.62874901e-01 -1.50609434e-01
      -1.61085561e-01 7.60662854e-01 -3.71197581e-01 -2.61673063e-01
      2.12202877e-01 4.97700304e-01 6.56333208e-01 1.23975599e+00
      7.68748224e-01 4.57903564e-01 7.89586127e-01 -1.32854953e-01
      1.29912364e+00 3.79991770e-01 2.86802530e-01 9.16063190e-01
      -4.22366977e-01 -4.55636501e-01 -7.39965856e-01 -5.65568566e-01
      3.80360514e-01 -3.15886497e-01 -3.47201228e-01 1.18484088e-04
      -9.14998800e-02 2.19112933e-02 -1.71558097e-01 -6.13347650e-01
      -4.81573075e-01 4.21414196e-01 -1.13121748e+00 -2.93795556e-01
      -2.22612515e-01 3.78184058e-02 2.79100209e-01 3.92853171e-01
      2.78380096e-01 8.74598265e-01 4.41688985e-01 3.64653319e-01
      3.13410938e-01 6.38102472e-01 5.09230137e-01 -4.27858919e-01
      1.01250984e-01 -5.85150063e-01 -6.21220350e-01 5.91268122e-01
      6.40938342e-01 7.44813502e-01 3.54086906e-01 -4.94369827e-02
      1.09739810e-01 6.07063830e-01 1.42615542e-01 3.93904179e-01
      -1.82636127e-01 -1.34930581e-01 1.10263275e-02 5.60245037e-01
      1.30884677e-01 -7.60242522e-01 -5.11162639e-01 -1.78754580e+00
      -1.21261954e+00 9.99907970e-01 1.23791325e+00 1.03745568e+00
      1.46826789e-01 -3.70810568e-01 1.63569137e-01 7.96747565e-01
      1.18452899e-01 1.00963628e-02 -9.78403091e-01 -1.99377441e+00
      -5.96803725e-01 3.24460149e-01 -6.24433458e-01 9.50642452e-02
      4.15995389e-01 -1.12434733e+00 6.63328826e-01 2.29530692e+00
      1.86439133e+00 1.11145365e+00 1.65724933e-01 -1.34320989e-01</_></support_vectors>
  <uncompressed_sv_total>1123</uncompressed_sv_total>
  <uncompressed_support_vectors>
    <_>
      1.90816641e-01 2.26069540e-01 2.28753924e-01 2.02257216e-01
      1.46546200e-01 1.39484536e-02 2.88094748e-02 1.85853355e-02
      1.56852588e-01 2.28753924e-01 1.97251827e-01 2.28753924e-01
      2.28753924e-01 1.55676782e-01 1.50176510e-02 0. 0. 1.52650222e-01
      2.23218545e-01 2.28753924e-01 2.28753924e-01 2.25171164e-01
      9.62810889e-02 0. 0. 1.23902236e-03 1.47271335e-01 2.28753924e-01
      2.13033676e-01 2.28753924e-01 2.28753924e-01 2.28753924e-01
      4.46392521e-02 0. 0. 1.81711733e-01 1.09615512e-01 2.55542785e-01
      2.55542785e-01 2.23915756e-01 1.10792071e-01 0. 0. 0.
      5.45368120e-02 1.90758750e-01 2.49083072e-01 2.55542785e-01
      2.40854502e-01 2.55542785e-01 1.55489417e-02 0. 0. 1.25081703e-01
      4.51877080e-02 1.63789168e-01 2.55542785e-01 2.55542785e-01
      2.28184968e-01 0. 0. 0. 2.94739380e-02 9.56422389e-02
      2.54782856e-01 2.55542785e-01 2.55542785e-01 2.55542785e-01 0. 0.
      0. 6.42443970e-02 1.44376233e-01 5.32784164e-02 2.23605186e-01
      2.58329898e-01 2.58329898e-01 1.93812605e-02 9.03178379e-03
      6.68016169e-03 1.16092697e-01 1.04021326e-01 1.49504915e-01
      2.58329898e-01 2.58329898e-01 2.28779107e-01 0. 0. 0.
      7.36108720e-02 2.58329898e-01 1.46532208e-01 1.22009307e-01
      1.44964159e-01 2.15378106e-01 3.04943882e-02 1.99431982e-02
      2.16785558e-02 2.57486522e-01 1.89176291e-01 1.69366881e-01
      2.58329898e-01 2.58329898e-01 2.58329898e-01 2.69185919e-02
      8.73909742e-02 5.06305508e-02 1.94155410e-01</_>
    <_>
      7.39258900e-02 6.10246286e-02 7.27848411e-02 4.10910323e-02
      9.79437232e-02 2.22006813e-02 5.00998925e-03 1.28757674e-02
      5.95401376e-02 3.63162197e-02 1.61419287e-02 1.48872519e-02
      7.14279665e-03 3.85775179e-01 3.85775179e-01 1.07306875e-01
      2.83266883e-02 2.79110707e-02 3.67175996e-01 1.47969872e-01
      1.70916378e-01 1.08440585e-01 1.93098813e-01 5.47134057e-02
      1.65172350e-02 5.04523963e-02 2.41409048e-01 1.58891678e-01
      8.53339285e-02 1.33746997e-01 5.98987043e-02 3.85775179e-01
      3.55445266e-01 7.23094046e-02 1.10995270e-01 8.81844237e-02
      2.70211905e-01 8.95543471e-02 1.24043107e-01 8.19036439e-02
      3.03297758e-01 4.84691970e-02 8.85406323e-03 1.57670267e-02
      1.91368505e-01 8.62919837e-02 4.22264189e-02 7.26182014e-02
      3.65894847e-02 5.07574856e-01 1.84278458e-01 1.94789395e-02
      3.46874557e-02 4.64523137e-02 2.86200475e-02 3.89988255e-03
      2.01064255e-02 1.94455441e-02 4.22107577e-01 1.13436896e-02 0. 0.
      2.50386801e-02 7.32316822e-03 1.26280484e-03 2.07554977e-02
      9.07016546e-02 5.07574856e-01 4.91559915e-02 0. 0. 5.69672370e-03
      3.72174270e-02 2.30448064e-03 2.99678976e-03 2.80101765e-02
      3.19104761e-01 2.97869137e-03 1.47108757e-03 1.13123807e-03
      3.72153893e-02 1.44321052e-02 5.06985793e-03 2.73580849e-02
      2.05083057e-01 4.06117290e-01 0. 0. 0. 1.44233005e-02
      3.80018145e-01 3.82312052e-02 1.29860891e-02 4.78916205e-02
      2.23184854e-01 1.29076643e-02 6.37471257e-03 1.87671818e-02
      3.74524593e-01 1.78620026e-01 8.41086581e-02 7.31549039e-02
      3.31851453e-01 4.06117290e-01 0. 0. 0. 1.54880807e-01</_>
    <_>
      1.27009690e-01 3.90150733e-02 2.15572938e-02 1.23198912e-01
      2.95859247e-01 1.82533253e-03 2.66592368e-03 7.24512991e-03
      1.03768580e-01 1.20286562e-01 1.91503130e-02 8.62115435e-03
      5.21289930e-03 2.95859247e-01 1.57973170e-01 6.49749562e-02
      1.00616142e-01 1.52734190e-01 2.95859247e-01 1.29548281e-01
      6.12072237e-02 2.53397495e-01 2.95859247e-01 7.33764330e-03
      5.89241320e-03 1.95662435e-02 2.95859247e-01 2.95859247e-01
      4.50450294e-02 1.34081347e-02 1.00608217e-02 2.95859247e-01
      2.25913540e-01 7.80771077e-02 1.74457505e-01 2.95859247e-01
      1.68974146e-01 4.40438390e-02 5.82863726e-02 2.60667562e-01
      4.12224531e-01 3.76018020e-03 2.18085176e-03 5.72940335e-03
      1.47241935e-01 1.47025973e-01 1.15045123e-02 3.17699392e-03
      3.26164393e-03 4.12224531e-01 1.86294660e-01 3.30146886e-02
      5.75855710e-02 1.64338976e-01 1.25452140e-02 7.25065172e-03
      4.96547036e-02 1.59174353e-01 4.12224531e-01 1.07533991e-01
      2.91186646e-02 8.76005553e-03 1.80704053e-02 7.97167234e-03
      3.29575059e-03 1.03616551e-01 2.02482730e-01 4.12224531e-01
      1.08969286e-01 0. 6.81337761e-03 1.22690434e-02 7.52589777e-02
      5.48292585e-02 1.10051580e-01 8.08773115e-02 2.98081934e-01
      2.58331299e-01 1.22289903e-01 9.44541171e-02 7.96388015e-02
      7.01144636e-02 6.14312291e-02 2.03484446e-01 2.98081934e-01
      2.98081934e-01 4.14606519e-02 5.35762906e-02 6.22386858e-02
      7.85180777e-02 1.57005265e-01 9.27547887e-02 1.30464211e-01
      8.13768506e-02 2.98081934e-01 2.34315351e-01 1.25487015e-01
      1.70552149e-01 1.42794654e-01 1.61781132e-01 1.28153563e-01
      1.18478030e-01 2.98081934e-01 2.98081934e-01 4.68974449e-02
      7.06607699e-02 1.06345482e-01 1.50806814e-01</_>
    <_>
      9.55093801e-02 8.80915150e-02 9.84875262e-02 8.34565982e-02
      1.78357884e-01 4.95184325e-02 3.27503271e-02 8.21772665e-02
      6.26688302e-02 7.78765082e-02 1.80636980e-02 2.51112301e-02
      9.65004601e-03 2.98903078e-01 2.78415948e-01 6.46909177e-02
      9.76377130e-02 8.82754698e-02 1.71898395e-01 2.06227869e-01
      2.98903078e-01 2.55267113e-01 2.98903078e-01 1.16761073e-01
      8.14546049e-02 1.67726129e-01 1.25641912e-01 1.70856610e-01
      3.23980562e-02 5.70173189e-02 1.84805598e-02 2.98903078e-01
      2.98903078e-01 1.40909836e-01 2.65853226e-01 1.96976393e-01
      5.41729704e-02 5.81236146e-02 1.38141483e-01 1.99753523e-01
      4.65106964e-01 3.71016152e-02 2.28634458e-02 4.45276015e-02
      4.57078926e-02 5.82671277e-02 7.66664324e-03 1.51470099e-02
      3.91493272e-03 4.65106964e-01 1.99608922e-01 4.54344377e-02
      8.38741511e-02 6.45784438e-02 2.24060190e-04 0. 2.91134370e-03
      3.74587253e-02 4.65106964e-01 8.20327830e-03 0. 0. 2.24060190e-04
      0. 0. 0. 2.04057340e-02 4.65106964e-01 8.95602908e-03 0. 0. 0.
      2.45002918e-02 3.98319326e-02 3.38032022e-02 4.99764532e-02
      3.39687735e-01 9.76671502e-02 7.34005570e-02 4.01915312e-02
      2.31276359e-02 1.70764700e-02 1.86831616e-02 5.73228374e-02
      2.09987745e-01 3.39687735e-01 1.69056021e-02 1.56195890e-02
      2.86137722e-02 1.40505675e-02 9.85645279e-02 1.80304721e-01
      1.37848377e-01 1.69298187e-01 3.29049259e-01 2.59887964e-01
      2.08209306e-01 2.13138834e-01 8.11000466e-02 1.08660556e-01
      1.03262343e-01 2.11861804e-01 3.39687735e-01 3.39687735e-01
      8.84935707e-02 6.75283521e-02 1.37376025e-01 5.38899787e-02</_>
    <_>
      1.33964911e-01 2.14518994e-01 2.52931684e-01 2.53484279e-01
      1.19331211e-01 0. 0. 0. 3.63572501e-02 1.68911487e-01
      2.53484279e-01 1.88547730e-01 2.53484279e-01 2.01960981e-01
      9.76282656e-02 1.89345051e-02 0. 9.92413461e-02 1.55428931e-01
      2.53484279e-01 2.53484279e-01 2.53484279e-01 1.33654833e-01 0. 0.
      0. 5.63622117e-02 1.68003440e-01 2.53484279e-01 2.53484279e-01
      2.53484279e-01 2.53484279e-01 8.03564861e-02 2.18248777e-02 0.
      8.03587064e-02 9.79019254e-02 2.58399874e-01 2.85545975e-01
      2.85545975e-01 2.13262260e-01 0. 0. 0. 4.76328172e-02
      6.80706874e-02 1.44929543e-01 1.80553883e-01 1.99613735e-01
      2.85545975e-01 1.31237209e-02 3.52401542e-03 0. 3.82855572e-02
      2.68682148e-02 3.65746692e-02 2.60917515e-01 2.85545975e-01
      2.85545975e-01 2.35794131e-02 6.65524369e-03 0. 2.57203709e-02
      9.51461121e-02 2.05304489e-01 2.71281362e-01 2.85545975e-01
      2.85545975e-01 0. 0. 0. 7.97276944e-02 1.04100876e-01
      1.45912245e-01 1.01803802e-01 1.71568811e-01 2.43771151e-01
      7.89648667e-02 2.81872544e-02 1.50908681e-03 9.39555615e-02
      1.99028701e-01 2.43771151e-01 2.31599972e-01 2.43771151e-01
      2.10140675e-01 0. 0. 0. 1.42439172e-01 2.00558737e-01
      2.43771151e-01 1.47060946e-01 2.12621093e-01 2.43771151e-01
      1.00409284e-01 5.93416467e-02 2.89384797e-02 1.89984217e-01
      2.32972667e-01 2.43771151e-01 2.32591450e-01 2.43771151e-01
      2.26850659e-01 0. 0. 0. 1.36666030e-01</_>
    <_>
      1.34624645e-01 1.10343210e-01 7.73947239e-02 2.24992752e-01
      2.11490065e-01 3.62798609e-02 9.28108580e-03 2.94794235e-02
      1.07597269e-01 1.16935827e-01 7.31088966e-02 3.23548988e-02
      6.97309300e-02 2.92773455e-01 2.54856378e-01 3.85425724e-02
      6.48547262e-02 1.18367299e-01 2.92773455e-01 1.94032609e-01
      1.62737250e-01 2.62643754e-01 2.55413532e-01 1.03428692e-01
      3.32853869e-02 3.57881561e-02 2.77539939e-01 1.11846648e-01
      1.24530643e-01 9.64566395e-02 1.96180329e-01 2.92773455e-01
      2.92773455e-01 1.20417602e-01 8.17169026e-02 1.16997778e-01
      1.36491075e-01 7.20178634e-02 1.12794943e-01 1.48696423e-01
      3.41726303e-01 7.09258094e-02 2.27467921e-02 5.40108932e-03
      1.30665660e-01 5.14440760e-02 3.85794304e-02 4.50462736e-02
      1.26508906e-01 3.89676869e-01 3.70956570e-01 1.29503533e-01
      2.87213232e-02 7.29875341e-02 1.89678627e-03 1.36677991e-04
      3.73094380e-02 1.02259412e-01 3.89676869e-01 4.21802066e-02
      6.61275396e-03 0. 1.89678627e-03 1.50559712e-02 6.26265258e-03
      1.14424244e-01 3.54056746e-01 3.89676869e-01 6.59099892e-02
      3.42671089e-02 1.54526187e-02 4.04227413e-02 1.49677470e-01
      1.17501244e-02 9.00009945e-02 1.09048404e-01 2.58729011e-01
      9.51086283e-02 5.69417104e-02 1.13001680e-02 1.49322748e-01
      7.81756938e-02 2.92598866e-02 2.61114329e-01 3.19281012e-01
      3.19281012e-01 2.42639650e-02 2.42163390e-02 2.79838834e-02
      6.62349984e-02 3.19281012e-01 3.02559845e-02 8.95383954e-02
      7.63016045e-02 1.25786304e-01 6.74364194e-02 6.89731315e-02
      2.86972634e-02 3.19281012e-01 1.92686096e-01 5.96760102e-02
      2.41114363e-01 3.19281012e-01 3.19281012e-01 3.04359682e-02
      1.90567579e-02 3.20033245e-02 1.32826507e-01</_>
    <_>
      2.38499075e-01 1.07794933e-01 5.38593419e-02 7.94736743e-02
      3.01382363e-01 6.60078824e-02 6.12261072e-02 4.16753031e-02
      2.52008468e-01 8.98437053e-02 1.15209632e-01 8.30246210e-02
      1.05403520e-01 3.35779756e-01 2.10020244e-01 1.90220058e-01
      6.65322468e-02 1.41232312e-01 2.77845293e-01 8.70276988e-02
      4.19663899e-02 5.34554832e-02 2.50737816e-01 6.43890649e-02
      4.98105027e-02 3.71202640e-02 2.85285324e-01 8.22611749e-02
      8.46586823e-02 1.26025960e-01 1.14229493e-01 3.35779756e-01
      2.46119767e-01 1.66024715e-01 2.37779580e-02 1.09603040e-01
      5.31000979e-02 9.98242106e-03 1.30491145e-03 7.77283264e-03
      2.93511778e-01 7.65367690e-03 2.07030773e-03 4.82977740e-03
      5.31000979e-02 3.66985872e-02 1.71995424e-02 7.38225207e-02
      7.73405805e-02 4.87198681e-01 7.06602260e-02 3.51313762e-02
      3.29163633e-02 7.20031410e-02 2.49947049e-02 1.56908352e-02
      3.64042744e-02 9.45027992e-02 3.34893316e-01 3.90202589e-02
      1.05661256e-02 0. 1.41330855e-02 3.43136229e-02 2.90234629e-02
      1.58113733e-01 4.87198681e-01 4.87198681e-01 6.19450025e-02
      7.02353567e-02 3.94790471e-02 5.45698069e-02 1.84714288e-01
      8.93298462e-02 1.13438897e-01 1.24929331e-01 2.04578102e-01
      7.48765543e-02 2.35797111e-02 1.56008611e-02 1.13468185e-01
      1.20749220e-01 1.20932072e-01 1.85614988e-01 3.50827426e-01
      3.50827426e-01 1.85599346e-02 2.12119594e-02 5.08502033e-03
      4.02336605e-02 3.36911827e-01 1.10552169e-01 1.28438815e-01
      1.14728987e-01 1.37144417e-01 5.01182862e-02 1.57982875e-02
      3.65591459e-02 2.34857723e-01 1.45191342e-01 1.26588896e-01
      1.83906481e-01 3.50827426e-01 3.50827426e-01 0. 0. 0.
      4.45877835e-02</_>
    <_>
      2.64088809e-01 0. 0. 0. 1.96447149e-01 9.66125131e-02
      5.22569716e-02 4.64604124e-02 2.89933294e-01 1.46837085e-01 0. 0.
      0. 2.89933294e-01 2.48444811e-01 1.60879552e-01 6.98285252e-02
      2.07349762e-01 2.89933294e-01 0. 0. 0. 1.74850434e-01
      1.09146126e-01 8.13229829e-02 4.64409702e-02 2.89933294e-01
      2.02107474e-01 0. 0. 0. 2.89933294e-01 2.89933294e-01
      2.19813615e-01 5.01662940e-02 2.64954984e-01 6.61849231e-02 0. 0.
      7.16401089e-04 3.24254453e-01 6.91453218e-02 1.76549833e-02
      3.81885958e-03 7.48830363e-02 6.82568103e-02 0. 0. 1.07460162e-02
      4.83441919e-01 2.92022288e-01 5.35306819e-02 4.27824212e-03
      7.41058066e-02 4.53507062e-03 0. 2.97866785e-03 2.13366784e-02
      4.83441919e-01 9.13155079e-02 1.45201646e-02 0. 4.53507062e-03
      7.46157439e-03 0. 1.29075600e-02 2.07480937e-01 4.83441919e-01
      1.51407480e-01 7.37193367e-03 0. 7.46157439e-03 5.65963015e-02
      2.32328027e-02 3.52132991e-02 6.97715357e-02 3.26059341e-01
      1.14852309e-01 7.46048093e-02 4.97590229e-02 3.41210850e-02
      2.70630959e-02 1.17410086e-02 6.61851168e-02 3.13312978e-01
      3.88079017e-01 8.97120237e-02 2.87116487e-02 2.60671023e-02
      1.50348125e-02 1.23081401e-01 1.14131220e-01 1.14948176e-01
      1.51544407e-01 2.36892030e-01 1.83264151e-01 1.49647683e-01
      1.86550424e-01 1.39620706e-01 7.77341202e-02 1.10826991e-01
      1.04014084e-01 3.88079017e-01 3.88079017e-01 1.04675077e-01
      6.55739978e-02 1.21939175e-01 5.03327288e-02</_>
    <_>
      2.52712488e-01 1.74395926e-02 3.24602574e-02 2.40504593e-02
      1.07278101e-01 3.65982763e-02 9.87268053e-03 2.58971825e-02
      2.31030822e-01 1.11834563e-01 0. 0. 0. 3.57194215e-01
      3.57194215e-01 8.19501430e-02 5.69738001e-02 1.35475963e-01
      2.88269222e-01 1.97509900e-02 7.51585215e-02 1.04999356e-01
      2.96747714e-01 5.64181209e-02 1.47946905e-02 3.14393006e-02
      2.62966931e-01 1.31817445e-01 0. 3.09009897e-03 1.09481625e-02
      3.57194215e-01 3.57194215e-01 7.64122233e-02 6.91664666e-02
      1.50248349e-01 3.92425880e-02 2.33412767e-03 2.13322248e-02
      5.70161864e-02 4.83635873e-01 1.67967994e-02 3.62132140e-03
      4.26205667e-03 3.60588804e-02 1.87554043e-02 0. 1.52518377e-02
      5.93288094e-02 4.83635873e-01 1.18801229e-01 1.85634326e-02
      9.37652402e-03 1.87716857e-02 4.44781315e-03 0. 5.08903526e-03
      3.34223211e-02 4.83635873e-01 2.15591490e-02 4.76456527e-03
      1.55789657e-02 4.45811497e-03 4.51670698e-04 0. 2.30584200e-02
      1.76754966e-01 4.83635873e-01 0. 0. 0. 4.51670698e-04
      1.17600523e-01 1.06346738e-02 5.60107417e-02 9.82175097e-02
      3.25129241e-01 8.89088288e-02 4.95672114e-02 9.88629237e-02
      1.14586793e-01 6.72050193e-02 1.53820682e-02 1.29219815e-01
      3.66829753e-01 3.66829753e-01 1.41435850e-03 1.43211754e-03
      2.10692850e-03 4.58165817e-02 2.70615906e-01 2.73837540e-02
      6.76098764e-02 7.78609365e-02 1.51539370e-01 8.38968232e-02
      5.37605882e-02 1.27696946e-01 2.59603381e-01 1.70437455e-01
      4.26129848e-02 1.56451151e-01 3.66829753e-01 3.66829753e-01
      1.81846111e-03 1.84129400e-03 4.93738893e-03 1.10616751e-01</_>
    <_>
      7.88256973e-02 8.20334442e-03 1.14878863e-02 2.86596338e-03
      6.49321228e-02 1.44868627e-01 2.32373580e-01 2.05989107e-01
      2.49968201e-01 1.53609350e-01 4.52930219e-02 7.10486025e-02
      1.38486484e-02 1.01037554e-01 2.49968201e-01 2.49968201e-01
      2.49968201e-01 2.49968201e-01 1.96949810e-01 1.87399816e-02
      2.82094833e-02 2.11453866e-02 1.86384916e-01 1.96290672e-01
      1.52775005e-01 2.49968201e-01 2.49968201e-01 1.40157565e-01
      4.76327958e-03 9.33422148e-03 0. 8.72217491e-02 2.38313571e-01
      2.11774766e-01 2.49968201e-01 2.49968201e-01 1.48413211e-01
      6.69823121e-03 1.70363784e-02 1.16252871e-02 2.34064624e-01
      2.05182061e-01 1.52694806e-01 2.34064624e-01 1.79019377e-01
      1.64306179e-01 0. 0. 0. 1.20353036e-01 2.34064624e-01
      2.24301621e-01 2.34064624e-01 2.34064624e-01 1.59058481e-01 0. 0.
      0. 2.34064624e-01 1.94948897e-01 1.69106826e-01 1.81402430e-01
      1.70497075e-01 1.71296671e-01 0. 0. 6.22160034e-03 2.34064624e-01
      2.34064624e-01 2.34064624e-01 2.34064624e-01 2.34064624e-01
