<?xml version="1.0"?>
<opencv_storage>
<opencv_ml_svm>
  <format>3</format>
  <svmType>C_SVC</svmType>
  <kernel>
    <type>LINEAR</type></kernel>
  <C>1.</C>
  <term_criteria><iterations>10000</iterations></term_criteria>
  <var_count>1188</var_count>
  <class_count>2</class_count>
  <class_labels type_id="opencv-matrix">
    <rows>2</rows>
    <cols>1</cols>
    <dt>i</dt>
    <data>
      -1 1</data></class_labels>
  <sv_total>1</sv_total>
  <support_vectors>
    <_>
      1.34782372e-02 3.67750749e-02 1.45087519e-03 1.41032981e-02
      -3.92770320e-02 4.48373370e-02 4.17905971e-02 3.24094296e-02
      2.48824582e-02 -4.56623919e-02 7.73297530e-03 2.07453687e-03
      -1.19750332e-02 -3.26517932e-02 4.18255329e-02 2.87354570e-02
      2.52936743e-02 -2.32501682e-02 1.23723485e-02 4.12170030e-02
      2.51946878e-02 3.61237153e-02 -2.19014101e-02 2.32551619e-02
      3.10520418e-02 1.35649564e-02 1.43113662e-03 -2.85303295e-02
      1.51769640e-02 3.11248787e-02 -3.70143098e-04 -6.64011575e-03
      4.00468148e-02 1.06016695e-02 5.43453963e-04 -3.97611931e-02
      -3.94007564e-02 1.47592835e-03 2.57011056e-02 -7.47859571e-03
      2.44828919e-03 3.30179669e-02 3.06609031e-02 2.90443785e-02
      -2.47122664e-02 -1.50759378e-02 7.88019039e-03 1.35149853e-02
      3.45067492e-05 -3.77516411e-02 7.65640521e-03 1.25450166e-02
      -8.80886428e-03 -2.62877662e-02 -3.11240871e-02 1.83420163e-02
      2.89844163e-02 -8.29457305e-03 2.79622208e-02 4.54137698e-02
      1.98677052e-02 2.37004366e-02 -3.78372967e-02 -3.13725360e-02
      1.08331470e-02 1.26407836e-02 -2.57920567e-02 2.82229502e-02
      3.91631089e-02 2.76580732e-02 2.32718121e-02 -2.76321527e-02
      5.35721891e-03 2.52460968e-02 -4.26042679e-05 4.13602591e-03
      -3.65586318e-02 -2.77016442e-02 -1.23372776e-02 -1.81709658e-02
      -1.32593242e-02 -6.09161041e-04 2.07984094e-02 8.82379059e-03
      2.66094860e-02 1.75667927e-02 -7.02087127e-04 -2.30698730e-03
      8.76406953e-03 -1.17299492e-02 -4.63612517e-03 2.10881662e-02
      1.26904706e-02 -1.48404809e-02 3.67567874e-02 1.09433634e-02
      -2.11806279e-02 -1.74645372e-02 -1.84909757e-02 -1.21619320e-02
      -2.15880033e-02 -4.10369039e-02 6.32991269e-03 3.62822451e-02
      1.79296099e-02 -1.35139860e-02 1.99321704e-03 -1.94515903e-02
      2.20923834e-02 2.47525368e-02 2.00518351e-02 -1.06376223e-03
      -2.60270741e-02 2.26693675e-02 3.10198907e-02 1.71326101e-02
      1.02073457e-02 -3.02115306e-02 1.51963495e-02 2.25861575e-02
      -1.99373737e-02 -3.58887715e-03 3.61274779e-02 2.15065461e-02
      1.14552602e-02 -3.20330150e-02 -6.42224099e-04 -2.91443150e-03
      -3.06054186e-02 -3.76764983e-02 -4.12739590e-02 3.26173194e-02
      3.99474055e-02 4.39615175e-02 8.60117748e-03 -3.26429047e-02
      2.30057240e-02 1.69254690e-02 -3.38411070e-02 7.39786448e-03
      4.58303615e-02 5.38307317e-02 5.27612194e-02 -2.14395579e-02
      -4.18862216e-02 2.94926558e-02 2.75475308e-02 3.40619427e-03
      3.10285296e-02 4.07361165e-02 3.21707837e-02 1.23723168e-02
      -4.83581126e-02 -4.74793725e-02 2.53008935e-03 1.46180009e-02
      -1.15848053e-02 4.29923460e-02 2.38872897e-02 1.47086047e-02
      -6.88059255e-03 -5.52599952e-02 -5.45571819e-02 2.98045259e-02
      3.13140340e-02 2.12336238e-03 3.90877873e-02 4.14638147e-02
      4.20579761e-02 2.57161856e-02 -4.65148203e-02 -5.55816628e-02
      2.05965643e-03 2.15382036e-02 1.52967079e-02 4.18758541e-02
      3.24848555e-02 2.75461171e-02 4.84467670e-03 -6.63338527e-02
      -2.79977489e-02 -1.04857264e-02 -1.31783274e-03 -4.72111953e-03
      5.28179891e-02 2.15702765e-02 -1.25781912e-02 -3.18289623e-02
      -3.58062461e-02 -5.51529508e-03 -1.63217320e-03 -1.94291808e-02
      -3.55743081e-03 9.38616693e-03 2.62589455e-02 4.59883595e-03
      1.21739665e-02 -8.37499369e-03 -4.64902483e-02 -4.26461548e-03
      1.97361503e-03 2.50962153e-02 6.74394742e-02 3.10178623e-02
      -1.18967041e-03 -2.11226903e-02 -4.89808023e-02 -5.13655581e-02
      -1.16089862e-02 -2.44473331e-02 -1.38888499e-02 -3.36353038e-03
      1.87158063e-02 1.71365403e-02 1.55880908e-03 -5.32547310e-02
      2.12502759e-03 -9.99693573e-03 -3.88502739e-02 -2.10906230e-02
      -5.91548383e-02 1.45280985e-02 2.70746201e-02 3.25016081e-02
      9.04677249e-03 3.05085210e-03 2.57263444e-02 1.37524158e-02
      -3.44078289e-03 -2.68991720e-02 1.39284050e-02 2.33345218e-02
      3.57588008e-02 1.24122843e-03 4.88518216e-02 3.61985639e-02
      2.62774192e-02 1.49951009e-02 -4.39458825e-02 -3.79999354e-03
      -8.82571377e-03 1.98252629e-02 4.55975942e-02 2.22926941e-02
      2.66897213e-02 3.29825766e-02 4.14646342e-02 -4.75756712e-02
      -7.71767413e-03 -1.82027444e-02 1.50930667e-02 1.46775469e-02
      -2.82922853e-02 3.28908078e-02 3.00312527e-02 1.97678208e-02
      2.38712840e-02 2.92316005e-02 1.77074596e-02 1.54835461e-02
      -4.17273603e-02 -3.93893719e-02 -6.65524323e-03 1.76772177e-02
      2.17286944e-02 4.21096869e-02 2.88957860e-02 -1.39768096e-02
      -6.38316851e-03 -4.27341685e-02 -2.34066267e-02 -7.42780743e-03
      9.49364621e-03 2.58215554e-02 4.81931213e-03 1.96750555e-02
      8.09870940e-03 4.04965971e-03 -2.68921703e-02 -3.88577357e-02
      -1.78709067e-02 6.76998124e-03 3.02736517e-02 6.29976690e-02
      3.06113828e-02 -3.57935857e-03 -9.78104677e-03 -1.99230742e-02
      -4.89857458e-02 -6.25669723e-03 1.08151222e-02 2.80566309e-02
      7.37994686e-02 2.77381781e-02 -2.93861926e-02 -3.23602520e-02
      -4.32719588e-02 -5.92877753e-02 -2.39319019e-02 -1.95558313e-02
      6.02842029e-03 1.74747482e-02 1.45872962e-02 1.16170794e-02
      -1.63283590e-02 -7.17308745e-02 -1.36966659e-02 9.26634483e-03
      3.37120891e-02 3.98961045e-02 9.02232006e-02 3.22907344e-02
      -2.29189768e-02 -2.84667723e-02 -2.91547608e-02 -6.18315488e-03
      -1.97169650e-02 -1.14705297e-03 9.99364816e-03 -1.85905420e-03
      7.91084860e-03 1.93349260e-03 -4.03046086e-02 -3.31322178e-02
      3.14944126e-02 2.49221013e-03 2.77047660e-02 -5.23700692e-05
      -2.59432811e-02 3.11767939e-03 -1.42763099e-02 -4.34867339e-04
      2.61319187e-02 5.10715460e-03 2.17985790e-02 5.83047234e-02
      2.28307992e-02 -3.86327803e-02 2.31175926e-02 -2.44740979e-03
      1.17634619e-02 4.32032533e-03 1.86966509e-02 -2.37478185e-02
      7.70441908e-03 -2.74312180e-02 -4.28412519e-02 6.56413333e-03
      1.91234779e-02 -8.37344117e-03 2.06916779e-02 -1.53661342e-02
      -1.33300284e-02 -5.79495099e-04 4.28215647e-03 -3.72349210e-02
      4.31027263e-02 5.34491353e-02 3.24354991e-02 -1.07766944e-03
      -3.32859866e-02 -2.88235210e-03 1.44017898e-02 1.50875235e-02
      -3.24240816e-03 2.45646294e-02 9.14521050e-03 -5.16562629e-03
      -3.65401134e-02 -6.56464025e-02 8.30972451e-04 5.97545831e-03
      2.90854834e-02 1.85230784e-02 3.26727740e-02 -4.16938355e-03
      -1.72591601e-02 -6.25459179e-02 -2.88408045e-02 2.04119757e-02
      3.35315280e-02 3.50670181e-02 4.75280322e-02 6.19919561e-02
      4.37011719e-02 2.90739108e-02 -2.64485478e-02 -4.14082669e-02
      2.76624467e-02 2.19597947e-02 4.45310771e-02 3.94990519e-02
      6.22207001e-02 1.61115509e-02 7.98636116e-03 -3.69932912e-02
      -3.05243544e-02 3.46458964e-02 4.59969118e-02 4.31350358e-02
      6.60788715e-02 3.65761481e-02 -5.70899062e-03 -2.10201573e-02
      -4.98021767e-02 1.25702086e-03 3.67497280e-03 9.45471507e-03
      -2.00370736e-02 -3.42261307e-02 2.51761694e-02 1.07145577e-03
      -2.78014205e-02 -1.85893085e-02 -3.96127589e-02 4.32767645e-02
      3.82304192e-02 4.13117595e-02 4.08069715e-02 3.11749708e-02
      1.13677690e-02 -7.34311936e-04 -2.76446790e-02 -3.95128096e-04
      3.52450944e-02 -4.13478678e-03 -3.82967442e-02 -5.17646633e-02
      3.11244894e-02 7.71649089e-03 -5.13303094e-03 -2.69453367e-03
      2.51526814e-02 3.22034210e-02 7.35153677e-03 -7.57588912e-03
      -3.16879861e-02 1.53773408e-02 3.14232223e-02 1.47463866e-02
      3.03940177e-02 -1.67849381e-02 1.34683456e-02 -3.24134901e-02
      3.08356737e-03 -4.17366736e-02 3.29970680e-02 5.41342460e-02
      3.15877870e-02 3.09008453e-03 2.06406917e-02 3.40913236e-02
      -6.31357892e-04 6.67818915e-03 -5.34364954e-03 2.65374873e-02
      1.43476566e-02 2.71148048e-02 2.06166990e-02 -2.43390128e-02
      7.51475198e-03 1.52689461e-02 1.51941432e-02 1.95624083e-02
      3.63581330e-02 2.64257453e-02 2.55052745e-02 -2.30757929e-02
      -1.00657465e-02 4.76792967e-03 2.34925523e-02 2.87826378e-02
      6.53720349e-02 3.74962054e-02 3.21353599e-02 1.62107535e-02
      -6.35190954e-05 -5.20586334e-02 2.04993058e-02 2.43539475e-02
      3.60249728e-02 8.26636106e-02 4.53107506e-02 3.67084891e-02
      8.91363155e-03 -4.30105403e-02 -6.51544556e-02 -1.00003723e-02
      2.90582143e-02 2.21917368e-02 7.00398833e-02 2.60461252e-02
      2.94909496e-02 1.36873471e-02 -5.25432266e-02 -6.12504669e-02
      -1.54753327e-02 5.62590314e-04 1.28912292e-02 5.74574471e-02
      2.70382743e-02 4.17348556e-02 1.35796433e-02 -5.05691543e-02
      -1.46842571e-02 2.94633638e-02 1.82661563e-02 2.11406350e-02
      4.34847400e-02 2.37225685e-02 2.91651022e-02 2.04464011e-02
      -1.84651576e-02 4.79364349e-03 2.26440523e-02 -1.12471627e-02
      -3.44708636e-02 -5.32848574e-02 3.81635204e-02 2.90220343e-02
      1.57123134e-02 -2.60258064e-04 -2.96733361e-02 1.75598613e-03
      4.00259905e-03 1.13098715e-02 3.37421410e-02 3.48381884e-02
      5.52277863e-02 3.09740696e-02 -4.00141850e-02 -9.49677546e-03
      1.73242223e-02 -2.40910072e-02 -3.53008546e-02 -4.42170799e-02
      3.15854922e-02 4.58356515e-02 3.54106091e-02 -1.61318071e-02
      -1.67838037e-02 1.36598069e-02 -1.49649177e-02 -2.20375825e-02
      1.21230865e-02 3.05635333e-02 2.19227560e-02 2.63395887e-02
      -1.57380551e-02 -6.66082948e-02 2.15410278e-03 2.59788278e-02
      3.61682698e-02 3.65681536e-02 6.54081851e-02 5.19845188e-02
      4.81288545e-02 -5.93985990e-02 -2.59833148e-04 2.54802988e-03
      -3.58471125e-02 -3.29833142e-02 6.52384665e-03 2.74713133e-02
      4.64168899e-02 2.52792332e-02 1.30998818e-02 -2.77862772e-02
      -1.93614457e-02 1.08006569e-02 3.32849957e-02 5.22829294e-02
      5.13896383e-02 7.23458976e-02 3.98616530e-02 -1.11420900e-02
      -7.51897097e-02 -7.29134725e-03 3.96210216e-02 4.01329845e-02
      1.11350529e-01 3.62636410e-02 5.40327430e-02 3.72708254e-02
      -7.71301016e-02 -7.93335810e-02 -1.87538583e-02 2.28680950e-02
      1.87129322e-02 8.74732658e-02 2.18469687e-02 2.85016038e-02
      2.43664235e-02 -8.52712542e-02 -3.96482274e-02 -1.20773586e-02
      1.71927493e-02 3.81362624e-02 7.97030404e-02 3.70611176e-02
      6.00397587e-02 3.18430588e-02 -3.31367590e-02 -4.95723635e-02
      -4.71958192e-03 1.87105928e-02 3.19886915e-02 4.28913981e-02
      1.19996499e-02 1.20014325e-02 1.04785161e-02 -6.14484139e-02
      -7.52187148e-02 -4.96949675e-03 1.86754968e-02 1.39989909e-02
      4.05759998e-02 2.47543138e-02 4.15460914e-02 3.31423096e-02
      -7.21235722e-02 -1.54692335e-02 2.58432701e-02 -9.80357639e-03
      -2.27573514e-02 -3.08374502e-02 2.95498893e-02 4.92193475e-02
      5.68382591e-02 -6.03720779e-03 -3.30034979e-02 -1.18901134e-02
      -4.15483769e-03 3.53972390e-02 -4.66731889e-03 6.20887196e-03
      -4.56014182e-03 1.07052585e-03 -2.83427835e-02 3.48458439e-02
      3.26014161e-02 9.28740297e-03 -4.27297875e-03 -2.15546284e-02
      3.80594768e-02 2.42316630e-02 2.00558919e-02 4.36358713e-02
      1.82928536e-02 1.91930104e-02 -1.02597186e-02 -2.20386274e-02
      1.02011226e-02 2.42603309e-02 2.25819591e-02 3.31978574e-02
      3.35023962e-02 -2.25781668e-02 -1.13262879e-02 -7.56410416e-03
      2.74470672e-02 4.36247624e-02 1.71070546e-02 3.80931189e-04
      -7.02993595e-04 7.74301309e-03 2.01721415e-02 -1.68486222e-04
      -4.65631895e-02 -1.83265582e-02 -1.68339461e-02 2.26392392e-02
      1.59374364e-02 4.68714647e-02 4.84882668e-02 -3.48648317e-02
      -2.32324563e-02 -4.62642759e-02 2.42730975e-02 4.15595584e-02
      7.58967502e-03 -1.82993590e-05 1.46114761e-02 -9.20467917e-03
      -1.42778866e-02 6.87031588e-03 2.09485944e-02 3.45506482e-02
      6.19658157e-02 1.41081279e-02 2.50674877e-02 1.22996513e-02
      -1.54717248e-02 -2.07721740e-02 4.60489793e-03 2.37251930e-02
      4.37193699e-02 5.58615774e-02 6.96286140e-03 2.32986012e-03
      -1.82985922e-03 -2.68391352e-02 -4.50800061e-02 -7.91614503e-03
      1.89982262e-02 3.18985656e-02 5.81955351e-02 4.60294541e-03
      1.50967939e-02 1.81744527e-02 -4.56785895e-02 -2.61921939e-02
      -3.13448459e-02 1.68823209e-02 2.72367559e-02 6.08992502e-02
      6.19469583e-03 -1.59472525e-02 -1.59860048e-02 -2.72425041e-02
      -1.32360002e-02 -1.33359723e-03 -9.58221965e-03 4.27796431e-02
      2.30314136e-02 1.81319304e-02 -4.08592215e-03 1.33687805e-03
      -4.07609111e-03 3.40717211e-02 1.90810934e-02 1.82282133e-03
      -8.65383074e-03 -1.70303695e-02 2.36736778e-02 6.81638997e-03
      -7.13932604e-05 3.72352302e-02 -1.88444387e-02 -1.73066882e-03
      2.65131332e-02 3.54936495e-02 1.23547697e-02 2.23813131e-02
      -2.24673897e-02 -1.79712530e-02 -7.43431505e-03 3.07126455e-02
      1.95975471e-02 8.95826519e-03 -1.03635751e-02 -2.94454340e-02
      1.64838191e-02 -8.81509203e-03 4.02674824e-03 3.44714150e-02
      4.68223281e-02 -1.56207532e-02 -3.27936038e-02 -2.68033613e-03
      -1.50111467e-02 2.49577966e-02 2.32187118e-02 2.38026101e-02
      7.01914504e-02 -1.78435501e-02 -4.36223149e-02 -3.79435010e-02
      2.13749558e-02 5.72549514e-02 7.90278241e-03 -6.91572251e-03
      2.40239631e-02 1.40111465e-02 -4.78846207e-03 -3.72294150e-02
      -4.23539802e-02 -7.78593589e-04 -1.37308827e-02 9.96606424e-03
      9.11405683e-03 1.66605935e-02 1.78251751e-02 -1.15043465e-02
      -3.27817127e-02 -3.58087905e-02 2.50738859e-02 3.19579467e-02
      -1.39641501e-02 -2.86752582e-02 2.09609270e-02 9.79296397e-04
      -2.48090345e-02 -1.60298180e-02 -9.73324815e-04 2.32934542e-02
      6.13644123e-02 -1.09102065e-02 -1.00633372e-02 3.25244246e-03
      -2.35413518e-02 -1.87646374e-02 -1.04854796e-02 3.07256989e-02
      1.47879673e-02 3.38366739e-02 2.26394250e-03 -3.02355587e-02
      -2.23995186e-02 -1.44702336e-02 -9.04779509e-03 3.06261983e-02
      4.06921133e-02 2.48390026e-02 4.15831581e-02 -2.47802283e-03
      -2.05012374e-02 1.07340664e-02 -1.55671267e-02 -1.79804955e-02
      -3.30996164e-03 1.10168690e-02 5.54352114e-03 2.18514204e-02
      2.28941981e-02 8.52786761e-04 1.34508451e-02 -9.45406314e-03
      7.40999239e-04 4.26902715e-03 2.43092738e-02 1.00294091e-02
      -3.79214017e-03 -4.17919131e-03 -4.39258553e-02 -2.59405412e-02
      1.70291611e-03 6.17837161e-02 3.01353168e-02 4.39534476e-03
      -2.34737601e-02 -4.80685048e-02 -4.05036518e-03 -6.86853053e-03
      1.32947918e-02 8.03773776e-02 -7.16554560e-03 -3.48459631e-02
      -6.37946501e-02 -2.37833280e-02 7.54078210e-05 5.38588502e-03
      9.55656637e-03 8.40791129e-03 -9.72142094e-04 6.88545406e-02
      2.09688079e-02 -1.31699191e-02 -2.79871020e-02 -4.41778786e-02
      4.33582067e-03 4.32437249e-02 3.86568233e-02 6.97410181e-02
      -4.47053835e-02 -2.88302451e-02 -5.22531718e-02 2.81933392e-03
      -1.07541904e-02 5.17735165e-03 1.66881345e-02 4.51039188e-02
      -1.26835480e-02 -1.96510497e-02 9.19980183e-03 -2.97593395e-03
      2.44245380e-02 4.06781472e-02 3.55643081e-03 1.78299285e-02
      1.89830735e-02 -5.80974761e-03 -3.38504463e-02 5.25582395e-03
      -2.46257931e-02 -7.02031143e-03 -4.67505567e-02 1.74527708e-02
      2.44760346e-02 3.73534560e-02 -2.11491920e-02 -3.20917293e-02
      2.34631747e-02 2.68318467e-02 1.84359998e-02 3.72771099e-02
      2.47660670e-02 5.23619391e-02 4.26172428e-02 -2.69053690e-02
      -2.22385693e-02 4.64721993e-02 4.34659496e-02 2.80924793e-02
      3.11880112e-02 2.30872873e-02 2.54814252e-02 1.63657311e-02
      -3.74494642e-02 -4.56491634e-02 -3.08633950e-02 -2.80382279e-02
      5.93665848e-03 2.81982105e-02 3.88958715e-02 3.84866297e-02
      2.96370387e-02 -4.45985980e-02 -3.04662734e-02 3.71039920e-02
      2.41547842e-02 2.88889688e-02 4.96509708e-02 3.31918895e-02
      7.14194253e-02 3.99636514e-02 -3.32960859e-02 -3.13230082e-02
      -1.12752523e-03 -1.37099037e-02 1.37320869e-02 4.17174771e-02
      1.03249112e-02 1.15453703e-02 9.89947375e-03 -4.49985638e-02
      3.05491500e-03 -4.18721847e-02 -7.94972107e-02 -2.69668903e-02
      -7.31348712e-03 2.42943875e-02 3.13194543e-02 1.76599957e-02
      6.13280479e-03 6.87957853e-02 7.12802913e-03 -1.75382930e-03
      -1.88162085e-02 -2.41205413e-02 2.32150815e-02 4.11798991e-02
      3.03588845e-02 5.93115911e-02 6.41032495e-03 4.56515281e-03
      -2.08299607e-02 -3.27739455e-02 -1.57711338e-02 -5.66649251e-03
      -1.95537563e-02 3.02003929e-03 2.97226757e-03 5.00739925e-02
      4.27852347e-02 1.49775995e-02 -2.04036832e-02 -3.36805210e-02
      6.61550183e-03 1.53408851e-02 6.10939180e-03 4.29384299e-02
      -8.00770149e-03 2.97613610e-02 -7.65714748e-03 1.97048811e-03
      -2.54589338e-02 1.45294913e-03 -5.41669503e-03 -8.24355055e-03
      -1.79651659e-02 -1.79016646e-02 3.29314242e-03 1.63197555e-02
      3.75163965e-02 7.05461651e-02 2.30432209e-02 1.39601110e-02
      2.73859072e-02 -1.73482746e-02 -1.22253196e-02 -1.52324159e-02
      -2.40981430e-02 2.34313756e-02 1.31948125e-02 1.06501086e-02
      2.36057164e-03 -1.45992925e-02 -1.85628496e-02 -2.41680741e-02
      -5.55171119e-03 -2.43505975e-03 4.66850959e-02 5.28136194e-02
      2.79146172e-02 -5.33833727e-03 -4.35475493e-03 -3.51955593e-02
      -1.91039890e-02 -6.56215008e-03 2.55047232e-02 2.47798655e-02
      7.56107941e-02 2.21915003e-02 5.01870401e-02 2.85092965e-02
      -1.89607572e-02 -3.65603194e-02 -1.63879944e-03 -2.22609919e-02
      -1.51583441e-02 3.25525217e-02 2.26770975e-02 2.17142347e-02
      2.11729575e-02 -3.04462593e-02 -6.44200593e-02 -2.10712105e-02
      1.31058814e-02 3.02435812e-02 5.35867102e-02 2.40968764e-02
      1.19646424e-02 -9.11862822e-04 -6.50691912e-02 -5.20005897e-02
      -2.41525657e-02 8.64708610e-03 -1.21829119e-02 1.94433667e-02
      4.40105200e-02 2.50946395e-02 3.72696705e-02 -3.69953401e-02
      1.17438558e-05 -2.56479456e-04 -2.36294307e-02 -3.44695635e-02
      -1.33077390e-02 2.11804323e-02 4.96365456e-03 1.94045473e-02
      -4.16810508e-04 3.83898243e-02 2.22061574e-02 7.84757268e-03
      -3.57593298e-02 -4.18174006e-02 1.92166939e-02 1.89051554e-02
      2.27808040e-02 4.12491560e-02 -1.43671827e-02 5.16124116e-03
      -1.44650554e-02 -3.07148099e-02 -1.65108088e-02 6.38638064e-02
      1.59389582e-02 3.00936289e-02 7.28110899e-04 1.96436364e-02
      1.99427046e-02 8.66256095e-03 -2.20284872e-02 -2.57296804e-02
      4.84821796e-02 8.19381699e-03 2.39982009e-02 3.00997570e-02
      -1.83313806e-02 -4.21227776e-02 -4.55149151e-02 1.82404574e-02
      9.03515145e-03 2.06637010e-02 3.49382423e-02 2.00251471e-02
      -6.02526357e-03 -2.88339704e-02 -2.63729673e-02 -3.29059325e-02
      -4.39761532e-03 2.04543415e-02 2.44007986e-02 4.19093519e-02
      2.50121318e-02 -2.38790419e-02 2.31566783e-02 -3.36537249e-02
      -3.02821919e-02 6.83931168e-03 2.92846635e-02 9.11264494e-03
      1.88500304e-02 3.32676619e-02 4.54613343e-02 -3.55912559e-03
      -3.43063436e-02 -2.83325259e-02 -2.07153186e-02 1.29408771e-02
      9.59355570e-03 -5.34678577e-03 1.89206861e-02 1.84085872e-02
      -3.27018462e-02 -1.06274784e-02 -1.26770372e-02 -7.69053586e-03
      4.73995097e-02 1.16455145e-02 2.72143818e-02 4.87911096e-03
      -4.19241600e-02 -2.61054039e-02 7.71120889e-04 2.70949043e-02
      3.30689386e-03 1.42887495e-02 2.90534571e-02 6.43837382e-04
      2.65505705e-02 -8.70922301e-03 -4.21828590e-02 -4.93114768e-03
      -2.27614380e-02 -2.34333202e-02 2.04344820e-02 9.75873694e-03
      3.91998910e-04 -5.38523961e-03 -3.96624729e-02 -3.99877355e-02
      -6.91710599e-03 2.48001935e-03 5.10497252e-03 -1.24866804e-02
      1.97534189e-02 -1.32498490e-02 -9.47187003e-03 -2.50469390e-02
      1.17310751e-02 3.09539493e-02 4.96589467e-02 -8.74038320e-03
      -1.79476440e-02 4.30575423e-02 2.05211830e-03 4.04884033e-02
      1.22559108e-02 2.63632592e-02 2.10830383e-02 4.36425582e-03
      -1.54582085e-02 -5.64863011e-02 2.62246747e-02 -2.38204189e-03
      1.63477864e-02 3.29200774e-02 -8.90231412e-03 -8.86295829e-03
      -1.97558962e-02 -1.74023993e-02 -3.33038419e-02 1.69406626e-02
      1.37342364e-02 2.60769539e-02 9.72662307e-03 1.56894401e-02
      -1.01955645e-02 -7.74137378e-02 -4.97965552e-02 -8.51271972e-02
      1.14287352e-02 4.76924144e-03 1.92372501e-02 2.97606401e-02</_></support_vectors>
  <uncompressed_sv_total>15</uncompressed_sv_total>
  <uncompressed_support_vectors>
    <_>
      1.18483454e-01 9.67516601e-02 1.40234962e-01 7.96375573e-02
      2.90758312e-01 1.20994523e-01 2.02785552e-01 1.11182258e-01
      1.68862969e-01 2.89308816e-01 1.18325867e-01 1.23133212e-01
      1.07304119e-01 1.89561680e-01 7.60121495e-02 1.42819807e-01
      6.25713021e-02 2.87223309e-01 2.90758312e-01 2.92285364e-02
      4.67697419e-02 8.05886369e-03 1.37418449e-01 9.90347713e-02
      1.89087272e-01 1.71185285e-01 2.90758312e-01 2.90758312e-01
      3.16915624e-02 1.37880621e-02 2.03593485e-02 3.62945609e-02
      3.42355259e-02 1.68780148e-01 1.61269262e-01 2.90758312e-01
      2.30517000e-01 9.75930020e-02 5.93892746e-02 1.25793353e-01
      2.99381733e-01 6.78498074e-02 1.54558375e-01 6.06043674e-02
      1.85786024e-01 8.69862959e-02 6.30955324e-02 4.50259559e-02
      8.57542008e-02 2.99381733e-01 1.09785467e-01 1.06149666e-01
      1.38215706e-01 1.42978936e-01 2.99381733e-01 7.88440183e-02
      4.79245223e-02 8.33042786e-02 2.07438186e-01 2.96207797e-02
      1.15074173e-01 7.60082155e-02 2.99381733e-01 2.55717725e-01
      6.03749938e-02 8.28602239e-02 1.83074161e-01 2.99381733e-01
      5.70226125e-02 1.83782592e-01 1.46279901e-01 2.64851719e-01
      1.37719184e-01 6.23420477e-02 7.18508586e-02 3.54731493e-02
      2.40706071e-01 2.14682057e-01 1.45671308e-01 2.18535900e-01
      2.26868674e-01 1.75553903e-01 9.25715640e-02 1.29664063e-01
      8.93057138e-03 2.40706071e-01 1.26929477e-01 1.31929085e-01
      7.79845268e-02 1.50039107e-01 2.24603400e-01 8.37829635e-02
      1.29476681e-01 9.93312225e-02 2.40706071e-01 7.14334399e-02
      2.40706071e-01 2.38737211e-01 2.40706071e-01 2.31457502e-01
      1.57252640e-01 2.24260136e-01 1.09309237e-02 2.07678944e-01
      4.50207889e-02 1.18712917e-01 8.67161155e-02 2.28075236e-01
      3.21951896e-01 5.00204861e-02 6.84737712e-02 2.76606083e-02
      2.35700607e-02 2.41132900e-02 7.36954659e-02 1.04936711e-01
      3.21951896e-01 3.21951896e-01 3.38114761e-02 1.49273863e-02
      2.53368448e-02 2.58350801e-02 1.97159443e-02 6.83340058e-02
      7.02182800e-02 3.21951896e-01 3.21951896e-01 2.31608853e-01
      2.08810344e-01 5.40288463e-02 2.43681595e-02 1.19876610e-02
      1.39347026e-02 2.82116495e-02 3.21951896e-01 3.21951896e-01
      1.18364021e-01 7.05287457e-02 5.57410531e-02 5.29492795e-02
      2.16742773e-02 3.31011638e-02 3.17401960e-02 3.21951896e-01
      3.10887009e-01 3.66121344e-02 4.65325005e-02 4.45333570e-02
      4.72142845e-02 1.99257024e-02 4.35885862e-02 3.78364436e-02
      3.10887009e-01 3.10887009e-01 2.99948677e-02 6.42162859e-02
      1.18343465e-01 1.82770401e-01 2.37475969e-02 1.44916236e-01
      1.30971000e-01 3.10887009e-01 3.10887009e-01 4.43645529e-02
      8.45016018e-02 6.14419542e-02 7.29504898e-02 2.89588496e-02
      6.37806728e-02 8.09520707e-02 3.10887009e-01 3.10887009e-01
      2.92135272e-02 9.23518687e-02 7.64282644e-02 5.00489697e-02
      3.69197018e-02 1.66749448e-01 2.11014152e-01 3.10887009e-01
      3.13175261e-01 2.20815353e-02 4.35112864e-02 5.42402789e-02
      1.22081354e-01 2.09310669e-02 1.51172757e-01 1.79530278e-01
      3.13175261e-01 2.76184797e-01 4.38929014e-02 8.14722925e-02
      2.80309301e-02 1.38091609e-01 5.24521470e-02 3.82060483e-02
      1.08564906e-01 3.12229186e-01 3.13175261e-01 1.24724936e-02
      3.35239768e-02 2.41155811e-02 4.16967086e-02 3.08661144e-02
      1.18307091e-01 1.60083473e-01 3.13175261e-01 3.13175261e-01
      3.30240354e-02 8.39830711e-02 4.02385928e-02 2.16984496e-01
      6.64097145e-02 5.92916869e-02 7.43031204e-02 3.13175261e-01
      3.08054030e-01 3.05881500e-01 2.98018575e-01 4.54371497e-02
      1.09171998e-02 6.25304237e-04 1.67465638e-02 1.34519916e-02
      3.08054030e-01 3.08054030e-01 1.02888636e-01 8.51023719e-02
      2.07823738e-02 2.87637133e-02 7.58859655e-03 6.40640110e-02
      1.14967696e-01 3.08054030e-01 2.42293954e-01 6.14663363e-02
      6.61786348e-02 6.03388669e-03 1.13058062e-02 0. 2.02716086e-02
      2.53903139e-02 2.28631228e-01 3.08054030e-01 5.23059480e-02
      1.09271824e-01 4.10172641e-02 2.31006444e-01 3.95062380e-02
      8.22564363e-02 8.74146223e-02 3.08054030e-01 2.90349662e-01
      1.62442699e-02 3.41858529e-02 2.14269683e-02 3.95165309e-02
      1.46002071e-02 1.14013508e-01 1.65601671e-01 2.90349662e-01
      2.90349662e-01 1.17264846e-02 3.30874063e-02 2.90811751e-02
      3.44476327e-02 4.00825255e-02 2.56776929e-01 2.62792349e-01
      2.90349662e-01 2.90349662e-01 5.26551269e-02 8.59398544e-02
      5.22482805e-02 2.21798196e-01 5.92479557e-02 1.26654148e-01
      1.04957335e-01 2.90349662e-01 2.70537645e-01 1.97796896e-02
      1.81683879e-02 2.07605157e-02 1.23437285e-01 3.26034203e-02
      1.63298652e-01 1.14297584e-01 2.90349662e-01 2.68519491e-01
      1.36911860e-02 1.65855270e-02 1.82359200e-02 5.13781495e-02
      4.33758460e-02 1.93471298e-01 2.02502102e-01 2.68519491e-01
      2.68519491e-01 1.12966835e-01 1.11539461e-01 6.85433596e-02
      2.40807891e-01 1.06025524e-01 1.36902541e-01 1.44759566e-01
      2.68519491e-01 1.97361976e-01 1.29249338e-02 1.13343569e-02
      1.31504163e-02 5.14191948e-02 2.70959698e-02 1.25193760e-01
      1.39243245e-01 2.68519491e-01 2.11698115e-01 1.58075541e-01
      1.28628269e-01 9.48931798e-02 1.93210229e-01 1.42994434e-01
      2.13713065e-01 2.68519491e-01 2.55836695e-01 2.41795987e-01
      6.91448972e-02 5.10788262e-02 2.47802376e-03 1.40106929e-02
      6.15398632e-03 7.20703304e-02 1.36739463e-01 3.09832335e-01
      3.09832335e-01 4.14424539e-02 5.04193418e-02 3.54410857e-02
      1.99345857e-01 4.43109423e-02 8.55189040e-02 1.05481148e-01
      3.09832335e-01 3.09832335e-01 1.18665978e-01 6.29500374e-02
      2.60445047e-02 8.39151144e-02 5.50014749e-02 1.57984644e-01
      2.58752882e-01 3.09832335e-01 3.09832335e-01 2.75017042e-02
      2.72140838e-03 1.28789591e-02 1.74103186e-01 3.23343053e-02
      4.87177633e-02 1.18000969e-01 3.09832335e-01 3.09277982e-01
      7.98026472e-02 8.24561194e-02 7.60971010e-02 2.67226905e-01
      7.91385993e-02 1.40918598e-01 1.08458050e-01 3.09277982e-01
      3.09277982e-01 3.71692479e-02 2.78243069e-02 3.63770798e-02
      1.44010648e-01 3.01145799e-02 1.22602828e-01 8.08837116e-02
      3.09277982e-01 3.09277982e-01 2.15886943e-02 1.28335329e-02
      1.75895523e-02 8.67693871e-02 1.69089325e-02 9.05241594e-02
      8.99175555e-02 3.09277982e-01 3.09277982e-01 1.52303427e-02
      2.72026174e-02 1.10597266e-02 3.63062471e-02 9.43812169e-03
      1.32719830e-01 1.07632257e-01 3.09277982e-01 3.02011818e-01
      2.45576492e-03 2.23020115e-03 1.82210805e-03 3.53681408e-02
      1.11649139e-02 4.29757722e-02 4.10306714e-02 3.16496998e-01
      2.38064647e-01 5.44044897e-02 3.52334902e-02 2.24373899e-02
      1.15972489e-01 7.23509789e-02 1.76925361e-01 1.96749300e-01
      2.90260881e-01 3.16496998e-01 1.61507111e-02 3.37328538e-02
      2.45951097e-02 8.85563418e-02 3.66065614e-02 6.56477734e-02
      6.87389150e-02 3.16496998e-01 3.16496998e-01 4.01137099e-02
      7.14696795e-02 7.57142156e-02 3.16496998e-01 1.01746619e-01
      1.01829797e-01 1.09380223e-01 3.16496998e-01 3.43612194e-01
      4.89138365e-02 1.61238350e-02 3.30100358e-02 5.14561348e-02
      8.01477283e-02 8.82945359e-02 1.02102712e-01 3.43612194e-01
      3.43612194e-01 1.02000451e-02 3.56570561e-03 3.38580497e-02
      1.02673724e-01 2.80312784e-02 1.67741291e-02 4.08815071e-02
      3.43612194e-01 3.43612194e-01 2.39835531e-02 8.83529242e-03
      1.74305588e-02 7.01112719e-03 4.00512069e-02 3.03509180e-02
      3.50168906e-02 3.43612194e-01 3.43612194e-01 6.35783747e-03
      1.17622511e-02 2.63340399e-02 2.34780498e-02 9.28411633e-03
      5.71175711e-03 1.15827182e-02 3.43612194e-01 2.17892364e-01
      3.36353923e-03 9.82221030e-03 2.10142992e-02 7.00186267e-02
      1.29546663e-02 2.31926404e-02 1.96691286e-02 2.35530183e-01
      3.81337255e-01 6.73081493e-03 3.51492092e-02 5.46479272e-03
      3.94197479e-02 1.91309322e-02 5.89725561e-02 3.87106650e-02
      3.81337255e-01 3.81337255e-01 2.39592809e-02 4.45995852e-02
      1.49856871e-02 2.71068532e-02 5.34247002e-03 5.03031351e-03
      3.17547424e-03 3.81337255e-01 3.81337255e-01 1.69820972e-02
      3.47589850e-02 1.26110599e-03 1.41811026e-02 8.69587716e-03
      2.14685891e-02 1.25063565e-02 3.81337255e-01 3.10702175e-01
      2.02628989e-02 4.35336158e-02 3.41385640e-02 5.75512573e-02
      4.72885408e-02 5.39102592e-02 9.31584314e-02 3.10702175e-01
      2.66120315e-01 5.12021333e-02 9.55182239e-02 9.14783180e-02
      3.10702175e-01 9.56028327e-02 5.27777225e-02 1.37643635e-01
      2.81958669e-01 3.10702175e-01 1.75162442e-02 3.07169892e-02
      2.37450618e-02 2.71438416e-02 2.97693182e-02 3.88213545e-02
      7.18969926e-02 3.10702175e-01 3.10702175e-01 5.13973609e-02
      9.09294784e-02 7.38048255e-02 2.23054036e-01 7.93121234e-02
      5.50021157e-02 1.17026865e-01 3.10702175e-01 3.38520795e-01
      3.96503732e-02 5.16686663e-02 7.24171568e-03 3.02895019e-03
      6.15145965e-03 7.34132901e-03 1.28858555e-02 3.38520795e-01
      3.38520795e-01 1.96839143e-02 2.60858238e-02 0. 2.66542193e-02
      2.67583993e-04 7.77814712e-04 1.73968496e-03 3.38520795e-01
      3.38520795e-01 3.67705449e-02 5.70688061e-02 1.24847209e-02
      5.43320132e-03 1.51733030e-02 1.04222879e-01 1.44031540e-01
      3.38520795e-01 3.38520795e-01 2.48918869e-02 1.32407090e-02 0.
      1.11854248e-01 1.15953072e-03 8.37449431e-02 1.28649563e-01
      3.38520795e-01 3.13823909e-01 6.44647852e-02 8.42851400e-02
      3.25944566e-04 2.53373645e-02 2.95161316e-03 5.54180145e-03
      2.90495390e-03 3.13823909e-01 3.13823909e-01 6.87053502e-02
      7.30042309e-02 7.86668435e-03 4.41446789e-02 2.32542008e-02
      1.41604412e-02 1.53587200e-02 3.13823909e-01 3.13823909e-01
      7.84205422e-02 5.71439564e-02 3.00701521e-03 1.09005071e-01
      1.40124811e-02 1.15840927e-01 1.02121808e-01 3.13823909e-01
      3.13823909e-01 1.39736876e-01 1.15853012e-01 5.91841154e-02
      2.14448452e-01 8.86728913e-02 1.85790062e-01 1.17569171e-01
      3.13823909e-01 2.75824696e-01 6.29532710e-02 8.11200365e-02
      3.36501636e-02 6.68808371e-02 2.24323310e-02 2.27611288e-02
      2.28094514e-02 2.75824696e-01 2.75824696e-01 6.30506277e-02
      1.23202294e-01 5.37100732e-02 1.97984725e-01 2.18198299e-02
      6.90682158e-02 2.72432044e-02 2.75824696e-01 2.75824696e-01
      1.51197508e-01 1.80019289e-01 1.11489512e-01 2.50339478e-01
      1.04809903e-01 2.06110418e-01 1.21077724e-01 2.75824696e-01
      2.50538498e-01 1.08184718e-01 1.79302052e-01 7.36429691e-02
      2.04295397e-01 4.90989573e-02 1.77625000e-01 8.98910537e-02
      2.48060137e-01 2.81972051e-01 7.46941986e-03 1.99709795e-02
      7.11615151e-03 5.76383322e-02 3.12583335e-02 1.44108564e-01
      1.63888499e-01 2.81972051e-01 2.81972051e-01 1.31809870e-02
      3.31082940e-03 1.27804326e-03 6.37338609e-02 1.72574737e-03
      1.43397033e-01 2.14767769e-01 2.81972051e-01 2.32396722e-01
      1.19520076e-01 1.87380999e-01 3.07196751e-02 2.81972051e-01
      8.80008191e-02 9.44204926e-02 5.98492138e-02 1.63628057e-01
      2.81972051e-01 1.64532915e-01 2.52842724e-01 3.11275162e-02
      1.57577842e-01 1.15713112e-01 8.98044482e-02 1.66238979e-01
      2.81972051e-01 2.61272520e-01 2.81838216e-02 1.59326289e-02
      3.16961855e-03 5.71224429e-02 8.88988283e-03 1.60318434e-01
      1.90602407e-01 2.61272520e-01 2.61272520e-01 7.46790469e-02
      7.65829608e-02 4.40692343e-02 1.49232969e-01 5.87634481e-02
      2.61272520e-01 2.57029593e-01 2.61272520e-01 1.69677526e-01
      3.07607930e-02 4.29033488e-02 8.54267925e-03 1.43145725e-01
      1.16701379e-01 1.02094568e-01 1.54080793e-01 2.08767638e-01
      2.50227928e-01 5.23228645e-02 6.85170367e-02 6.09176420e-02
      2.30101734e-01 9.72975343e-02 2.61272520e-01 2.61272520e-01
      2.61272520e-01 2.49884844e-01 7.57984295e-02 6.36325777e-02
      5.81938848e-02 1.32922545e-01 7.19357431e-02 2.49884844e-01
      1.94350675e-01 2.49884844e-01 2.11411834e-01 9.37156528e-02
      4.50400934e-02 7.29064569e-02 1.73525527e-01 6.37377873e-02
      1.88506171e-01 1.14162043e-01 2.49884844e-01 2.49884844e-01
      5.84736951e-02 4.48340774e-02 4.52254303e-02 1.25353619e-01
      9.84243155e-02 2.49884844e-01 2.49884844e-01 2.49884844e-01
      2.23551974e-01 7.35809952e-02 1.03776678e-02 4.80975993e-02
      1.99728891e-01 1.12131558e-01 2.31067598e-01 1.47031128e-01
      2.49884844e-01 2.44223148e-01 1.58043504e-01 2.11596370e-01
      1.23127950e-02 2.44223148e-01 3.92170250e-02 5.31057231e-02
      3.42504978e-02 1.11675762e-01 2.23278031e-01 1.46427557e-01
      2.34689549e-01 1.58868302e-02 1.49502501e-01 1.55973166e-01
      1.30574003e-01 1.18586674e-01 1.84324220e-01 2.44223148e-01
      2.32116953e-01 2.44223148e-01 9.01978370e-03 1.27677694e-01
      4.08290662e-02 5.99920489e-02 6.73786998e-02 2.44223148e-01
      2.44223148e-01 7.80529901e-02 1.25552505e-01 1.81094313e-03
      1.39925927e-01 1.82038069e-01 2.10486040e-01 2.34093279e-01
      2.44223148e-01 7.52758086e-02 2.61140633e-02 3.69175635e-02
      5.74544026e-03 1.60122737e-01 2.25401595e-01 2.06704766e-01
      1.71623707e-01 1.14586309e-01 1.53963238e-01 3.59617695e-02
      3.91095802e-02 5.33574112e-02 1.52284175e-01 1.21582761e-01
      2.88115561e-01 2.08691433e-01 1.68330297e-01 2.88115561e-01
      6.38038712e-03 5.51960245e-03 2.95288092e-03 8.74367654e-02
      1.75294593e-01 2.76212066e-01 2.88115561e-01 2.88115561e-01
      2.88115561e-01 5.00843748e-02 4.34985943e-02 3.13219987e-02
      2.16815881e-02 5.22364229e-02 1.98814034e-01 1.65735066e-01
      2.88115561e-01 1.47413686e-01 7.04277679e-02 7.68435374e-02
      9.41333175e-02 1.57015502e-01 1.35325342e-01 2.53087610e-01
      2.53087610e-01 2.14993834e-01 5.05966954e-02 5.46813458e-02
      5.96119426e-02 7.01346695e-02 2.53087610e-01 1.66466698e-01
      2.53087610e-01 1.34455413e-01 1.11464962e-01 2.53087610e-01
      2.36062571e-01 2.53087610e-01 1.06314681e-01 8.35437030e-02
      4.96985689e-02 1.55951262e-01 9.63555202e-02 2.53087610e-01
      9.36329141e-02 2.53087610e-01 2.53087610e-01 1.21695891e-01
      2.53087610e-01 6.56436384e-02 1.00977339e-01 4.28599454e-02
      6.36583343e-02 3.05396527e-01 1.88901529e-01 1.81578949e-01
      3.38168517e-02 4.67337966e-02 1.54974898e-02 6.50992021e-02
      7.17799366e-02 3.05396527e-01 3.05396527e-01 2.13772636e-02
      2.69197114e-02 1.53256988e-03 3.91812027e-02 5.60343340e-02
      1.29645959e-01 1.88531652e-01 3.05396527e-01 3.05396527e-01
      1.22424558e-01 8.33397210e-02 6.50676340e-02 2.20376179e-01
      4.99115959e-02 7.34811425e-02 1.37312084e-01 3.05396527e-01
      3.05396527e-01 1.21278912e-02 4.00105724e-03 3.30483448e-03
      1.21455211e-02 4.48742742e-03 5.08518629e-02 8.11320990e-02
      3.05396527e-01 3.37217659e-01 6.27156813e-04 2.96165090e-04
      8.03233823e-04 1.31142801e-02 2.36490499e-02 7.71749988e-02
      1.31655142e-01 3.37217659e-01 3.37217659e-01 1.45402811e-02
      1.30512211e-02 3.88599164e-03 1.86595670e-03 4.07298049e-03
      7.15493560e-02 9.63860601e-02 3.37217659e-01 3.37217659e-01 0. 0.
      0. 0. 2.77274783e-04 5.85633982e-03 1.48793878e-02 3.37217659e-01
      3.37217659e-01 2.10843887e-02 2.54165195e-02 3.04828305e-03
      1.59775708e-02 1.71637200e-02 1.26205102e-01 1.73848987e-01
      3.37217659e-01 2.58549184e-01 1.04759932e-01 1.22122005e-01
      1.63506027e-02 1.98271777e-02 8.54886137e-03 1.92080989e-01
      1.75854981e-01 2.58549184e-01 1.50094748e-01 1.46969125e-01
      1.85844332e-01 4.33679260e-02 9.44999829e-02 9.22351517e-03
      1.67622447e-01 1.28042296e-01 1.63409904e-01 2.13137656e-01
      6.67813271e-02 1.04103640e-01 1.99572369e-02 1.06936403e-01
      7.82116055e-02 2.58549184e-01 2.58549184e-01 2.58549184e-01
      1.38151154e-01 9.58639458e-02 1.70153797e-01 8.19748342e-02
      2.58549184e-01 1.12345904e-01 2.58549184e-01 2.58549184e-01
      2.28451401e-01 2.50614792e-01 1.96272079e-02 7.82389939e-03
      1.82423331e-02 1.24487244e-01 5.67457080e-02 1.56605229e-01
      2.05793381e-01 3.38111162e-01 3.38111162e-01 3.38602951e-03
      1.00653165e-03 1.05192477e-03 6.14129286e-03 3.51716694e-03
      3.58905345e-02 7.32463524e-02 3.38111162e-01 3.38111162e-01
      1.32402554e-02 2.35466007e-02 1.43446932e-02 4.75615598e-02
      2.45290883e-02 1.17531903e-01 1.01163208e-01 3.38111162e-01
      3.38111162e-01 1.52572512e-03 2.21319986e-03 5.50301885e-03
      7.79253915e-02 4.33516949e-02 2.66653486e-02 6.27947971e-02
      3.38111162e-01 3.21218699e-01 1.32667265e-04 1.35862530e-04 0.
      1.11752248e-03 1.92133954e-03 2.37391191e-03 1.51534751e-02
      3.21218699e-01 3.21218699e-01 7.22647384e-02 6.50813356e-02
      7.83885363e-03 2.01253891e-02 1.44787319e-02 6.46307617e-02
      1.32024035e-01 3.21218699e-01 3.21218699e-01 2.67858175e-03
      2.82250391e-03 1.14952074e-02 1.85712218e-01 7.66710192e-02
      1.44300088e-02 6.80679902e-02 3.21218699e-01 3.21218699e-01
      7.23878220e-02 5.95332868e-02 4.75395843e-02 2.37285763e-01
      4.70220149e-02 4.99430448e-02 1.48145273e-01 3.21218699e-01
      2.40852073e-01 2.40231812e-01 2.40852073e-01 4.45396267e-02
      1.20255113e-01 6.46961406e-02 1.53588191e-01 1.75076693e-01
      2.37182751e-01 9.08865333e-02 2.09661171e-01 2.40852073e-01
      8.25839266e-02 2.40852073e-01 8.39097574e-02 1.35306939e-01
      1.36315182e-01 1.03773184e-01 2.40852073e-01 2.00177997e-01
      1.91806659e-01 5.74905053e-02 1.17253713e-01 3.25794071e-02
      1.46612361e-01 2.40852073e-01 2.40852073e-01 1.19975299e-01
      1.65985495e-01 2.14178830e-01 3.74491252e-02 1.78759843e-01
      1.76413879e-02 1.31590068e-01 1.30140424e-01 1.29375696e-01
      2.91719139e-01 2.15283409e-02 6.04704618e-02 4.21341956e-02
      2.91719139e-01 3.62429619e-02 3.75761166e-02 2.45913286e-02
      2.91719139e-01 2.91719139e-01 6.31859526e-03 2.71805674e-02
      5.20069227e-02 2.91719139e-01 1.22091129e-01 6.81993440e-02
      7.11764172e-02 2.91719139e-01 1.28189117e-01 6.20359629e-02
      9.24271494e-02 6.30607381e-02 2.91719139e-01 7.08578750e-02
      6.10865727e-02 5.92976771e-02 1.31486475e-01 7.71852508e-02
      4.80556255e-03 3.09002753e-02 5.51955551e-02 2.91719139e-01
      1.66069612e-01 2.91719139e-01 2.66409457e-01 1.51522800e-01
      1.44877821e-01 5.29837189e-03 3.00562549e-02 8.87371600e-02
      2.52588600e-01 1.30260006e-01 4.90077399e-02 8.34610090e-02
      2.01467246e-01 1.46092489e-01 4.38313782e-02 3.75580341e-02
      9.56997797e-02 2.52588600e-01 1.11522712e-01 8.91824812e-02
      1.70282155e-01 2.52588600e-01 1.02090985e-01 9.28192027e-03
      3.47109623e-02 8.71849135e-02 2.52588600e-01 1.33021519e-01
      2.52588600e-01 2.52588600e-01 2.52588600e-01 2.52588600e-01
      1.99786961e-01 1.32531509e-01 8.56290609e-02 2.24158257e-01
      8.67418051e-02 2.07858726e-01 2.01319620e-01 2.52588600e-01
      1.23732343e-01 5.64740561e-02 4.88691516e-02 8.38847235e-02
      2.30294332e-01 8.61617699e-02 2.27407455e-01 2.56644577e-01
      2.56644577e-01 4.47751172e-02 3.92194428e-02 6.96943253e-02
      4.79579456e-02 2.56644577e-01 3.61019783e-02 2.56644577e-01
      2.08143622e-01 8.08789358e-02 1.99275509e-01 2.56644577e-01
      2.56644577e-01 1.61762178e-01 2.54581511e-01 6.05515540e-02
      1.28802583e-01 1.10275201e-01 1.64400607e-01 4.55738902e-02
      1.72319487e-01 2.56644577e-01 1.52875826e-01 2.56644577e-01
      2.43952982e-02 1.27534434e-01 7.68765509e-02 2.21648961e-02</_>
    <_>
      2.98338413e-01 6.05964474e-02 6.78102449e-02 6.34594187e-02
      2.98338413e-01 1.71309765e-02 1.14900349e-02 2.36785226e-02
      2.98338413e-01 2.98338413e-01 9.51625630e-02 4.03300077e-02
      5.85568063e-02 1.74377099e-01 2.06943378e-02 8.42388440e-03
      2.47320663e-02 2.98338413e-01 1.94307238e-01 7.01579750e-02
      2.84539498e-02 4.29629311e-02 2.98338413e-01 7.21037462e-02
      1.13648333e-01 1.01986416e-01 1.89638436e-01 2.98338413e-01
      1.60412714e-01 4.91555482e-02 8.04638714e-02 2.79387027e-01
      2.84619760e-02 3.05677075e-02 4.26962562e-02 2.98338413e-01
      2.67312139e-01 1.00897104e-01 7.16512501e-02 3.80121469e-02
      1.79587826e-01 3.29759158e-02 1.85774062e-02 4.65547927e-02
      2.67312139e-01 2.67312139e-01 1.19367339e-01 1.20802701e-01
      3.32189426e-02 7.44166002e-02 4.02119048e-02 2.67312139e-01
      2.67312139e-01 2.53938645e-01 2.67312139e-01 1.29529580e-01
      6.67891577e-02 1.08696051e-01 2.67312139e-01 2.68024020e-02
      7.13118259e-03 1.15579795e-02 2.67312139e-01 2.67312139e-01
      1.57095984e-01 1.14203528e-01 8.08542594e-02 1.86011598e-01
      4.25661467e-02 9.23392475e-02 7.36274794e-02 2.67312139e-01
      1.80655494e-01 8.20092335e-02 1.02114707e-01 2.29154229e-02
      1.11993827e-01 5.91117069e-02 2.47655749e-01 2.47655749e-01
      2.47655749e-01 1.21075355e-01 4.30198573e-02 1.11213125e-01
      2.78381091e-02 2.47655749e-01 8.19561407e-02 1.39928356e-01
      1.11573398e-01 2.23862097e-01 2.47655749e-01 2.33057767e-01
      2.47655749e-01 9.24632922e-02 2.47655749e-01 6.53731897e-02
      2.06481799e-01 1.43732980e-01 2.47655749e-01 1.01050757e-01
      1.23957604e-01 2.37703636e-01 4.44097146e-02 2.47655749e-01
      4.49548103e-02 9.79082286e-02 6.74610510e-02 1.73255846e-01
      3.25701118e-01 1.83165148e-02 3.15414779e-02 8.80561024e-03
      2.06403151e-01 4.05809060e-02 1.30280897e-01 9.66705456e-02
      3.25701118e-01 3.25701118e-01 3.53984311e-02 1.60609260e-02
      1.98553856e-02 7.64530301e-02 7.58297648e-03 2.84657180e-02
      3.22973616e-02 3.25701118e-01 3.25701118e-01 5.43989278e-02
      1.09674923e-01 4.62569557e-02 1.49265990e-01 2.85949465e-02
      5.91513477e-02 6.31624088e-02 3.25701118e-01 3.25701118e-01
      3.84763442e-02 2.95810755e-02 6.32671788e-02 8.33148584e-02
      2.61770990e-02 4.11255322e-02 5.54013476e-02 3.25701118e-01
      3.36274922e-01 4.36705090e-02 3.42825651e-02 4.01998088e-02
      6.81189895e-02 1.92178448e-03 5.35912870e-04 3.83647135e-03
      3.36274922e-01 3.36274922e-01 1.55096650e-01 1.14659831e-01
      3.15055288e-02 5.49629889e-02 6.11898908e-03 2.07411451e-03
      4.46303003e-03 3.36274922e-01 3.36274922e-01 3.35958228e-02
      4.58364636e-02 4.22419198e-02 6.16267771e-02 1.36670871e-02
      3.10910922e-02 2.35424787e-02 3.36274922e-01 3.36274922e-01
      1.01477034e-01 9.96551588e-02 4.10047807e-02 3.93122882e-02
      3.35824327e-03 7.78040811e-02 3.63202095e-02 3.36274922e-01
      2.94904321e-01 2.20487744e-01 2.47647673e-01 5.79389632e-02
      2.05874830e-01 3.03755365e-02 2.27652956e-02 3.55060324e-02
      2.94904321e-01 1.21984586e-01 9.86038968e-02 1.57259971e-01
      4.22106832e-02 2.94904321e-01 3.30389328e-02 2.57503986e-02
      4.22375351e-02 8.51143822e-02 2.94904321e-01 1.15677573e-01
      1.34809300e-01 5.75459599e-02 2.12527931e-01 1.94981769e-02
      9.45262164e-02 6.49092123e-02 2.94904321e-01 2.94904321e-01
      7.31920451e-02 1.02549762e-01 5.51727489e-02 2.94904321e-01
      3.17197852e-02 4.12134230e-02 4.76364344e-02 2.24795207e-01
      2.56901503e-01 1.85912937e-01 2.56901503e-01 7.95300677e-02
      1.98914170e-01 3.42987366e-02 6.97539374e-02 4.44313176e-02
      2.56901503e-01 2.56901503e-01 1.67712256e-01 1.88596636e-01
      9.21043977e-02 9.60195065e-02 2.61999499e-02 1.00034676e-01
      9.17750970e-02 2.56901503e-01 2.56901503e-01 1.65789187e-01
      2.11299971e-01 4.83448356e-02 2.03320667e-01 2.61645056e-02
      8.17128569e-02 1.57388151e-02 2.31713340e-01 2.56901503e-01
      1.91708744e-01 2.05483496e-01 6.20221235e-02 8.53515938e-02
      2.29509659e-02 8.87991935e-02 6.94891736e-02 2.56901503e-01
      2.91327924e-01 4.82552052e-02 7.08569586e-02 5.37567176e-02
      7.31843561e-02 1.93673708e-02 1.20545149e-01 1.13515757e-01
      2.91327924e-01 2.91327924e-01 5.29539920e-02 6.27526641e-02
      4.43200916e-02 4.54251990e-02 7.40385009e-03 2.19991326e-01
      1.90517411e-01 2.91327924e-01 2.91327924e-01 8.99256915e-02
      6.60817772e-02 7.13867322e-02 1.13991871e-01 6.21153973e-02
      1.34983450e-01 1.64507717e-01 2.91327924e-01 2.91327924e-01
      1.84634160e-02 2.10617669e-02 2.26311088e-02 8.47122073e-02
      4.83752154e-02 1.72246724e-01 2.42983863e-01 2.91327924e-01
      2.90176064e-01 4.55870107e-02 4.33671325e-02 1.93142705e-02
      4.61709499e-02 6.21035602e-03 1.96323171e-01 1.49699271e-01
      2.90176064e-01 2.90176064e-01 1.04445629e-01 1.26714736e-01
      4.75073196e-02 1.27381980e-01 3.62923592e-02 1.17488369e-01
      9.98466834e-02 2.90176064e-01 2.90176064e-01 1.43262502e-02
      2.13198420e-02 3.97971738e-03 2.12758370e-02 1.93621311e-02
      1.57977104e-01 1.35769039e-01 2.90176064e-01 2.90176064e-01
      1.77301973e-01 2.07026258e-01 5.57946749e-02 9.26725939e-02
      4.98305708e-02 1.91355720e-01 1.24495909e-01 2.90176064e-01
      2.84083217e-01 7.17882738e-02 3.55431549e-02 2.87245158e-02
      8.27616975e-02 8.83001741e-03 2.16042735e-02 5.74781327e-03
      2.51965910e-01 3.27688783e-01 8.17477554e-02 5.30448668e-02
      8.18847865e-02 1.80032745e-01 5.82895763e-02 6.87902868e-02
      3.78106274e-02 3.27688783e-01 3.27688783e-01 1.07308283e-01
      3.31116989e-02 1.06726743e-01 2.52356261e-01 9.67802480e-02
      6.77687824e-02 9.53840315e-02 3.27688783e-01 3.27688783e-01
      2.37372275e-02 2.86336355e-02 4.13518772e-02 1.05212003e-01
      6.63534999e-02 4.92952913e-02 6.06253333e-02 3.27688783e-01
      3.17814589e-01 9.13681537e-02 8.22941214e-02 1.15196846e-01
      2.21900538e-01 1.12787962e-01 9.79897901e-02 9.25356597e-02
      3.17814589e-01 3.17814589e-01 3.51676345e-02 6.40816912e-02
      5.18047437e-02 1.63939640e-01 7.26589486e-02 5.70088439e-02
      8.40871409e-02 3.17814589e-01 3.17814589e-01 2.25662719e-02
      4.27343398e-02 3.35937291e-02 8.98888707e-02 4.25843224e-02
      4.27303500e-02 3.08826882e-02 3.17814589e-01 3.17814589e-01
      1.89753715e-02 4.53431755e-02 2.62774210e-02 1.00182280e-01
      1.39827551e-02 1.04085635e-02 1.31075373e-02 3.17814589e-01
      3.22176695e-01 4.80726128e-03 7.29909074e-03 6.65569538e-03
      6.34875074e-02 3.01737487e-02 4.28465419e-02 5.92407398e-02
      3.44008893e-01 1.95308611e-01 9.10690948e-02 8.40675607e-02
      5.68672828e-02 1.85668722e-01 4.55413908e-02 8.35841224e-02
      8.55111405e-02 2.55081534e-01 3.44008893e-01 4.12832666e-03
      5.10440916e-02 3.24691795e-02 3.14880133e-01 6.91157877e-02
      2.54865475e-02 7.75523558e-02 3.44008893e-01 2.00314716e-01
      2.13779528e-02 7.75441378e-02 9.84757766e-02 3.44008893e-01
      1.05319396e-01 4.61031720e-02 9.66340601e-02 2.07895458e-01
      2.42076904e-01 9.45756063e-02 1.45745248e-01 8.63837749e-02
      2.90243477e-01 1.26757726e-01 7.10787997e-02 1.20049335e-01
      2.64462233e-01 2.99665183e-01 2.93526854e-02 7.38403499e-02
      4.63894308e-02 1.00545213e-01 6.62583709e-02 1.81046277e-02
      5.58601171e-02 2.99665183e-01 2.99665183e-01 1.03249259e-01
      2.17364714e-01 6.37650713e-02 2.34513044e-01 6.78221807e-02
      4.38522883e-02 8.10211152e-02 2.99665183e-01 2.99665183e-01
      4.69010063e-02 9.17973667e-02 2.04463787e-02 5.45797870e-02
      3.41911204e-02 1.00613292e-02 2.19714008e-02 2.99665183e-01
      2.18083754e-01 1.00288936e-03 1.22005222e-02 1.20072002e-02
      5.39314114e-02 1.30900498e-02 5.12816617e-03 7.00708060e-03
      2.16499478e-01 3.74907702e-01 1.09094763e-02 2.23307721e-02
      1.73724070e-02 1.50731802e-01 2.26801098e-03 1.58452336e-02
      5.17003611e-03 3.74907702e-01 3.74907702e-01 2.62856483e-02
      2.40613762e-02 5.09941205e-03 2.74239089e-02 3.91811319e-03
      3.14108143e-03 5.52439538e-04 3.74907702e-01 3.74907702e-01
      1.02036759e-01 1.08803295e-01 1.83974206e-02 7.92568475e-02
      2.69171875e-03 1.26623530e-02 2.14480609e-03 3.74907702e-01
      3.12404096e-01 2.31188536e-02 9.40075293e-02 4.01483737e-02
      2.68132567e-01 2.89525930e-02 4.52348627e-02 1.83363799e-02
      3.17327261e-01 9.06710327e-02 2.00731959e-02 1.03321210e-01
      4.75174449e-02 3.51200134e-01 3.70396823e-02 5.37145957e-02
      1.84593983e-02 9.30518135e-02 3.51200134e-01 1.10716455e-01
      2.12245941e-01 4.43804152e-02 1.46878958e-01 1.88497119e-02
      3.80236208e-02 6.93221437e-03 3.51200134e-01 1.47732437e-01
      8.09083283e-02 1.91877022e-01 4.49116752e-02 3.51200134e-01
      2.94207465e-02 5.16034029e-02 1.90013610e-02 1.73567161e-01
      3.07600319e-01 9.25527886e-02 1.77087545e-01 2.29684971e-02
      7.15012178e-02 7.60979531e-03 1.53347952e-02 2.38506161e-02
      3.07600319e-01 3.07600319e-01 1.12531334e-01 1.27921864e-01
      4.87362780e-03 9.20370780e-03 1.58843037e-03 1.56935735e-03
      1.77097262e-03 3.07600319e-01 3.07600319e-01 1.24682702e-01
      2.50884801e-01 4.72717881e-02 1.70418039e-01 3.22530307e-02
      9.03499797e-02 2.05872580e-02 3.07600319e-01 3.07600319e-01
      1.14065006e-01 1.32504329e-01 1.50119560e-02 3.26507762e-02
      2.15930380e-02 1.06184348e-01 3.76405343e-02 3.07600319e-01
      3.31325978e-01 6.87610805e-02 5.00981063e-02 1.17697278e-02
      1.84380133e-02 1.72831479e-03 3.18902172e-03 8.24525952e-04
      3.31325978e-01 3.31325978e-01 1.53904215e-01 1.41480044e-01
      3.40890549e-02 3.51811834e-02 8.89520999e-03 8.17007944e-03
      1.72703189e-03 3.31325978e-01 3.31325978e-01 5.55809550e-02
      4.01252210e-02 3.82064655e-02 6.05214909e-02 1.29009839e-02
      6.00378253e-02 2.81578973e-02 3.31325978e-01 3.31325978e-01
      1.11690037e-01 7.59647265e-02 7.13056996e-02 1.09236509e-01
      4.44184057e-02 1.00831561e-01 5.20021208e-02 3.31325978e-01
      2.78251797e-01 1.64917186e-01 2.46359810e-01 5.33989556e-02
      5.75335547e-02 2.18935609e-02 1.68021601e-02 1.02168517e-02
      2.78251797e-01 1.69267818e-01 1.35051504e-01 2.50637382e-01
      4.06603962e-02 2.78251797e-01 5.49226142e-02 3.60817164e-02
      3.30447331e-02 2.17979372e-01 1.85178727e-01 1.46415770e-01
      2.02689394e-01 1.01090938e-01 1.14255197e-01 6.55496791e-02
      2.30717912e-01 1.03658117e-01 1.78259492e-01 9.70622078e-02
      1.43667027e-01 2.47600153e-01 7.52108619e-02 2.78251797e-01
      1.25741556e-01 2.49125212e-01 1.28798485e-01 1.29209206e-01
      2.76344746e-01 4.46281061e-02 9.33128372e-02 1.97158772e-02
      1.37595028e-01 4.36791442e-02 1.30668670e-01 3.92808355e-02
      2.76344746e-01 2.76344746e-01 1.83548871e-02 2.72512361e-02
      6.34469278e-03 3.94917876e-02 5.30898236e-02 1.86114714e-01
      8.72326940e-02 2.76344746e-01 1.82056919e-01 1.19348124e-01
      2.49060392e-01 4.31120619e-02 2.76344746e-01 7.85315186e-02
      9.43503752e-02 2.50738394e-02 1.60518348e-01 2.76344746e-01
      2.25704029e-01 2.33644485e-01 3.06338854e-02 2.76344746e-01
      9.46758166e-02 1.28372952e-01 5.79633676e-02 2.76344746e-01
      2.81314224e-01 1.29187200e-02 8.34377576e-03 1.80869903e-02
      3.51744927e-02 1.44016035e-02 8.66193250e-02 5.90029322e-02
      2.81314224e-01 2.81314224e-01 3.98409069e-02 1.46544036e-02
      4.11867090e-02 5.93899079e-02 2.25088093e-02 1.68927804e-01
      1.34197280e-01 2.81314224e-01 2.80804068e-01 1.50718972e-01
      1.35408491e-01 3.12032029e-02 2.33979017e-01 6.61949813e-02
      1.13083825e-01 7.89771602e-02 2.49054253e-01 2.81314224e-01
      5.65913133e-02 4.15613502e-02 7.30885938e-02 1.96947128e-01
      8.01012516e-02 2.81314224e-01 2.44174048e-01 2.81314224e-01
      2.54507661e-01 4.57199179e-02 4.36147191e-02 3.83989513e-02
      5.98589219e-02 5.45178205e-02 2.54507661e-01 1.37839690e-01
      2.54507661e-01 2.01802164e-01 5.36032952e-02 7.64487907e-02
      3.24448720e-02 1.82692230e-01 1.11200765e-01 2.54507661e-01
      1.42433822e-01 2.10367188e-01 2.54507661e-01 3.07568926e-02
      2.80836411e-02 3.35353427e-02 1.27656713e-01 1.30089387e-01
      2.54507661e-01 2.09866047e-01 2.54507661e-01 2.12869972e-01
      2.28826106e-02 3.18902656e-02 1.58495046e-02 2.54507661e-01
      1.65338770e-01 2.20046774e-01 1.40368581e-01 2.54507661e-01
      1.04610324e-01 9.75848362e-02 1.29108861e-01 3.34633403e-02
      2.56886661e-01 6.65888265e-02 8.00270885e-02 3.56286652e-02
      4.80690598e-02 2.56886661e-01 2.56770700e-01 2.40887046e-01
      4.08118479e-02 2.56886661e-01 6.42251372e-02 1.29490525e-01
      5.56009859e-02 1.14820518e-01 2.29343772e-01 1.32691383e-01
      1.61767006e-01 1.02420431e-02 2.56886661e-01 7.16544315e-02
      1.87815323e-01 1.23836718e-01 1.74835145e-01 2.56886661e-01
      2.47116983e-01 2.56886661e-01 1.42490203e-02 5.99358156e-02
      2.66631860e-02 2.32568622e-01 1.32591903e-01 2.56886661e-01
      1.54581770e-01 1.44890025e-01 1.34353429e-01 2.98293568e-02
      2.37366155e-01 7.65824392e-02 2.17299357e-01 1.36585847e-01
      1.13128550e-01 2.47148499e-01 3.26474756e-02 2.06859522e-02
      2.88420916e-02 1.75257772e-01 8.15527067e-02 2.49800235e-01
      2.32204527e-01 2.49800235e-01 2.49800235e-01 8.04427415e-02
      8.48916918e-02 8.78324080e-03 5.23205437e-02 3.43156271e-02
      2.49800235e-01 2.49800235e-01 2.49800235e-01 2.49800235e-01
      6.80671334e-02 8.55048373e-02 7.01572187e-03 4.72081676e-02
      2.99897194e-02 2.49800235e-01 2.09065080e-01 2.49800235e-01
      2.19691157e-01 7.08972216e-02 6.08562753e-02 5.70026748e-02
      1.80294186e-01 1.36171401e-01 2.39612371e-01 2.12746680e-01
      2.33753368e-01 6.04675747e-02 8.78799558e-02 7.41494298e-02
      8.84022936e-02 2.39612371e-01 1.49238825e-01 1.44603774e-01
      1.33011505e-01 8.59185085e-02 2.39612371e-01 2.35267743e-01
      2.39612371e-01 8.30761343e-02 1.16479032e-01 4.54930700e-02
      6.41283244e-02 8.61168876e-02 2.39612371e-01 2.39612371e-01
      2.39612371e-01 2.39612371e-01 1.67540401e-01 2.39612371e-01
      5.80221787e-02 4.30617444e-02 7.25901201e-02 2.20811531e-01
      2.54939735e-01 1.67683348e-01 2.56362736e-01 9.75526869e-02
      1.16248995e-01 3.62646990e-02 8.61577019e-02 6.01678006e-02
      2.13224530e-01 2.73870409e-01 1.52369231e-01 1.82735875e-01
      4.20817286e-02 2.86181532e-02 3.63482349e-03 8.57843012e-02
      5.01752943e-02 2.73870409e-01 1.13215186e-01 1.64820686e-01
      2.73870409e-01 2.19911471e-01 2.73870409e-01 1.04325287e-01
      1.02833025e-01 5.51806577e-02 1.06003471e-01 2.73870409e-01
      1.46402493e-01 1.85223117e-01 1.43764764e-01 1.77215427e-01
      3.45103368e-02 6.78507164e-02 2.76268199e-02 2.73870409e-01
      3.33343357e-01 4.19291183e-02 2.69728359e-02 4.83173179e-03
      4.61645098e-03 9.69700702e-03 1.75516367e-01 1.03421584e-01
      3.33343357e-01 3.33343357e-01 4.73009795e-02 6.15640506e-02
      9.82965226e-04 1.09161232e-02 1.24988351e-02 1.24267511e-01
      9.19327363e-02 3.33343357e-01 3.33343357e-01 5.76088391e-02
      6.90126419e-02 1.89548023e-02 2.22165249e-02 3.33177089e-03
      1.95859596e-02 1.09070074e-02 3.33343357e-01 3.33343357e-01
      5.61755709e-02 3.16703245e-02 4.78899805e-03 1.55156991e-02
      2.33817734e-02 1.03565164e-01 9.08841118e-02 3.33343357e-01
      2.60435522e-01 1.12651832e-01 1.91890508e-01 3.41001265e-02
      6.85018301e-02 5.85849807e-02 9.18959230e-02 1.12217791e-01
      2.60435522e-01 2.60435522e-01 1.29946083e-01 1.89909980e-01
      9.54983458e-02 1.68908671e-01 1.20589919e-01 1.20075308e-01
      1.42795354e-01 2.60435522e-01 2.60435522e-01 1.04988888e-01
      6.06664829e-02 3.67441848e-02 1.91463843e-01 1.27107024e-01
      1.82459056e-01 1.85241148e-01 2.60435522e-01 2.06017509e-01
      7.86384419e-02 1.12926513e-01 8.15917850e-02 2.60435522e-01
      1.77988559e-01 1.33841008e-01 1.45234630e-01 1.66204885e-01
      9.42205861e-02 7.17848018e-02 1.13204330e-01 8.61058682e-02
      2.47062951e-01 1.92800105e-01 2.44981900e-01 1.56648383e-01
      1.48921743e-01 2.47062951e-01 1.36227310e-01 1.69835851e-01
      7.03674480e-02 1.39873132e-01 8.26492980e-02 1.92888483e-01
      1.27490029e-01 2.47062951e-01 1.59288809e-01 1.91349879e-01
      1.90982357e-01 6.18584640e-02 2.32289925e-01 8.28806385e-02
      1.37279168e-01 1.29310921e-01 1.51670113e-01 2.47062951e-01
      2.30948806e-01 1.73581228e-01 3.78479771e-02 6.60271645e-02
      5.91103807e-02 1.77676827e-01 1.89597785e-01 2.47062951e-01
      2.88301975e-01 8.61958191e-02 1.21116579e-01 1.15422122e-02
      2.07349006e-02 1.00699449e-02 5.09498045e-02 3.04090995e-02
      2.88301975e-01 2.88301975e-01 9.45355296e-02 9.41570029e-02
      3.48397195e-02 2.15534307e-02 1.90379508e-02 1.05576947e-01
      7.83566162e-02 2.88301975e-01 2.88301975e-01 1.01949602e-01
      9.10591558e-02 2.99956184e-02 1.21037550e-01 3.64224352e-02
      1.31812960e-01 9.40442756e-02 2.88301975e-01 2.88301975e-01
      6.89637214e-02 1.27048522e-01 1.37367770e-01 2.88301975e-01
      7.87391663e-02 2.43782759e-01 1.35886326e-01 2.88301975e-01
      2.68620461e-01 1.84516504e-01 2.03318983e-01 6.81170523e-02
      1.27307236e-01 4.95775752e-02 9.40478146e-02 8.75759199e-02
      2.55331099e-01 1.60544172e-01 1.39989600e-01 2.11985663e-01
      7.39015043e-02 2.68620461e-01 4.77387719e-02 4.79022972e-02
      4.78981286e-02 8.38116109e-02 2.68620461e-01 9.59191471e-02
      1.79063916e-01 1.19586945e-01 1.99787781e-01 6.76738918e-02
      2.54982322e-01 1.88282236e-01 2.61689782e-01 1.57392576e-01
      6.96973503e-02 1.32691413e-01 2.43503787e-02 2.68620461e-01
      5.33453301e-02 2.15853527e-01 1.76099226e-01 1.46078065e-01
      1.10842347e-01 1.21130846e-01 1.15210474e-01 5.32031879e-02
      3.30614001e-01 5.87114803e-02 2.76033245e-02 3.48072797e-02
      7.16014057e-02 2.75581896e-01 1.44273713e-01 8.53774846e-02
      2.63018105e-02 3.30614001e-01 1.34263054e-01 8.30600783e-02
      1.12476490e-01 2.87021816e-01 1.25089779e-01 8.75817910e-02
      1.12978272e-01 7.14266598e-02 3.30614001e-01 1.06125407e-01
      3.54921371e-02 3.26398984e-02 1.23298578e-01 2.36207396e-01
      7.52841756e-02 1.03984885e-01 5.78875691e-02 3.30614001e-01
      1.87203631e-01 1.17333278e-01 1.18896998e-01 2.69474119e-01
      1.40694380e-01 6.08185753e-02 6.60135224e-02 4.29150164e-02
      2.53511041e-01 1.18003204e-01 1.06985383e-01 1.03326142e-01
      2.07679898e-01 2.16754347e-01 5.06246760e-02 1.14723228e-01
      9.15411860e-02 2.53511041e-01 1.03477031e-01 2.24712774e-01
      1.54455453e-01 2.40410015e-01 1.93079621e-01 1.41690625e-02
      3.29201259e-02 2.20309794e-02 2.53511041e-01 1.82816401e-01
      2.01071933e-01 2.21879795e-01 2.53511041e-01 2.53511041e-01
      4.77328598e-02 8.62879455e-02 4.39635143e-02 1.80953979e-01
      9.77094248e-02 1.73078537e-01 2.07384974e-01 2.53511041e-01
      1.93298072e-01 4.52265181e-02 8.40164050e-02 6.98663890e-02
      3.05623084e-01 8.08694214e-02 2.82129645e-01 1.89489290e-01
      1.91138893e-01 5.28586544e-02 2.96920110e-02 5.05738147e-02
      3.96628715e-02 3.05623084e-01 6.28755540e-02 1.62927464e-01
      1.25383735e-01 6.30755797e-02 3.05623084e-01 1.46590173e-01
      2.02165008e-01 7.71357641e-02 1.88652560e-01 3.59416343e-02
      1.16128750e-01 8.43541697e-02 3.01601976e-01 1.94643959e-01
      1.48630783e-01 2.24189028e-01 9.19595286e-02 3.05623084e-01
      3.19312885e-02 5.84709458e-02 3.54259349e-02 1.19366080e-01</_>
    <_>
      1.14690021e-01 2.44592037e-02 4.58510257e-02 7.18161464e-02
      3.31505418e-01 6.73294812e-02 1.12898745e-01 1.15898252e-01
      7.96965957e-02 2.62811899e-01 1.82696998e-01 1.50396496e-01
      2.03035742e-01 3.31505418e-01 7.13136271e-02 1.53266251e-01
      1.49467960e-01 1.89392135e-01 7.78404549e-02 8.95883143e-02
      5.19248582e-02 8.41269940e-02 3.31505418e-01 8.82722884e-02
      5.85600622e-02 9.20354128e-02 9.18308124e-02 1.13153927e-01
      1.37155652e-01 8.43074471e-02 1.97956488e-01 3.31505418e-01
      1.30668491e-01 2.51431108e-01 1.43534601e-01 1.23143889e-01
      2.63884693e-01 1.68893889e-01 8.90474543e-02 1.19805105e-01
      2.69412249e-01 3.35550234e-02 7.51795545e-02 9.28978696e-02
      2.10168645e-01 2.69412249e-01 1.05103560e-01 5.48891388e-02
      5.50454259e-02 2.69412249e-01 7.71066397e-02 6.77223429e-02
      1.40056267e-01 2.69412249e-01 1.16975486e-01 1.25807613e-01
      5.95933311e-02 1.42232865e-01 2.69412249e-01 9.24693942e-02
      1.89072296e-01 1.06654793e-01 9.05087516e-02 2.40263656e-01
      1.50155753e-01 7.47497305e-02 1.66364506e-01 2.69412249e-01
      1.17908008e-01 1.41824365e-01 1.77823707e-01 1.95491523e-01
      2.53921539e-01 7.02215806e-02 4.60117459e-02 5.35461307e-02
      2.53921539e-01 1.12053387e-01 1.28772825e-01 1.20821327e-01
      2.42325529e-01 2.30293095e-01 3.01270448e-02 3.10424808e-02
      5.84105663e-02 2.53921539e-01 1.74857840e-01 2.14854702e-01
      1.52120590e-01 2.22109690e-01 1.93995684e-01 1.02568686e-01
      6.62780032e-02 1.43356621e-01 2.53921539e-01 7.99971819e-02
      1.48862541e-01 1.64570644e-01 1.86298087e-01 1.55296877e-01
      1.47158682e-01 2.53921539e-01 1.57324448e-01 2.53921539e-01
      8.58554393e-02 1.13949358e-01 1.04566522e-01 1.59502566e-01
      3.53860520e-02 2.06228971e-01 6.16043732e-02 1.04221769e-01
      3.26046079e-01 2.28412692e-02 1.34138903e-02 1.98839940e-02
      6.28398880e-02 1.38897523e-01 1.45132884e-01 6.40354231e-02
      1.71059638e-01 3.26046079e-01 5.85176572e-02 1.53665736e-01
      9.62853134e-02 1.78914607e-01 7.88407326e-02 1.51865333e-01
      5.50546572e-02 1.49845779e-01 3.26046079e-01 4.04263474e-02
      3.00450567e-02 1.46420058e-02 3.75683233e-02 2.16293037e-01
      1.29169196e-01 9.22181904e-02 3.26046079e-01 3.26046079e-01
      1.05766483e-01 2.33385682e-01 8.51482227e-02 2.36401886e-01
      2.37476602e-01 6.00468852e-02 3.36413905e-02 6.74347430e-02
      2.80633211e-01 5.40926382e-02 1.40504628e-01 1.29833728e-01
      2.61958957e-01 2.80633211e-01 1.38564140e-01 6.17819093e-02
      7.27407709e-02 1.15703285e-01 4.34228294e-02 1.03595972e-01
      2.07336545e-01 2.80633211e-01 2.80633211e-01 5.21147922e-02
      3.66341509e-02 1.30725473e-01 2.19065696e-01 5.92162982e-02
      1.44783244e-01 1.38257846e-01 2.80633211e-01 2.80633211e-01
      9.86473188e-02 3.83583531e-02 3.69240046e-02 1.31700531e-01
      5.19690402e-02 7.43522644e-02 1.54664397e-01 2.80633211e-01
      2.64344126e-01 1.02975853e-01 6.49957433e-02 1.05610564e-01
      1.36523709e-01 2.30331849e-02 1.34339616e-01 2.20648676e-01
      2.67097294e-01 1.91980600e-01 1.65245682e-01 2.67097294e-01
      1.27588108e-01 2.67097294e-01 1.60674937e-02 8.75741914e-02
      9.97978002e-02 2.10978463e-01 2.67097294e-01 9.52367857e-02
      1.86024699e-02 5.09301424e-02 7.30791688e-02 4.47430089e-02
      9.42346081e-02 1.52610436e-01 2.67097294e-01 2.67097294e-01
      9.86432135e-02 7.15221167e-02 1.17885716e-01 2.67097294e-01
      4.32150513e-02 9.19945017e-02 1.06793113e-01 2.67097294e-01
      7.49476999e-02 2.98924763e-02 5.84411249e-02 8.92045423e-02
      3.41355890e-01 4.42877747e-02 2.99437940e-02 1.93464439e-02
      3.57228220e-02 9.48193744e-02 4.90695797e-02 6.45181686e-02
      2.12963045e-01 3.41355890e-01 2.05935970e-01 2.42599413e-01
      5.22098094e-02 9.40382257e-02 5.70277944e-02 5.60083315e-02
      1.09177969e-01 1.08017668e-01 3.41355890e-01 3.01266629e-02
      2.06233352e-01 5.99375442e-02 4.97650094e-02 9.98274460e-02
      4.83014397e-02 8.75845402e-02 1.07838996e-01 3.41355890e-01
      2.27380231e-01 3.41355890e-01 1.81282043e-01 1.48933828e-01
      1.66431293e-01 9.95123237e-02 8.43588784e-02 9.84420404e-02
      2.30202839e-01 1.19891785e-01 2.04069093e-01 9.29015800e-02
      2.06068799e-01 2.30202839e-01 1.71206474e-01 1.57039359e-01
      6.53975829e-02 2.19696209e-01 8.35478455e-02 1.40191972e-01
      1.13267347e-01 2.30202839e-01 1.72337472e-01 1.42251506e-01
      1.61862746e-01 2.41132639e-02 2.30202839e-01 1.10402897e-01
      2.30202839e-01 1.60102561e-01 2.10369602e-01 2.27297679e-01
      2.30202839e-01 2.30202839e-01 2.41144877e-02 1.21034913e-01
      2.26283427e-02 1.52752280e-01 1.40824914e-01 2.23332942e-01
      2.50690073e-01 1.00360446e-01 4.47647199e-02 2.92837005e-02
      1.03147209e-01 7.99270794e-02 1.99742302e-01 1.88962460e-01
      2.50690073e-01 2.50690073e-01 6.55054376e-02 4.37407158e-02
      6.28072396e-02 2.50690073e-01 5.12897335e-02 1.67131290e-01
      1.64624751e-01 2.50690073e-01 1.93291947e-01 1.05217308e-01
      1.16224676e-01 1.51394131e-02 5.37024662e-02 3.15341130e-02
      1.92954376e-01 2.50690073e-01 2.50690073e-01 1.96966380e-01
      5.55285998e-02 1.25993699e-01 9.78778303e-02 2.50690073e-01
      6.19337372e-02 1.71315521e-01 2.33897656e-01 2.50690073e-01
      1.11602269e-01 1.92319006e-01 1.08376235e-01 1.23695813e-01
      2.63733774e-01 4.24115434e-02 2.22990692e-01 7.71472752e-02
      8.18052888e-02 1.67002484e-01 1.07880838e-01 6.73977211e-02
      1.00092337e-01 2.57548690e-01 8.89016092e-02 2.63733774e-01
      1.56486705e-01 1.52143255e-01 9.91930142e-02 2.19982639e-01
      2.12951571e-01 1.48142487e-01 2.63733774e-01 7.84452185e-02
      8.29526633e-02 4.50686477e-02 1.15697384e-01 2.63733774e-01
      2.24712476e-01 2.63733774e-01 7.84689263e-02 2.63733774e-01
      2.54243519e-02 2.40761563e-02 1.81311592e-02 2.26342231e-01
      1.96669385e-01 7.30579644e-02 8.79901573e-02 1.20914038e-02
      1.80529758e-01 3.11423894e-02 1.62541822e-01 1.37113765e-01
      2.14448541e-01 2.38905698e-01 1.51318371e-01 2.26893649e-01
      2.50876532e-03 2.75726914e-01 3.14727164e-04 2.07712188e-01
      1.24786764e-01 2.35839039e-01 2.75726914e-01 1.06204741e-01
      1.24937214e-01 9.06446110e-03 1.25335291e-01 1.63593597e-03
      4.74449992e-02 2.89118569e-02 2.75726914e-01 2.75726914e-01
      1.29914269e-01 1.33059740e-01 2.14584731e-02 2.51967311e-01
      1.11526959e-02 1.64326981e-01 1.52380779e-01 2.75726914e-01
      1.42092243e-01 6.84089661e-02 9.53561589e-02 5.95188420e-03
      1.32710904e-01 6.25532959e-03 1.26134813e-01 1.77714676e-01
      2.01986745e-01 1.27680615e-01 4.80306186e-02 1.23340294e-01
      2.42069095e-01 3.10465366e-01 2.25437190e-02 4.15076129e-02
      1.05477363e-01 1.54502198e-01 3.04800004e-01 5.70568591e-02
      7.78842494e-02 2.87842434e-02 2.11807296e-01 1.13331042e-01
      2.25236952e-01 2.14840785e-01 3.10465366e-01 4.51207533e-02 0.
      1.72856718e-01 3.10465366e-01 3.10465366e-01 1.12071112e-01
      1.45877883e-01 7.74571002e-02 1.11140780e-01 3.68583985e-02
      4.02933955e-02 1.27772793e-01 1.07683711e-01 3.57920557e-01
      3.23317386e-02 1.77515931e-02 1.02689024e-02 5.58584519e-02
      1.96308777e-01 1.30032048e-01 3.57920557e-01 6.67194799e-02
      3.57920557e-01 3.37240957e-02 3.01758442e-02 1.07275899e-02
      1.51581720e-01 1.98101271e-02 1.09693250e-02 1.69991463e-01
      1.11006305e-01 3.57920557e-01 3.39878835e-02 5.11946939e-02
      1.71199869e-02 2.55356766e-02 1.82813719e-01 3.90543565e-02
      1.65720746e-01 5.44265211e-02 3.57920557e-01 1.17920563e-01
      2.32713491e-01 1.10178366e-01 2.08173424e-01 2.95348734e-01
      1.25366300e-01 1.75317243e-01 2.05734055e-02 8.85514170e-02
      1.52223194e-02 2.33214758e-02 3.63287032e-02 2.95348734e-01
      2.95348734e-01 1.10178113e-01 1.56221524e-01 8.31809193e-02
      7.74369463e-02 2.74054110e-02 5.35719246e-02 1.85195819e-01
      2.95348734e-01 2.95348734e-01 7.04289600e-02 1.00077145e-01
      2.40782760e-02 1.45515844e-01 4.76123169e-02 1.13868661e-01
      9.00065899e-02 2.95348734e-01 2.95348734e-01 9.43594798e-02
      1.91827968e-01 1.09784067e-01 1.58744022e-01 1.52118504e-02
      1.81466173e-02 1.06917128e-01 2.95348734e-01 1.56456947e-01
      3.28929275e-02 1.18142016e-01 8.10371935e-02 2.51400530e-01
      1.18272744e-01 1.56255692e-01 1.37295485e-01 2.74567664e-01
      2.26427447e-02 2.23512365e-03 1.54139116e-01 2.26491213e-01
      3.29841077e-01 9.70667526e-02 1.21851921e-01 3.35802324e-02
      5.31119518e-02 1.83142468e-01 5.08912653e-02 1.94772705e-01
      1.53267428e-01 3.29841077e-01 4.87488247e-02 4.29087356e-02
      6.59902468e-02 2.51682997e-01 3.53431925e-02 1.30101228e-02
      1.99319392e-01 3.29841077e-01 3.29841077e-01 3.21638584e-02
      2.79215090e-02 9.71827190e-03 5.71933798e-02 3.24970968e-02
      1.96612272e-02 1.72638625e-01 1.47908986e-01 3.03015083e-01
      2.39404757e-02 7.20123202e-02 3.67296226e-02 2.97273509e-02
      2.72352695e-01 5.49671389e-02 8.90626460e-02 1.90120600e-02
      2.93639123e-01 6.62499443e-02 2.32708335e-01 1.16791256e-01
      2.82821119e-01 5.54844774e-02 1.25097707e-01 3.03015083e-01
      2.26257563e-01 3.03015083e-01 1.42996376e-02 1.01655414e-02
      1.51762543e-02 4.09061611e-02 2.07413107e-01 3.03015083e-01
      3.03015083e-01 1.68550629e-02 1.41271502e-01 1.95175018e-02
      3.15738730e-02 2.64048222e-02 1.24144800e-01 2.93829799e-01
      7.75752366e-02 9.64145958e-02 4.49824193e-03 3.36872600e-02
      1.59611627e-02 6.43264055e-02 4.60747182e-02 2.93829799e-01
      2.93829799e-01 7.43619874e-02 9.11994353e-02 2.83690225e-02
      5.48797026e-02 5.62387146e-03 3.18748467e-02 2.54193507e-02
      2.93829799e-01 2.93829799e-01 2.74861246e-01 2.93829799e-01
      5.00899628e-02 1.05636403e-01 3.83249894e-02 2.21322216e-02
      2.00793985e-02 2.13226125e-01 2.93829799e-01 1.19109675e-01
      1.98689714e-01 8.27609971e-02 2.17174947e-01 7.16853738e-02
      9.92574096e-02 6.57313466e-02 2.93829799e-01 2.85104632e-01
      4.45207544e-02 8.59169886e-02 9.18955058e-02 2.62944967e-01
      1.38510391e-02 7.04388469e-02 4.36786301e-02 3.25139672e-01
      4.62986529e-02 1.63432565e-02 1.88563541e-01 2.91484922e-01
      3.43440861e-01 5.98022481e-03 2.77577415e-02 1.45274550e-02
      7.28837103e-02 2.16596872e-01 3.25769074e-02 9.22967121e-02
      7.99346715e-02 3.43440861e-01 8.30681771e-02 1.50016829e-01
      8.12456161e-02 2.38888875e-01 1.68293826e-02 4.46975883e-03
      1.12005666e-01 2.43796006e-01 3.43440861e-01 2.91272514e-02
      4.96118516e-02 1.68566070e-02 2.46383175e-02 5.95414601e-02
      1.50762215e-01 3.13732117e-01 2.36933097e-01 3.13732117e-01
      4.59577627e-02 5.79904169e-02 1.20648416e-02 2.32741367e-02
      1.12011105e-01 3.13732117e-01 3.13732117e-01 2.80057099e-02
      2.36536860e-01 8.27978104e-02 8.68277624e-02 3.47439945e-02
      3.73504385e-02 9.50241536e-02 5.82632944e-02 2.22861618e-01
      1.79030418e-01 3.13732117e-01 3.23674604e-02 8.26182365e-02
      2.49138735e-02 4.12901007e-02 1.75335467e-01 2.13662863e-01
      3.13732117e-01 1.78563688e-02 1.46337986e-01 6.97603822e-02
      1.15930401e-01 3.72204632e-02 9.63575169e-02 1.11603051e-01
      2.08389610e-01 2.41135120e-01 5.58259785e-02 2.36231133e-01
      1.57501414e-01 1.18056439e-01 4.38103564e-02 8.38597715e-02
      2.14255959e-01 1.96865484e-01 2.41135120e-01 1.06399804e-01
      2.41135120e-01 1.49141893e-01 1.42207831e-01 5.02676107e-02
      1.96302414e-01 2.30288833e-01 1.03131063e-01 1.66350320e-01
      9.94255021e-03 1.22280411e-01 1.36383072e-01 1.40406132e-01
      5.84532954e-02 2.41135120e-01 2.41135120e-01 2.27784708e-01
      2.15731218e-01 2.43635662e-02 1.11402772e-01 1.20412119e-01
      1.60882205e-01 8.22672918e-02 2.41135120e-01 8.24861899e-02
      1.48952812e-01 2.83481628e-01 1.26905352e-01 3.48148793e-01
      5.23292013e-02 6.20086081e-02 2.96724550e-02 7.91743323e-02
      5.50249242e-04 1.97346881e-02 2.03094453e-01 2.63295621e-01
      3.48148793e-01 1.24681611e-02 1.10059809e-02 3.61368316e-03
      1.36272819e-03 1.53917745e-01 2.13612482e-01 2.42490917e-01
      1.04909584e-01 3.48148793e-01 2.65134610e-02 6.47961646e-02
      2.61476152e-02 1.27229318e-01 1.23286422e-03 3.24594118e-02
      1.69042766e-01 2.65805274e-01 3.48148793e-01 2.27433024e-03
      7.52914511e-03 6.39403646e-04 1.07713009e-03 8.47113356e-02
      8.55111182e-02 1.41685471e-01 1.41790420e-01 2.75358170e-01
      6.71597663e-04 1.28314504e-02 4.77329176e-03 4.95271832e-02
      2.45794788e-01 2.51729995e-01 2.75358170e-01 3.31473947e-02
      5.96974194e-02 1.70809850e-02 5.04418127e-02 9.44221299e-03
      1.61596909e-01 1.28991425e-01 2.35069752e-01 2.75358170e-01
      1.14789397e-01 2.75358170e-01 3.39240991e-02 3.24680060e-02 0.
      7.41295218e-02 2.44535536e-01 2.75358170e-01 2.75358170e-01
      4.92356755e-02 2.70863056e-01 1.21684074e-01 2.45875567e-01
      4.80416864e-02 1.46938950e-01 2.38568187e-01 1.59690276e-01
      2.22901016e-01 1.33261094e-02 7.01052919e-02 2.99128518e-02
      5.43219149e-02 3.08262222e-02 2.38568187e-01 2.38568187e-01
      1.11582048e-01 1.11321725e-01 3.53498831e-02 1.94100618e-01
      8.64484012e-02 1.71173081e-01 1.06234320e-01 2.38568187e-01
      2.12624624e-01 1.37894392e-01 2.14630276e-01 3.58965062e-02
      2.38568187e-01 1.22545704e-01 2.02837214e-01 9.70302746e-02
      1.81739777e-01 2.30697632e-01 1.71259150e-01 2.38568187e-01
      1.65904492e-01 2.38568187e-01 9.39956903e-02 1.35054305e-01
      9.90442857e-02 2.12527081e-01 1.23056337e-01 6.38480708e-02
      1.13321453e-01 9.91959423e-02 3.45722556e-01 9.83937830e-02
      1.76292732e-01 6.04277216e-02 1.24361657e-01 1.07373646e-03
      1.57176964e-02 1.65041998e-01 2.16414958e-01 3.45722556e-01
      1.42572718e-02 2.53811162e-02 1.21802709e-03 1.07373646e-03
      5.34411445e-02 8.33965689e-02 3.45722556e-01 2.83080697e-01
      3.45722556e-01 7.64756203e-02 9.99346972e-02 2.84054931e-02
      4.91832159e-02 5.40313522e-05 1.24292783e-02 2.19020769e-01
      2.53933132e-01 3.45722556e-01 1.25902537e-02 1.42040905e-02
      2.81083194e-04 5.40313522e-05 1.74666673e-01 1.62017569e-01
      2.46029496e-01 4.24886122e-02 2.46140823e-01 2.88833585e-02
      2.75751445e-02 0. 1.28044128e-01 2.23193258e-01 1.68901980e-01
      2.35627085e-01 1.32334735e-02 1.92453936e-01 1.01447359e-01
      1.93477184e-01 9.05110389e-02 1.79540470e-01 2.46140823e-01
      9.47725698e-02 2.46140823e-01 1.99512884e-01 2.46140823e-01
      1.26814339e-02 3.07479221e-02 1.19521637e-02 2.27058977e-01
      2.46140823e-01 1.11620255e-01 1.35781780e-01 8.93310159e-02
      2.46140823e-01 7.75799379e-02 1.52507544e-01 8.59368443e-02
      2.46140823e-01 2.05592290e-01 4.57184203e-02 7.54067898e-02
      1.28635084e-02 2.21313804e-01 1.03131026e-01 2.13324651e-01
      1.51322037e-01 2.23811507e-01 2.38858536e-01 1.39266059e-01
      2.38858536e-01 8.67889374e-02 2.38858536e-01 4.18073013e-02
      9.64593887e-02 1.06547169e-01 2.38858536e-01 1.58252418e-01
      4.63237092e-02 9.73050594e-02 7.02953860e-02 2.38858536e-01
      1.21129036e-01 1.68683335e-01 1.75754294e-01 1.86508521e-01
      1.27785444e-01 3.64328399e-02 1.48395225e-01 9.84312743e-02
      2.38858536e-01 2.25831047e-01 2.00673535e-01 2.15736523e-01
      2.00146094e-01 6.16104752e-02 9.70370844e-02 3.18366855e-01
      2.74901807e-01 3.18366855e-01 1.58682354e-02 2.87892744e-02
      2.54495777e-02 6.60376251e-02 0. 3.95926554e-03 1.37185097e-01
      2.63769001e-01 3.18366855e-01 1.49297260e-03 8.89648845e-07 0. 0.
      3.33739780e-02 2.22593620e-02 2.32309356e-01 3.18366855e-01
      3.18366855e-01 1.62284687e-01 1.15523383e-01 6.96186721e-02
      5.73320836e-02 0. 3.56616598e-04 1.61358863e-01 2.75530428e-01
      3.18366855e-01 6.32344745e-03 1.92118506e-03 0. 0. 1.35892540e-01
      4.75690551e-02 2.78622508e-01 2.16090545e-01 2.78622508e-01
      5.70154935e-02 7.21872970e-02 4.65957113e-02 1.16010405e-01
      1.73716515e-01 4.75905538e-02 1.67740807e-01 8.90635774e-02
      2.78622508e-01 1.00146621e-01 2.74378330e-01 6.59823567e-02
      1.90541416e-01 7.08680749e-02 1.11630008e-01 2.02832624e-01
      1.09685443e-01 2.78622508e-01 9.13569927e-02 8.42187181e-02
      8.16380382e-02 7.91828632e-02 2.15183809e-01 1.05977431e-01
      1.43324882e-01 3.29560451e-02 2.78622508e-01 8.47294629e-02
      2.78622508e-01 1.47013545e-01 1.96081221e-01 1.24264821e-01
      5.88994473e-02 1.47139817e-01 9.07181427e-02 2.50310183e-01
      9.07576457e-02 1.89702451e-01 1.15436621e-01 1.42762080e-01
      8.06550011e-02 5.63988350e-02 2.50310183e-01 2.50310183e-01
      2.50310183e-01 1.60482302e-01 9.50953215e-02 1.00829519e-01
      7.91744515e-02 2.50310183e-01 1.56705499e-01 1.51472911e-01
      3.29708569e-02 1.10425234e-01 3.83110903e-02 2.50310183e-01
      1.46009400e-01 2.50310183e-01 1.91628486e-01 1.99930042e-01
      2.50310183e-01 2.35233828e-01 2.50310183e-01 1.14770140e-02
      8.47719312e-02 4.74660955e-02 1.44201264e-01 8.35320074e-03
      1.57546364e-02 2.54709512e-01 3.32731277e-01 3.32731277e-01
      1.25946790e-01 6.24107346e-02 2.66797747e-02 1.07895471e-02 0.
      7.76647998e-04 7.45372027e-02 2.50235498e-01 3.32731277e-01
      5.29432762e-03 2.05008383e-03 0. 0. 1.83053538e-02 6.04096353e-02
      3.32731277e-01 3.32731277e-01 3.32731277e-01 6.58610975e-03
      2.43114866e-02 8.68862495e-03 8.41076020e-03 8.36330839e-03
      1.16497204e-02 1.00046515e-01 2.29493856e-01 3.32731277e-01
      2.90378521e-04 1.36094881e-04 0. 8.36330839e-03 1.39241964e-01
      2.47135550e-01 2.47135550e-01 2.47226264e-02 1.48371816e-01
      2.20737625e-02 2.99776942e-02 4.03240956e-02 8.93189460e-02
      2.47135550e-01 2.47135550e-01 2.26353452e-01 3.70780379e-02
      1.09113038e-01 1.48287173e-02 1.31028220e-01 8.31436887e-02
      2.29768664e-01 1.37931898e-01 2.47135550e-01 2.47135550e-01
      4.60134521e-02 1.04124367e-01 4.08493280e-02 1.17570296e-01
      5.31941764e-02 8.41973945e-02 2.47135550e-01 2.47135550e-01
      2.42680520e-01 7.42082223e-02 2.47135550e-01 1.24871999e-01
      2.47135550e-01 9.90201980e-02 2.12043330e-01 2.67315477e-01
      1.24204986e-01 8.91496018e-02 3.84380296e-02 8.88102502e-02
      2.81714555e-02 1.57363519e-01 1.14291564e-01 2.67315477e-01
      1.25263527e-01 8.14317763e-02 1.51584923e-01 1.32332101e-01
      2.67315477e-01 3.54115777e-02 2.25666463e-01 9.79162678e-02
      1.16182417e-01 2.49697149e-01 1.21544845e-01 2.27268785e-01
      1.25507221e-01 2.67315477e-01 7.10162446e-02 1.76615030e-01
      7.31352121e-02 2.31468230e-01 7.70727694e-02 7.25469068e-02
      2.67315477e-01 2.67315477e-01 2.67315477e-01 4.20606472e-02
      1.61973566e-01 6.16091751e-02 7.07023740e-02 9.24705807e-03
      2.82260887e-02 2.18187734e-01 3.01117003e-01 3.83573741e-01
      8.95155221e-03 8.85872841e-02 2.41723564e-02 6.58715609e-03
      1.22509738e-02 8.25605076e-03 1.06641710e-01 1.15991369e-01
      3.83573741e-01 0. 0. 0. 1.22509738e-02 2.00187293e-04
      1.59332696e-02 2.57924825e-01 3.48206192e-01 3.83573741e-01
      8.79026949e-03 6.50432333e-02 1.41772004e-02 2.00187293e-04
      2.29309197e-03 1.38378693e-02 1.69365123e-01 1.15415014e-01
      3.83573741e-01 0. 0. 0. 2.29309197e-03</_>
    <_>
      8.52789879e-02 6.43621907e-02 1.68990344e-01 1.32263735e-01
      3.61459106e-01 1.42544527e-02 8.33718330e-02 2.09911894e-02
      7.35925063e-02 1.72671676e-01 6.28978610e-02 1.53928712e-01
      1.51744679e-01 3.61459106e-01 6.59365803e-02 8.81402716e-02
      6.75279424e-02 1.89765662e-01 5.70125654e-02 1.85933504e-02
      7.07657263e-02 5.16608730e-02 3.61459106e-01 3.42604406e-02
      9.89866778e-02 2.44923197e-02 7.33517855e-02 2.52287000e-01
      1.58814080e-02 4.49860990e-02 4.01584134e-02 3.61459106e-01
      1.23332158e-01 1.44519836e-01 9.74949747e-02 3.58826935e-01
      2.74825841e-01 3.67645063e-02 7.10299909e-02 1.30634695e-01
      2.57974267e-01 1.04111016e-01 3.90442684e-02 7.69145712e-02
      2.87429303e-01 2.74952859e-01 5.35715371e-02 4.11313623e-02
      8.39260370e-02 2.19927564e-01 1.16328642e-01 1.24144070e-01
      8.56107846e-02 2.03425810e-01 2.87429303e-01 3.36749889e-02
      3.30139883e-02 7.79405907e-02 2.19090402e-01 1.23385705e-01
      4.78671864e-02 9.28566083e-02 2.87429303e-01 2.87429303e-01
      6.94847032e-02 1.03157721e-01 1.32980272e-01 2.27206871e-01
      6.97185472e-02 8.71802717e-02 8.55916291e-02 2.87429303e-01
      1.59092471e-01 5.31299300e-02 3.31519283e-02 7.40349591e-02
      1.57516330e-01 1.47815257e-01 2.20280990e-01 7.99750686e-02
      1.20239906e-01 1.95455655e-01 5.02723455e-02 8.56599212e-02
      1.21840626e-01 2.71356434e-01 1.95593685e-01 1.69913501e-01
      9.45774093e-02 1.95612341e-01 2.71356434e-01 7.71575645e-02
      1.69586375e-01 1.33146062e-01 2.27438331e-01 4.59470153e-02
      8.56653377e-02 1.03189170e-01 2.71356434e-01 2.46033311e-01
      1.21618941e-01 2.71356434e-01 1.86853826e-01 2.71356434e-01
      6.43359646e-02 4.23405059e-02 8.02108645e-02 2.32906520e-01
      7.52212480e-02 3.42866145e-02 4.30778675e-02 5.22328392e-02
      3.27693552e-01 2.09861901e-02 6.97802752e-02 8.39846022e-03
      8.18550959e-02 3.27693552e-01 5.39743938e-02 3.28637511e-02
      1.84017271e-02 2.70466328e-01 3.63084525e-02 9.30646732e-02
      2.97563709e-02 3.27693552e-01 1.25040054e-01 7.58506507e-02
      1.15807146e-01 1.37043431e-01 3.27693552e-01 3.50761227e-02
      1.56247079e-01 1.69115774e-02 1.42082021e-01 3.27693552e-01
      1.71462521e-01 1.79840431e-01 6.48781285e-02 2.39340961e-01
      3.01844925e-02 1.31379575e-01 2.84175519e-02 3.25655639e-01
      3.11374456e-01 6.99646175e-02 6.15563467e-02 9.69665125e-03
      4.59113307e-02 1.84991900e-02 1.81584489e-02 1.88930053e-02
      3.11374456e-01 3.11374456e-01 9.30981860e-02 1.29163802e-01
      4.30653840e-02 8.42631608e-02 4.99577029e-03 7.75405243e-02
      1.01215646e-01 3.11374456e-01 3.11374456e-01 1.70394838e-01
      1.62448153e-01 3.90690751e-02 3.68837044e-02 1.26154935e-02
      2.87393332e-02 2.02141590e-02 3.11374456e-01 3.11374456e-01
      1.71900541e-01 2.03646585e-01 6.66923448e-02 1.31284624e-01
      1.54423518e-02 6.63151667e-02 4.13288362e-02 3.11374456e-01
      2.63932079e-01 1.01008818e-01 1.81622982e-01 6.85505420e-02
      1.30301192e-01 4.96113300e-03 8.39514732e-02 1.01756476e-01
      2.63932079e-01 2.63932079e-01 8.96590278e-02 1.93142667e-01
      5.55821396e-02 2.63932079e-01 1.92240011e-02 4.90795709e-02
      5.67677543e-02 2.21968010e-01 2.63932079e-01 1.25840858e-01
      2.35350892e-01 9.71858576e-02 2.20050499e-01 3.17536853e-02
      6.44702315e-02 5.55309467e-02 2.36646488e-01 2.63932079e-01
      1.15561478e-01 2.47486711e-01 9.47161466e-02 2.63932079e-01
      7.43388683e-02 5.92049994e-02 6.86355457e-02 1.81888998e-01
      1.05972245e-01 4.30862159e-02 1.03122830e-01 1.37264356e-01
      2.60784060e-01 7.25024268e-02 2.60784060e-01 1.25939369e-01
      1.61146507e-01 2.60784060e-01 7.16619492e-02 9.68990549e-02
      3.67708839e-02 2.02933177e-01 5.60470298e-02 2.60784060e-01
      1.46883339e-01 2.60784060e-01 2.60784060e-01 6.10627718e-02
      8.61900747e-02 1.05789766e-01 2.60784060e-01 7.20929280e-02
      2.60784060e-01 1.22773848e-01 2.16475919e-01 1.93710029e-01
      3.41058820e-02 4.20284122e-02 4.45168652e-02 1.13349915e-01
      4.26490121e-02 2.32069790e-01 1.21517710e-01 2.58259594e-01
      2.93818682e-01 6.92587197e-02 7.25180879e-02 3.01254522e-02
      4.05168943e-02 2.77081281e-02 1.38593629e-01 1.19879730e-01
      2.93818682e-01 2.93818682e-01 8.07850584e-02 1.17855221e-01
      7.13898763e-02 1.55597389e-01 3.07216831e-02 1.13607988e-01
      9.55868885e-02 2.93818682e-01 2.93818682e-01 5.09412028e-02
      1.15348466e-01 2.50159185e-02 6.31579086e-02 2.83501688e-02
      1.87714055e-01 1.46169573e-01 2.93818682e-01 2.93818682e-01
      4.28967588e-02 8.44772458e-02 2.44674291e-02 7.34159723e-02
      3.28905992e-02 2.42184013e-01 1.84784710e-01 2.93818682e-01
      2.51835197e-01 4.25701812e-02 1.21447138e-01 8.04369152e-02
      2.49709308e-01 5.86908422e-02 9.31323841e-02 1.29434392e-01
      2.51835197e-01 2.48438716e-01 5.43146431e-02 1.15454055e-01
      7.69637823e-02 2.22874999e-01 9.33592841e-02 1.24210253e-01
      2.11424977e-01 2.51835197e-01 2.51835197e-01 2.66206870e-03
      1.26277469e-02 8.83692130e-03 5.64787649e-02 2.29837634e-02
      1.34359807e-01 1.75267056e-01 2.51835197e-01 2.50336617e-01
      5.53567335e-02 3.73364538e-02 1.84759721e-02 2.51835197e-01
      1.02604114e-01 2.06603602e-01 2.51835197e-01 2.51835197e-01
      1.97114393e-01 6.36614263e-02 1.47966012e-01 7.56464526e-02
      3.23550999e-01 1.78343598e-02 3.32527868e-02 2.00666413e-02
      1.60203069e-01 2.90417343e-01 7.36732781e-02 9.53598917e-02
      3.07153426e-02 8.36873874e-02 1.44874658e-02 4.30348925e-02
      1.97280534e-02 2.97822237e-01 1.13076992e-01 9.03526768e-02
      2.56697685e-01 1.09697595e-01 3.23550999e-01 6.30268678e-02
      4.52080369e-02 8.11821446e-02 2.55570859e-01 3.23550999e-01
      1.61577478e-01 1.70691654e-01 5.42185418e-02 1.57041565e-01
      7.87340924e-02 7.11420402e-02 1.05576493e-01 3.23550999e-01
      3.23419631e-01 5.87614141e-02 1.31548151e-01 3.69305499e-02
      8.83029625e-02 3.53204757e-02 1.08712845e-01 4.68474999e-02
      3.23419631e-01 3.23419631e-01 4.04108278e-02 1.01045877e-01
      3.59726660e-02 9.46286619e-02 3.82116698e-02 1.57171547e-01
      6.80967495e-02 3.23419631e-01 3.23419631e-01 6.08763322e-02
      6.18593507e-02 1.96966548e-02 9.52181891e-02 5.38636595e-02
      4.91362959e-02 8.93409103e-02 3.23419631e-01 3.23419631e-01
      9.42090154e-02 8.76110345e-02 5.03328964e-02 5.44043928e-02
      2.74601597e-02 6.93241581e-02 6.32932708e-02 3.23419631e-01
      2.88927674e-01 2.24422361e-03 1.23427231e-02 6.93280390e-03
      4.44059111e-02 1.02911536e-02 9.92758572e-02 5.59291989e-02
      3.25314790e-01 1.17604300e-01 2.62806341e-02 5.86151592e-02
      3.11174206e-02 3.28631788e-01 6.03141524e-02 1.46665663e-01
      1.08034693e-01 1.93765044e-01 3.28631788e-01 7.85341561e-02
      1.12370208e-01 4.72893864e-02 6.35693744e-02 1.62991975e-02
      1.99123621e-01 5.73349670e-02 3.28631788e-01 1.89567745e-01
      4.08089794e-02 2.10161060e-01 1.06874533e-01 3.28631788e-01
      1.82497967e-02 2.52875119e-01 4.44907248e-02 1.97812974e-01
      1.17525667e-01 1.47275716e-01 1.85835883e-01 1.48875996e-01
      3.05569500e-01 7.65168518e-02 4.67350371e-02 9.19038728e-02
      1.70992523e-01 1.80451378e-01 1.62302151e-01 1.45337716e-01
      7.34916255e-02 2.22503856e-01 1.42281264e-01 8.59089196e-02
      1.07765451e-01 2.34639287e-01 2.43307114e-01 1.49533644e-01
      1.57998264e-01 1.18321836e-01 3.05569500e-01 4.32689972e-02
      6.03275485e-02 4.92673032e-02 2.12681234e-01 3.05569500e-01
      1.32761493e-01 1.12837389e-01 5.86988814e-02 1.99319497e-01
      7.13620484e-02 4.81305867e-02 4.08094227e-02 3.05569500e-01
      2.67057478e-01 5.08604646e-02 8.25535506e-02 3.20746712e-02
      1.54712319e-01 1.08339846e-01 6.17595725e-02 1.01965636e-01
      2.84393519e-01 3.43131751e-01 1.10500239e-01 9.14457738e-02
      5.02193198e-02 5.24244830e-02 4.35678698e-02 7.02352598e-02
      7.33405575e-02 3.43131751e-01 3.43131751e-01 4.19296920e-02
      6.30303323e-02 2.38043591e-02 8.89525190e-02 5.95822148e-02
      3.77511084e-02 2.70788353e-02 3.43131751e-01 3.43131751e-01
      6.61090910e-02 8.31650347e-02 2.39813104e-02 3.03116664e-02
      2.59681605e-02 7.11890832e-02 3.35567258e-02 3.43131751e-01
      3.45407248e-01 7.06641898e-02 8.10141638e-02 3.63340639e-02
      7.04663247e-02 1.70060322e-02 9.03105438e-02 5.08875623e-02
      3.45407248e-01 1.48197681e-01 3.56776714e-02 1.83620811e-01
      1.27017424e-01 3.45407248e-01 1.66500546e-02 7.64477327e-02
      3.44673172e-02 1.50779471e-01 3.45407248e-01 5.31281196e-02
      1.39899448e-01 4.13537435e-02 1.54502422e-01 2.27877591e-02
      6.67697191e-02 4.35176156e-02 3.45407248e-01 1.25691712e-01
      3.67626511e-02 2.00678051e-01 1.10492453e-01 3.45407248e-01
      2.73714457e-02 3.59219573e-02 3.34210843e-02 1.45161480e-01
      2.31012478e-01 5.65783828e-02 1.77940756e-01 4.33102325e-02
      3.07276189e-01 1.19831124e-02 3.85922156e-02 1.98547561e-02
      2.12098390e-01 3.07276189e-01 4.76028249e-02 8.78422707e-02
      2.65543070e-02 5.71047328e-02 1.13593489e-02 2.32040361e-02
      3.68258618e-02 3.07276189e-01 1.56516254e-01 6.74553365e-02
      2.64492929e-01 1.22387528e-01 3.07276189e-01 5.22811562e-02
      1.05405517e-01 2.12802552e-02 1.20858312e-01 3.07276189e-01
      9.95291844e-02 2.29699105e-01 1.37544900e-01 1.89051792e-01
      5.68865240e-02 7.77023286e-02 8.85422304e-02 3.07276189e-01
      2.79844970e-01 9.15410593e-02 5.90056963e-02 1.14217056e-02
      1.57293957e-02 1.17762284e-02 1.28358109e-02 4.84875292e-02
      2.79844970e-01 2.79844970e-01 1.64405152e-01 1.16439961e-01
      2.30073296e-02 2.10074913e-02 1.94787011e-02 9.79187191e-02
      8.70987922e-02 2.79844970e-01 2.79844970e-01 1.42981857e-01
      1.89339772e-01 1.35883823e-01 9.46347192e-02 7.65497237e-02
      6.52754009e-02 1.10220775e-01 2.79844970e-01 2.79844970e-01
      2.53166020e-01 2.17017114e-01 1.49889946e-01 9.72824171e-02
      8.61449689e-02 1.14909805e-01 1.64207190e-01 2.79844970e-01
      2.90588409e-01 6.70025498e-02 1.26900479e-01 2.81524733e-02
      1.61712751e-01 6.58642799e-02 1.48918152e-01 9.54492465e-02
      3.34458977e-01 8.58714208e-02 2.66308114e-02 1.34483576e-01
      3.24089751e-02 3.69684815e-01 6.18054569e-02 6.54761195e-02
      3.23163867e-02 9.30164456e-02 1.52000681e-01 1.09235942e-01
      1.86639085e-01 1.50413945e-01 3.56065124e-01 1.22625716e-01
      1.28695384e-01 1.44670129e-01 2.21496612e-01 2.80911904e-02
      3.19908708e-02 1.94584012e-01 1.40238568e-01 3.69684815e-01
      9.66613367e-02 7.81960115e-02 3.45934033e-02 4.02410626e-02
      1.08127616e-01 3.18984613e-02 8.46619904e-02 7.74792284e-02
      2.96478003e-01 9.03230309e-02 2.87536412e-01 7.31996000e-02
      1.29705504e-01 2.96478003e-01 1.03132479e-01 1.88847855e-01
      8.58512372e-02 1.50621578e-01 6.71518072e-02 1.68052942e-01
      8.61682594e-02 2.96478003e-01 1.77671373e-01 1.26429364e-01
      2.96478003e-01 7.15207011e-02 2.03527510e-01 3.28572690e-02
      1.49616957e-01 5.75815327e-02 1.47354782e-01 2.96478003e-01
      1.57277808e-01 1.87154368e-01 4.04378884e-02 2.22593676e-02
      1.83661561e-02 8.41035694e-02 4.82011437e-02 2.96478003e-01
      3.12159628e-01 8.90688971e-02 1.77840739e-01 8.53253528e-02
      5.12202419e-02 5.49895167e-02 9.64900777e-02 7.82955512e-02
      3.12159628e-01 3.12159628e-01 1.40557736e-01 1.73716962e-01
      9.81144905e-02 5.72516955e-02 5.54928556e-02 1.01037078e-01
      1.04391642e-01 3.12159628e-01 3.12159628e-01 5.56340888e-02
      6.52869418e-02 1.91296136e-03 2.90781987e-04 3.51546169e-03
      4.86069322e-02 4.22542281e-02 3.12159628e-01 3.12159628e-01
      5.81320748e-02 5.22348396e-02 7.22430088e-03 1.96066834e-02
      3.84782068e-02 1.71264023e-01 1.16193764e-01 3.12159628e-01
      2.20347747e-01 1.69505537e-01 2.37009704e-01 1.51575863e-01
      3.02006990e-01 3.49650458e-02 2.99294181e-02 5.28763682e-02
      1.53783917e-01 2.81027220e-02 7.01447055e-02 2.19688937e-01
      1.95788324e-01 3.77250850e-01 2.10966766e-02 1.48489224e-02
      8.00741743e-03 7.48070376e-03 2.39169136e-01 1.06556229e-01
      8.81355628e-02 3.46709155e-02 2.84350663e-01 6.22025058e-02
      2.65509009e-01 1.06227264e-01 2.41287977e-01 2.20070854e-02
      5.27364500e-02 1.14926174e-01 9.39236805e-02 3.77250850e-01
      2.56673824e-02 1.15405060e-01 2.55201813e-02 1.11143654e-02
      1.06818967e-01 1.60156101e-01 2.86229908e-01 1.20325424e-01
      2.86229908e-01 5.42320944e-02 8.23973864e-02 3.29913087e-02
      6.39509484e-02 2.86229908e-01 1.90022811e-01 1.73062474e-01
      5.70130050e-02 2.91369669e-02 2.83888374e-02 6.59087300e-02
      3.90737802e-02 2.86229908e-01 1.58239573e-01 6.81390315e-02
      9.11604092e-02 7.34443739e-02 2.86229908e-01 1.06793001e-01
      2.86229908e-01 1.36919245e-01 2.27835611e-01 2.86229908e-01
      8.29037875e-02 4.93058227e-02 3.19691449e-02 4.26340289e-02
      6.26155883e-02 1.93856865e-01 1.39083683e-01 2.86229908e-01
      3.16204637e-01 3.95385288e-02 2.44665891e-02 1.53425746e-04
      3.33723765e-05 0. 1.90162305e-02 1.76332630e-02 3.16204637e-01
      3.16204637e-01 3.32722925e-02 9.18881148e-02 3.36534083e-02
      6.59281537e-02 6.25255406e-02 2.26837963e-01 9.32295620e-02
      3.16204637e-01 3.16204637e-01 2.75241286e-02 2.13349164e-02
      4.28813451e-04 2.74057174e-03 4.54599597e-03 2.74476502e-02
      2.68207677e-02 3.16204637e-01 3.16204637e-01 1.59697309e-01
      2.56486118e-01 7.67614916e-02 7.28691146e-02 3.24389525e-02
      8.81838650e-02 3.16842571e-02 3.16204637e-01 8.12917426e-02
      2.27653924e-02 8.16357285e-02 4.93132956e-02 3.55200171e-01
      9.55139697e-02 3.00428748e-01 7.83076659e-02 1.07358366e-01
      2.18238030e-03 1.51562691e-02 1.16730168e-01 5.53953610e-02
      3.55200171e-01 4.65682298e-02 1.13846213e-01 1.76175702e-02
      2.67328951e-03 1.77552179e-01 1.45675242e-01 3.50785941e-01
      1.24282457e-01 3.55200171e-01 4.93938588e-02 8.20685774e-02
      2.44151447e-02 1.08445249e-01 4.02915440e-02 5.92934191e-02
      2.88914084e-01 1.38200462e-01 3.55200171e-01 4.23701704e-02
      3.10115870e-02 1.11501394e-02 5.27238771e-02 2.21490532e-01
      6.98212907e-02 1.42214730e-01 3.60330008e-02 1.65804923e-01
      3.77343446e-02 1.68006435e-01 9.93210524e-02 2.65169591e-01
      2.65169591e-01 2.91376617e-02 4.03946415e-02 1.31361103e-02
      2.68735476e-02 4.51153778e-02 2.22526848e-01 1.30505711e-01
      2.65169591e-01 1.88664213e-01 1.50970608e-01 2.65169591e-01
      1.04778379e-01 1.18160345e-01 1.01326957e-01 2.19280630e-01
      8.04933161e-02 2.10911542e-01 2.41888016e-01 7.38809332e-02
      8.94129723e-02 4.64682169e-02 2.29210749e-01 1.73527837e-01
      2.65169591e-01 1.13543153e-01 2.62769490e-01 2.79783905e-01
      1.56085659e-02 1.64938942e-02 1.38856713e-02 7.29948655e-02
      3.90312783e-02 1.84065133e-01 5.59967607e-02 2.79783905e-01
      2.79783905e-01 1.41638637e-01 1.41572341e-01 6.39168620e-02
      1.08429097e-01 3.97859141e-02 9.65104923e-02 7.30462223e-02
      2.79783905e-01 1.32377908e-01 3.21764648e-02 2.27713902e-02
      2.86815073e-02 2.79783905e-01 1.91122651e-01 2.79783905e-01
      9.45235789e-02 1.50346890e-01 2.10465550e-01 1.09038033e-01
      8.11443105e-02 1.36647880e-01 2.79783905e-01 1.39128923e-01
      2.79783905e-01 1.56360090e-01 2.02489898e-01 2.35416561e-01
      1.45576522e-01 2.27559000e-01 6.78057894e-02 1.53692633e-01
      3.45939286e-02 1.21690117e-01 1.06248751e-01 2.35416561e-01
      1.58358723e-01 7.58843198e-02 1.68586418e-01 8.95733759e-02
      2.35416561e-01 4.18547131e-02 1.18242331e-01 6.61055073e-02
      2.35416561e-01 2.23406389e-01 5.51750958e-02 8.39701444e-02
      1.47190496e-01 2.35416561e-01 8.52415487e-02 2.05652043e-01
      2.01062083e-01 2.35416561e-01 1.87668219e-01 1.93186011e-02
      4.46593910e-02 1.50341436e-01 2.35416561e-01 1.68273553e-01
      2.33426571e-01 1.54136673e-01 2.35416561e-01 9.33280811e-02
      7.68078119e-02 1.35830194e-01 6.98488280e-02 1.47234827e-01
      1.81085497e-01 3.08907449e-01 1.35989890e-01 1.54800311e-01
      7.53879324e-02 5.55576682e-02 4.69465181e-02 5.54276071e-02
      3.08907449e-01 2.74683982e-01 3.08907449e-01 1.43528700e-01
      1.07210808e-01 1.30923718e-01 4.03313264e-02 1.90417655e-02
      2.77752727e-02 9.16056857e-02 6.07221983e-02 3.08907449e-01
      1.11170024e-01 1.79313257e-01 1.90204054e-01 7.87842944e-02
      4.05714437e-02 5.89693151e-02 2.52224475e-01 9.38882530e-02
      3.08907449e-01 1.48362264e-01 2.11880550e-01 1.03571445e-01
      5.61917238e-02 4.48706001e-02 2.75041983e-02 2.53535420e-01
      1.90443262e-01 2.53535420e-01 1.33537859e-01 1.31836459e-01
      2.53535420e-01 2.05716059e-01 2.01251030e-01 1.80119485e-01
      2.53535420e-01 8.82302895e-02 2.00477481e-01 8.50886926e-02
      1.63856521e-01 2.53535420e-01 6.28171787e-02 5.52829616e-02
      2.09253225e-02 9.90635753e-02 4.75484803e-02 2.53535420e-01
      1.57152817e-01 2.53535420e-01 2.53535420e-01 1.66735142e-01
      2.05447063e-01 5.89705296e-02 7.28311092e-02 1.59511622e-02
      7.94380084e-02 6.25455007e-02 2.53535420e-01 1.69791058e-01
      1.03967562e-01 2.08462194e-01 2.53345072e-01 3.38235825e-01
      5.89827299e-02 5.97735681e-02 9.25467610e-02 1.41125664e-01
      5.21275178e-02 2.67419368e-02 1.56702802e-01 2.29196891e-01
      3.38235825e-01 1.95520923e-01 9.18582901e-02 9.94608998e-02
      1.18842423e-01 2.22937569e-01 8.79252478e-02 2.05886602e-01
      1.38643607e-01 3.38235825e-01 1.40240546e-02 1.06214229e-02
      1.98552031e-02 1.38151363e-01 1.16569633e-02 2.13531218e-02
      1.94217414e-01 1.60623401e-01 3.38235825e-01 3.71538326e-02
      1.35724451e-02 1.49677303e-02 1.61071569e-02 3.37984443e-01
      5.24938554e-02 4.80219610e-02 1.12424567e-02 7.02815652e-02
      2.10857741e-03 5.87692559e-02 2.04455648e-02 3.21304411e-01
      3.37984443e-01 1.11983478e-01 1.08847424e-01 1.82058401e-02
      4.94693518e-02 3.59444390e-03 1.01455130e-01 7.33700991e-02
      3.37984443e-01 3.37984443e-01 4.69630100e-02 4.63760085e-02
      1.21312104e-02 1.16054505e-01 0. 5.73592000e-02 9.99983121e-03
      3.37984443e-01 3.37984443e-01 7.29407966e-02 8.26129243e-02
      4.30565001e-03 8.28356389e-03 0. 4.40355726e-02 3.68590988e-02
      3.37984443e-01 3.32430929e-01 1.02240555e-01 8.48819762e-02
      1.24657415e-02 1.94172859e-02 1.64794084e-03 6.78879023e-02
      7.95717761e-02 3.32430929e-01 3.32430929e-01 8.53855908e-02
      6.69138581e-02 1.18166041e-02 1.14763811e-01 2.60220729e-02
      3.38145718e-02 5.09466752e-02 3.32430929e-01 3.32430929e-01
      7.26843625e-02 6.38865381e-02 7.41978036e-03 2.82397680e-03 0.
      2.60764323e-02 4.11633663e-02 3.32430929e-01 3.32430929e-01
      5.02348319e-02 7.56868348e-02 2.48557497e-02 1.77388906e-01
      2.54731961e-02 1.89095829e-02 2.86823083e-02 3.32430929e-01
      1.59521446e-01 1.80557929e-02 9.93654728e-02 6.11263923e-02
      4.39684480e-01 2.99760550e-02 3.14036906e-02 2.51558572e-02
      1.74407616e-01 5.69318933e-03 1.49672828e-03 1.23068102e-01
      8.46853778e-02 4.39684480e-01 5.94382314e-03 7.13961665e-03
      5.03372122e-03 1.11433621e-02 2.56090403e-01 7.01162824e-03
      1.13894999e-01 6.12601861e-02 4.39684480e-01 2.92597618e-02
      2.47574840e-02 1.29540544e-02 1.87962651e-01 1.62135661e-02
      2.74396443e-04 7.22343698e-02 4.99226414e-02 4.39684480e-01
      5.53133944e-03 5.57519449e-03 2.38936022e-03 6.95181824e-03</_>
    <_>
      2.17305329e-02 1.19353514e-02 1.46529153e-01 1.26891702e-01
      3.70809615e-01 2.57154647e-02 1.81807745e-02 6.71370933e-03
      9.36062820e-03 1.18476348e-02 0. 2.67413035e-02 4.85242866e-02
      3.70809615e-01 0. 0. 2.64125085e-03 1.18479421e-02 1.55902490e-01
      5.74924983e-02 2.19624132e-01 1.11517854e-01 3.70809615e-01
      8.38518217e-02 9.38633531e-02 1.04787514e-01 9.36435387e-02
      3.70809615e-01 5.91264032e-02 8.12382847e-02 8.96110460e-02
      3.45186472e-01 5.50060626e-03 0. 7.03191385e-02 3.70809615e-01
      2.43913587e-02 2.13930290e-03 1.20192557e-03 0. 0. 0. 0. 0.
      2.43913587e-02 1.00785688e-01 4.01391089e-02 5.94652705e-02
      2.05802321e-02 4.09090370e-01 2.35596113e-02 2.20938027e-02 0.
      1.00785688e-01 4.09090370e-01 7.02974126e-02 6.47106618e-02
      4.10803705e-02 3.26877385e-02 1.97837744e-02 4.76994639e-04
      4.29584470e-04 4.09090370e-01 4.09090370e-01 2.67615587e-01
      1.81336790e-01 1.01834618e-01 4.93657589e-02 3.35359611e-02
      8.62783939e-03 1.51199130e-02 4.09090370e-01 1.33961827e-01
      6.15078025e-02 1.20623641e-01 5.07926233e-02 3.75848293e-01
      3.21939141e-02 3.01909018e-02 0. 1.33961827e-01 1.07378371e-01
      5.63536398e-02 5.46649247e-02 2.74265185e-02 1.84103891e-01
