<?xml version="1.0"?>
<opencv_storage>
<opencv_ml_svm>
  <format>3</format>
  <svmType>C_SVC</svmType>
  <kernel>
    <type>LINEAR</type></kernel>
  <C>1.</C>
  <term_criteria><iterations>1000</iterations></term_criteria>
  <var_count>1188</var_count>
  <class_count>2</class_count>
  <class_labels type_id="opencv-matrix">
    <rows>2</rows>
    <cols>1</cols>
    <dt>i</dt>
    <data>
      0 1</data></class_labels>
  <sv_total>1</sv_total>
  <support_vectors>
    <_>
      -3.62468585e-02 4.56466945e-03 -4.25742455e-02 -6.25350000e-03
      4.27321158e-02 6.76290542e-02 6.30973801e-02 6.91319481e-02
      -2.43483316e-02 -9.88261029e-02 8.67261365e-03 -5.50341792e-02
      -4.26283926e-02 1.03123570e-02 6.88848719e-02 1.26661330e-01
      9.54233408e-02 -9.62406546e-02 5.66450022e-02 3.02255750e-02
      -1.16680004e-02 2.40966515e-03 -4.73907217e-03 -2.05929391e-02
      1.88482273e-02 4.94972803e-02 4.79896441e-02 5.69252484e-03
      2.45046746e-02 -3.18462402e-02 -6.52833283e-02 -6.76021501e-02
      -4.67118993e-02 2.95293368e-02 7.17330351e-02 1.85553487e-02
      -1.11441515e-01 -1.74476728e-02 -1.75075661e-02 -3.32189985e-02
      3.54654854e-03 1.94615368e-02 7.42099658e-02 4.59911637e-02
      -1.03433669e-01 -6.18760884e-02 2.01302028e-04 -1.14148494e-03
      1.69784408e-02 8.26432332e-02 3.38341407e-02 5.17809279e-02
      3.14706489e-02 -6.40727654e-02 -7.31343701e-02 -2.85675144e-03
      -9.13460739e-03 -5.34642749e-02 -7.70728737e-02 -2.15958264e-02
      3.66473682e-02 6.53267354e-02 -7.35928267e-02 -4.94115017e-02
      2.07346493e-05 -4.43590172e-02 -3.34875509e-02 -4.75893775e-03
      1.86281670e-02 3.24175991e-02 2.72781253e-02 -5.23096323e-02
      -6.84888288e-02 1.47329764e-02 1.26152448e-02 3.81195806e-02
      5.41429445e-02 -2.49598715e-02 -4.39826166e-03 6.62380876e-03
      -9.24994275e-02 -3.73384869e-03 2.22762600e-02 3.52499560e-02
      2.12620869e-02 -1.12468079e-01 -5.98135926e-02 9.46591049e-03
      3.72401141e-02 -1.25967907e-02 -2.16505434e-02 1.47777032e-02
      -1.85108446e-02 1.96795212e-03 -3.28276865e-02 -4.86580692e-02
      -4.27586958e-02 9.28734429e-03 -1.80031210e-02 9.36589614e-02
      1.08705312e-02 -1.14707230e-02 -4.60164947e-03 -1.07261658e-01
      -6.66444227e-02 7.25842174e-03 6.36995286e-02 7.94830173e-02
      4.37726565e-02 7.36602396e-02 3.68582197e-02 3.21991406e-02
      -6.99279085e-03 -8.39052349e-03 -3.39498394e-03 3.57707180e-02
      3.31990607e-02 -2.62641888e-02 4.99357693e-02 2.39578988e-02
      -2.58761402e-02 -3.37520061e-04 -5.34007661e-02 -2.64808331e-02
      4.84041609e-02 -4.66715433e-02 2.24740803e-02 7.36972541e-02
      2.82570533e-02 2.67205276e-02 -4.45020907e-02 -1.89633407e-02
      -1.50199216e-02 5.88856116e-02 1.81751493e-02 2.76186243e-02
      5.91643378e-02 5.30867204e-02 5.14290109e-02 3.30496579e-02
      -3.56334224e-02 -2.78664706e-03 4.53717560e-02 -9.14458372e-03
      -1.19915232e-01 1.90846734e-02 3.80600840e-02 7.11959926e-03
      5.85533492e-03 -3.94546725e-02 -1.04933875e-02 3.32544632e-02
      -1.43154860e-01 -1.21198468e-01 -2.62465850e-02 -9.83041991e-03
      1.89056527e-02 6.12980910e-02 -6.34786999e-03 5.12416242e-04
      6.25829957e-03 -1.42305389e-01 -7.08588958e-02 6.97080744e-03
      4.67159227e-02 6.10412322e-02 8.99687484e-02 -3.53016108e-02
      -3.01557854e-02 -2.40779892e-02 -1.09690554e-01 -2.78731361e-02
      2.55562924e-03 7.06360564e-02 1.36893660e-01 1.11473612e-01
      5.72873391e-02 4.84500714e-02 2.83156149e-02 -4.95718345e-02
      -6.27781078e-02 -1.96935534e-02 -2.45414563e-02 3.77954711e-04
      -3.63822281e-03 -1.76177900e-02 1.10210432e-02 3.83076519e-02
      -7.40299076e-02 6.00397550e-02 3.15046608e-02 6.15278899e-04
      -3.95603701e-02 -5.73001541e-02 -3.30693163e-02 -5.00486372e-03
      4.53520566e-02 7.84125775e-02 -8.83954018e-02 -6.06840141e-02
      -3.51892114e-02 1.14803631e-02 5.41771874e-02 7.14561716e-02
      9.24300924e-02 7.74098486e-02 -7.20085576e-02 -4.00186218e-02
      -4.67166230e-02 -9.00834948e-02 -8.25236961e-02 -1.63511131e-02
      -4.87814005e-03 1.61997862e-02 4.52013351e-02 -1.10732727e-02
      -7.47293234e-03 5.95455877e-02 3.06344964e-02 5.24626160e-03
      -1.33121181e-02 -3.77368159e-03 -1.30094830e-02 5.23021370e-02
      -2.39606444e-02 2.16128007e-02 6.13740124e-02 4.40215655e-02
      4.91185598e-02 4.45360653e-02 6.37723971e-03 -1.54592469e-02
      3.66912037e-02 2.34088860e-02 -5.67101985e-02 4.28711399e-02
      1.13129001e-02 -1.76809132e-02 -4.39960957e-02 -1.34850387e-02
      -7.67125338e-02 -1.43405572e-02 -6.54767826e-02 -1.19618038e-02
      4.00383584e-02 1.84844881e-02 1.37360664e-02 2.31099855e-02
      -5.36504947e-02 -8.88203681e-02 -1.66968741e-02 -2.80780848e-02
      -1.31096110e-01 1.91881973e-02 4.26249206e-02 4.00704220e-02
      7.85002485e-02 -7.87939003e-04 -2.81694215e-02 -4.92690951e-02
      -1.53077453e-01 -1.01436198e-01 8.30790028e-03 5.12782447e-02
      8.56260136e-02 1.24831274e-01 8.69582966e-02 7.67495558e-02
      2.62851734e-02 -8.60500187e-02 -1.06933504e-01 8.08945000e-02
      6.72138929e-02 1.20796468e-02 5.44444844e-02 -3.61589119e-02
      -5.44850193e-02 -5.14059961e-02 -1.14024989e-01 -1.01057850e-01
      6.61875457e-02 7.42638260e-02 6.89909533e-02 8.83431882e-02
      5.68098724e-02 3.68689895e-02 -2.31170859e-02 -8.78362507e-02
      -9.67176482e-02 -1.35660507e-02 1.37560954e-02 2.80984640e-02
      1.25766382e-01 1.08882591e-01 1.09946370e-01 7.97132850e-02
      -5.54613322e-02 -8.08176175e-02 -4.31474224e-02 -7.96877891e-02
      -7.25860819e-02 -2.69396678e-02 1.10673634e-02 -1.09015098e-02
      4.99699730e-03 -3.59397754e-02 -7.49390274e-02 5.26400469e-02
      4.02047448e-02 5.53118400e-02 1.26414046e-01 4.72046323e-02
      1.88662894e-02 -1.22311562e-02 -5.49305901e-02 -3.23989354e-02
      -2.11820891e-03 -3.35251652e-02 -2.01201569e-02 -2.88937446e-02
      -6.45543858e-02 -6.20153435e-02 -3.55299488e-02 -4.09463942e-02
      8.84876135e-05 4.17254008e-02 9.28844383e-06 -7.68074859e-03
      -4.79706451e-02 -3.16967331e-02 -5.47925457e-02 2.16163639e-02
      3.56930238e-03 -7.10271951e-03 3.31907906e-02 -3.19185108e-02
      2.20653955e-02 -2.07724422e-02 -7.70926848e-02 -6.48624152e-02
      1.45375207e-02 -1.90455802e-02 -1.34092234e-02 1.20947314e-02
      -7.84981549e-02 -4.82671186e-02 -9.08054784e-02 -1.58538502e-02
      -1.95880774e-02 4.77208570e-02 1.71150994e-02 -7.84717500e-03
      -3.68365757e-02 -1.38234198e-01 -3.05580199e-02 3.98619585e-02
      -1.55113218e-02 -3.04793380e-02 8.28117207e-02 -5.02878334e-03
      -5.95660359e-02 4.53310683e-02 1.05398707e-02 1.55251636e-03
      -5.38439266e-02 -6.61152601e-02 -3.88196446e-02 -1.35058351e-02
      -7.27055967e-02 -5.00019230e-02 4.14073728e-02 2.19328925e-02
      2.64682490e-02 6.85017481e-02 -1.39268171e-02 3.08203255e-03
      3.60213593e-03 -6.11018501e-02 -7.19574988e-02 -4.23718132e-02
      -7.61449561e-02 2.03389637e-02 2.71409918e-02 -5.43047907e-03
      -4.68466105e-03 5.97449206e-02 -7.35885501e-02 -7.80932233e-02
      -1.74372587e-02 -3.85319628e-02 2.73275021e-02 6.32759407e-02
      -2.67012976e-02 -1.39253950e-02 4.24164124e-02 -4.95688543e-02
      -6.24364167e-02 6.40629530e-02 4.13170010e-02 5.19157872e-02
      8.99579749e-02 -1.07465275e-02 -2.01545283e-02 -3.40394792e-03
      -8.82518813e-02 7.16400519e-02 8.11459273e-02 2.36997679e-02
      1.42211597e-02 -6.72459900e-02 -4.36392054e-02 -3.52997333e-02
      4.86621447e-03 3.76818590e-02 -6.58739880e-02 2.16286462e-02
      -1.61626320e-02 2.71499250e-02 -1.60660706e-02 -2.56587360e-02
      -3.94609012e-02 1.68437120e-02 -7.21003264e-02 6.38214424e-02
      3.43772657e-02 -2.89816838e-02 -2.56036483e-02 -1.05649255e-01
      3.80876940e-03 -9.94509552e-03 3.71525325e-02 8.27947333e-02
      -3.23099010e-02 -1.90074965e-02 -7.88114294e-02 -6.32010326e-02
      -4.66592610e-02 3.75504903e-02 1.33941211e-02 5.04402630e-02
      -1.45424427e-02 -9.50184911e-02 -5.99776804e-02 -1.22685686e-01
      -5.59335202e-02 4.86196652e-02 3.99366654e-02 2.61914320e-02
      8.50364417e-02 -4.87000905e-02 -2.02516131e-02 1.05751129e-02
      -5.84258744e-03 -2.57585160e-02 -1.41726471e-02 9.14978012e-02
      3.72183807e-02 2.25891434e-02 -3.33806686e-02 -4.96136174e-02
      -2.82086758e-03 6.65749423e-03 3.05177886e-02 1.27879102e-02
      8.72317478e-02 2.33645290e-02 7.57785663e-02 -2.27974989e-02
      -8.80613774e-02 -3.78685482e-02 -5.61391972e-02 1.08592678e-02
      4.89950515e-02 1.14862742e-02 1.17974402e-02 6.34727702e-02
      -6.15737215e-02 -5.05188219e-02 -1.12958900e-04 -8.52155313e-03
      5.07002436e-02 9.30522755e-02 -1.01339230e-02 -7.16240704e-03
      5.00665456e-02 -4.57267575e-02 -4.87915054e-02 -9.50973295e-03
      9.62900463e-03 4.76854928e-02 2.14485284e-02 6.15143124e-03
      1.19291409e-03 4.03012969e-02 -2.05732808e-02 -6.59056455e-02
      1.36570530e-02 -8.29388574e-03 7.73539767e-02 7.05538392e-02
      3.21692713e-02 4.23483644e-03 3.20365243e-02 -4.93678413e-02
      -2.28621364e-02 -4.95397020e-03 -3.33565772e-02 2.57398244e-02
      2.34842133e-02 -9.21551231e-03 -5.56208640e-02 1.91220362e-02
      8.02557170e-03 8.85163397e-02 2.54994200e-04 -4.73198332e-02
      -4.40425090e-02 -1.01833954e-01 -2.65538581e-02 -2.72603147e-02
      2.30145697e-02 1.15096003e-01 -3.30060087e-02 3.23737636e-02
      7.16434978e-03 4.86431643e-02 9.09782946e-02 4.12492640e-02
      -4.59674411e-02 2.77137216e-02 -2.07377970e-02 7.03221485e-02
      2.40982156e-02 1.06013659e-03 -9.85372718e-03 -7.51325339e-02
      -5.44053279e-02 -7.86045492e-02 -4.83534997e-03 7.78428316e-02
      5.99359442e-03 3.96346599e-02 -1.07259228e-04 -1.24274995e-02
      -8.26810747e-02 3.21938694e-02 9.11565591e-03 3.02888523e-03
      2.18359358e-03 -2.01871265e-02 -8.73975572e-04 -1.40880456e-03
      1.21706026e-02 -5.81735931e-03 3.42340618e-02 3.92066874e-03
      3.75653952e-02 -3.74329537e-02 1.42410491e-02 9.12366658e-02
      6.22697584e-02 3.87196094e-02 -1.21185847e-01 -2.21548071e-05
      -3.21047120e-02 6.87781256e-03 1.00825028e-02 3.23268818e-03
      3.18405554e-02 2.65813340e-02 8.07577819e-02 -3.46347950e-02
      -1.07134171e-02 -6.01595640e-02 1.87927000e-02 -3.12289484e-02
      -1.98712442e-02 7.18316622e-03 1.08029023e-02 2.47510709e-02
      7.76092857e-02 1.39435576e-02 -2.68478622e-03 4.17951457e-02
      -2.47206483e-02 -9.27800611e-02 -2.38308380e-03 -5.80725521e-02
      5.37004843e-02 1.66264728e-01 5.94446473e-02 3.77210081e-02
      6.10412881e-02 -6.34915903e-02 -2.80827880e-02 -3.54711036e-03
      1.19326962e-02 4.71083671e-02 5.07942066e-02 -2.13976670e-03
      -4.28288728e-02 1.74494032e-02 -4.48430218e-02 -9.14912000e-02
      -1.67093836e-02 -5.82351796e-02 4.77344878e-02 1.19867824e-01
      3.84004265e-02 -2.12661698e-02 3.27492617e-02 -7.72798881e-02
      -4.75215502e-02 3.95168327e-02 -2.68417015e-03 6.75874576e-02
      7.20998719e-02 5.63459285e-02 -7.42427027e-03 4.54450399e-02
      -5.85496388e-02 5.14074378e-02 4.08550128e-02 2.57017631e-02
      2.31121425e-02 -7.45396167e-02 -9.29472037e-03 -3.96124125e-02
      9.09628626e-03 2.12115627e-02 -9.12451819e-02 1.05742933e-02
      -7.11697340e-02 1.45845702e-02 3.43662202e-02 5.09799346e-02
      1.39860399e-02 8.37098286e-02 -7.98991919e-02 6.53667897e-02
      -4.91582602e-03 -7.76965320e-02 -7.01386631e-02 -7.86792487e-02
      3.27397250e-02 4.18569371e-02 9.08453688e-02 9.73749086e-02
      5.21650072e-03 9.70202126e-03 1.37490602e-02 -7.18251662e-03
      -4.77886274e-02 2.31579226e-02 -6.96077128e-04 3.38413141e-04
      -1.37757277e-02 -1.52300559e-02 5.07864263e-03 2.32393369e-02
      5.80360517e-02 -1.08392658e-02 5.06044328e-02 -3.68485525e-02
      1.84231102e-02 -3.79354768e-02 -3.39939035e-02 -7.41952434e-02
      -6.49298877e-02 -7.79405311e-02 -8.32158849e-02 2.66077481e-02
      6.99125081e-02 2.72725578e-02 -2.97935773e-02 -5.98042160e-02
      -2.31690779e-02 -1.08201690e-02 -1.00420620e-02 -4.22532968e-02
      8.17293897e-02 3.56157236e-02 5.53330071e-02 -5.13070226e-02
      -2.28283089e-02 -2.24700365e-02 -6.19378546e-03 5.28537370e-02
      3.09405401e-02 1.39340321e-02 -8.07544068e-02 -7.70362653e-03
      -2.82940492e-02 -7.76609331e-02 -4.72708233e-02 -8.33991319e-02
      6.53391751e-03 9.83004645e-02 3.04022692e-02 -2.29430459e-02
      6.13190560e-03 -6.18913136e-02 -2.15010978e-02 5.27206226e-04
      -1.13848951e-02 4.08114530e-02 1.21525014e-02 6.41872287e-02
      2.59138830e-02 7.90714547e-02 1.45150558e-03 -3.59997228e-02
      -3.94036770e-02 -7.08048046e-02 5.32860961e-03 9.50003490e-02
      4.23963964e-02 1.16668886e-03 2.85080355e-02 -3.25288512e-02
      -1.01425648e-01 -2.63915174e-02 -1.06800079e-01 -1.69599131e-02
      1.25636533e-01 6.35719225e-02 7.90568218e-02 6.79423735e-02
      -5.66162802e-02 5.09294458e-02 -1.32067520e-02 -8.54009688e-02
      -4.61314805e-02 -8.05347860e-02 3.18764262e-02 6.72420561e-02
      7.21094683e-02 9.80303958e-02 -1.91397108e-02 -2.36883331e-02
      -6.08164258e-02 1.82903390e-02 7.14123026e-02 -2.37996550e-03
      -3.25393863e-02 -1.61871687e-02 -4.94242497e-02 7.03205615e-02
      5.14122881e-02 1.10117448e-02 2.43101120e-02 -5.83922379e-02
      -3.57285142e-02 -2.89863870e-02 5.33880340e-03 7.41473511e-02
      2.03828700e-03 2.84267552e-02 5.02202753e-03 -3.32908332e-02
      -1.11422613e-01 -2.13301126e-02 -2.49870145e-03 1.25040747e-02
      -3.20088118e-03 -1.48750637e-02 2.75863316e-02 6.26675552e-03
      -4.93949931e-03 -5.90795614e-02 1.78550314e-02 -5.74677531e-03
      6.26450628e-02 2.14694906e-02 -4.96469662e-02 3.08159441e-02
      3.04048322e-02 2.07143556e-02 -4.63257171e-02 -3.71562466e-02
      -9.21574309e-02 -5.05802929e-02 -5.50047420e-02 -1.62995271e-02
      -2.93554785e-03 -6.83945930e-03 5.58300652e-02 3.58377807e-02
      -5.51526025e-02 -9.14148018e-02 1.59841366e-02 7.05709588e-03
      4.42975797e-02 -7.24693015e-03 -4.33700159e-02 -2.35895836e-03
      4.54074480e-02 2.59843972e-02 2.89361384e-02 8.88048634e-02
      7.00667500e-02 -3.47309709e-02 -5.01667783e-02 -8.64216760e-02
      9.96055547e-03 8.56396183e-02 3.07142325e-02 1.82824731e-02
      4.57154103e-02 -1.65591985e-02 -2.14825403e-02 -6.32808730e-02
      -5.96636645e-02 3.71008017e-03 1.03384279e-01 -4.51192334e-02
      -2.86250319e-02 4.32343222e-02 -9.28200316e-03 -8.91239122e-02
      -7.18513504e-02 -1.12952858e-01 5.08898264e-03 1.32632539e-01
      1.07284971e-02 -2.13257642e-03 4.89163734e-02 -6.08495697e-02
      1.70092527e-02 -6.80880575e-03 -6.16627224e-02 2.02028714e-02
      2.82828393e-03 1.03969290e-03 -1.10898530e-02 2.46700719e-02
      1.73402764e-02 9.82849225e-02 6.32400140e-02 4.67637228e-03
      -1.04086464e-02 -9.71897915e-02 -4.07141894e-02 -1.80880819e-02
      3.21909823e-02 9.63189155e-02 -9.36833471e-02 -3.25842388e-02
      -1.40307829e-01 -3.47799398e-02 -1.12500545e-02 4.64141443e-02
      7.11056888e-02 1.15436107e-01 -5.02131991e-02 1.82525571e-02
      9.33431089e-03 -1.39265954e-01 -1.57212660e-01 -9.16269943e-02
      4.64702258e-03 5.05933091e-02 1.12854302e-01 5.29674441e-02
      -5.90347089e-02 2.29344387e-02 1.32546825e-02 1.25725009e-02
      -1.20196147e-02 -5.35068214e-02 -8.15890655e-02 -3.39105129e-02
      -4.82673086e-02 -7.26875290e-02 1.41696380e-02 1.17570749e-02
      7.69768134e-02 8.50628316e-02 -3.26987430e-02 -7.63499737e-02
      -7.09816162e-03 -5.61875738e-02 1.62804052e-02 -2.32907217e-02
      -5.55441007e-02 -3.43523212e-02 -7.52513856e-02 -4.55801748e-02
      -9.15888473e-02 3.28475758e-02 6.49853051e-02 -1.25077693e-02
      -1.49256922e-02 -5.80677539e-02 4.13153842e-02 1.81133281e-02
      9.96053405e-03 1.10972961e-02 2.54712049e-02 -1.16853730e-03
      -6.65096045e-02 1.82817522e-02 1.41919050e-02 6.30228892e-02
      1.30508229e-01 -2.75377501e-02 -2.60128733e-02 7.50318216e-03
      -5.54269366e-02 -8.39869305e-02 -1.54867992e-02 -3.14597674e-02
      3.65763642e-02 1.88276902e-01 -5.49847260e-03 -4.68322039e-02
      9.30068549e-04 -7.52505511e-02 -7.84531310e-02 4.44518897e-04
      -3.90306022e-03 5.69342338e-02 8.44622627e-02 1.63255520e-02
      1.05518131e-02 -2.00998764e-02 -5.61304539e-02 -8.37388933e-02
      4.98863542e-03 5.68660423e-02 6.48285747e-02 1.29543528e-01
      -6.49087643e-03 -6.21565133e-02 -5.38981594e-02 -9.03251320e-02
      -1.11837238e-01 -2.43514758e-02 -7.58995265e-02 -4.26978879e-02
      5.50531819e-02 5.69376815e-03 2.47022901e-02 5.74979372e-02
      -9.54070985e-02 -1.92682501e-02 1.34901311e-02 -9.16709974e-02
      -1.37300968e-01 4.55487194e-03 1.21793486e-02 3.16108391e-02
      7.97398761e-02 3.17276618e-03 -1.69671383e-02 1.29898926e-02
      1.59542672e-02 -8.66901875e-03 1.11730605e-01 -1.05226869e-02
      -8.18599164e-02 -1.46245435e-02 -2.73893345e-02 1.76495519e-02
      3.84895541e-02 -1.22729605e-02 -7.18424171e-02 -2.19287351e-02
      -2.49351505e-02 -3.53735797e-02 -4.77015646e-03 -3.81565536e-03
      -9.37382039e-03 -8.37986171e-03 -3.93346250e-02 -1.74200777e-02
      -1.24483682e-01 -1.30288377e-02 -4.08351347e-02 1.16728162e-02
      2.78200395e-02 -6.52793038e-04 -9.10873525e-03 -2.83023790e-02
      1.97261944e-02 -2.34397724e-02 3.68643142e-02 1.60214806e-03
      4.79003834e-03 5.49011724e-03 2.22245120e-02 2.17533279e-02
      -6.69477880e-02 -1.50260767e-02 -6.04013726e-02 6.21698312e-02
      3.70230004e-02 5.67544252e-02 3.73067446e-02 5.83601417e-03
      2.90505160e-02 1.98646877e-02 5.69907166e-02 5.27125560e-02
      4.03086357e-02 7.41645601e-03 5.44348434e-02 2.10930333e-02
      -3.15533020e-02 -3.11525315e-02 -4.57764119e-02 2.49774531e-02
      5.47473803e-02 2.70009488e-02 -2.06972156e-02 -2.12629847e-02
      -3.27865295e-02 -3.13877165e-02 -5.81341945e-02 -5.27072065e-02
      3.05715483e-02 5.78470714e-02 1.07842702e-02 -4.13915589e-02
      -7.18160346e-03 -2.96919532e-02 4.05133702e-02 1.50448931e-02
      2.10880674e-03 7.05679208e-02 1.04585074e-01 1.17713381e-02
      -9.46977641e-03 5.01081795e-02 4.29484919e-02 -2.18671896e-02
      -4.95620072e-02 -1.17277667e-01 1.31552136e-02 9.87521559e-02
      -1.35985464e-02 -3.43766958e-02 4.66576703e-02 -8.13641585e-03
      -2.10026018e-02 -2.00046692e-02 -3.86034474e-02 -1.15138781e-03
      9.81779099e-02 8.12664255e-03 -3.35694179e-02 4.19073030e-02
      7.01176608e-03 4.28604446e-02 -2.26708988e-04 -3.21558416e-02
      -4.34435569e-02 -1.00117669e-01 -1.16708241e-02 -1.54012656e-02
      3.95960025e-02 5.35665303e-02 -1.96631234e-02 -3.73908840e-02
      -1.10665955e-01 -1.41899446e-02 1.01728380e-01 -2.97308434e-03
      -2.14614365e-02 6.77974820e-02 3.66661809e-02 2.74703857e-02
      2.66686175e-02 -6.75797909e-02 -4.63817455e-02 -4.75870222e-02
      -3.83045413e-02 -5.10417484e-03 9.78672281e-02 5.47638573e-02
      6.77961707e-02 2.41261418e-03 -8.98448303e-02 -5.58786243e-02
      -4.44338545e-02 2.30224002e-02 4.16307114e-02 6.62559569e-02
      7.69589916e-02 6.76590353e-02 -2.09732279e-02 -2.93234643e-02
      1.87756922e-02 3.31904665e-02 -2.71351524e-02 -1.19772311e-02
      6.26664013e-02 7.59001523e-02 -1.98923703e-02 2.57475562e-02
      -4.29749861e-02 -2.73237415e-02 -2.27299705e-02 -1.24309607e-01
      -1.16206393e-01 -2.89879069e-02 -4.56243679e-02 -8.54234919e-02
      -5.23915924e-02 -4.17439528e-02 1.00392448e-02 6.20450415e-02
      -8.95454660e-02 -5.66273592e-02 1.15372743e-02 -7.83626139e-02
      6.17457703e-02 1.15746688e-02 -2.07445137e-02 4.55202572e-02
      6.84896708e-02 -5.70262000e-02 -6.54684976e-02 4.36700061e-02
      5.89935854e-02 -5.32821007e-02 -2.86057834e-02 -6.54545054e-02
      2.52826307e-02 8.55221227e-02 -1.69345979e-02 -7.56817963e-03
      2.03283243e-02 -3.31903696e-02 -9.15898681e-02 -4.86516468e-02
      -5.12360223e-02 2.85783429e-02 1.44121349e-01 -3.24888267e-02
      -3.11824214e-02 3.05105355e-02 -9.00262669e-02 -1.19041473e-01
      -1.39622092e-02 -1.65937673e-02 3.51579376e-02 1.13093890e-01
      3.38232354e-03 -3.43775786e-02 -2.99061853e-02 -1.42088220e-01
      -7.28816465e-02 -3.95590439e-02 -9.33431312e-02 -2.25083306e-02
      6.76585808e-02 -2.49973382e-03 -3.60718439e-03 3.10556777e-02
      -4.43226583e-02 2.21319050e-02 3.84621210e-02 -4.89454679e-02
      -2.69822236e-02 -3.05736922e-02 -2.82304585e-02 -1.41078057e-02
      7.29517490e-02 6.06286339e-02 -1.30278632e-01 -4.51007113e-02
      -5.52159622e-02 -2.16050539e-02 5.20219505e-02 3.12999710e-02
      3.08858436e-02 9.52837523e-03 -9.85320285e-02 -7.71448994e-03
      1.87312867e-02 -2.12224349e-02 1.36292921e-02 2.27167476e-02
      5.27664237e-02 9.01319981e-02 8.23828354e-02 6.27038926e-02</_></support_vectors>
  <uncompressed_sv_total>58</uncompressed_sv_total>
  <uncompressed_support_vectors>
    <_>
      6.20205514e-02 1.24620862e-01 1.08628750e-01 7.70568848e-02
      1.12578578e-01 1.82941812e-03 0. 0. 2.33724732e-02 2.71380812e-01
      2.71380812e-01 2.71380812e-01 1.32272214e-01 2.71380812e-01
      7.72082210e-02 6.69214353e-02 6.54970929e-02 1.79083019e-01
      8.87226462e-02 1.44113183e-01 1.31248310e-01 1.47170156e-01
      2.71380812e-01 8.48470703e-02 5.72599880e-02 4.34873924e-02
      1.06936045e-01 2.71380812e-01 2.71380812e-01 2.71380812e-01
      1.82780594e-01 2.71380812e-01 9.57852229e-02 7.49724284e-02
      8.15098137e-02 2.71380812e-01 3.15001220e-01 8.99013653e-02
      7.44425431e-02 3.07734162e-02 1.50634795e-01 1.14542909e-01
      1.53198630e-01 1.37901813e-01 3.15001220e-01 3.15001220e-01
      5.88915721e-02 6.80938810e-02 3.70620973e-02 1.75370555e-02
      7.23636299e-02 1.42616242e-01 9.97558683e-02 3.15001220e-01
      3.15001220e-01 7.14770257e-02 7.80195296e-02 2.46718805e-02
      2.41468716e-02 5.40830567e-02 1.00925386e-01 8.01493898e-02
      3.15001220e-01 3.15001220e-01 1.36496304e-02 1.50681147e-02
      9.12475958e-03 3.03182788e-02 7.19934106e-02 1.27409890e-01
      1.00547224e-01 3.15001220e-01 2.93590724e-01 8.66519660e-02
      8.15225765e-02 3.99190001e-02 1.55283380e-02 2.11013276e-02
      9.62627754e-02 7.52270818e-02 2.93590724e-01 2.93590724e-01
      8.83118659e-02 7.19663277e-02 8.93706381e-02 1.34438038e-01
      3.79778780e-02 1.77242294e-01 1.52380571e-01 2.93590724e-01
      2.93590724e-01 1.06820986e-02 8.21529701e-03 8.82675033e-03
      2.33342424e-02 2.69129295e-02 6.48964420e-02 6.23274893e-02
      2.93590724e-01 2.54750460e-01 8.85278061e-02 4.85035889e-02
      7.95779228e-02 1.01196520e-01 8.81979987e-02 2.85842270e-01
      2.76498944e-01 2.93590724e-01 1.45344034e-01 3.61025780e-02
      4.14775237e-02 4.29910347e-02 2.41655260e-01 6.33125305e-02
      9.12651196e-02 6.82233721e-02 2.23021850e-01 2.80046940e-01
      3.11048012e-02 3.90256569e-02 3.78883369e-02 1.86614200e-01
      7.05536827e-02 9.76802781e-02 9.02959779e-02 2.80046940e-01
      2.19306737e-01 5.07503413e-02 8.93596336e-02 9.47191641e-02
      2.80046940e-01 1.18740492e-01 2.10386068e-01 1.54242918e-01
      2.80046940e-01 2.80046940e-01 1.18841203e-02 3.53942029e-02
      3.96038927e-02 1.59819037e-01 9.48084593e-02 2.68342912e-01
      2.34123096e-01 2.80046940e-01 2.75581092e-01 3.49405371e-02
      6.73249960e-02 4.89197262e-02 1.74738348e-01 4.34586704e-02
      2.99320873e-02 3.23828310e-02 2.75581092e-01 2.75581092e-01
      5.50751239e-02 6.01023287e-02 5.27446494e-02 1.94698378e-01
      1.25703007e-01 8.03796500e-02 9.64180678e-02 2.75581092e-01
      2.75581092e-01 2.85885241e-02 8.70908201e-02 1.16179079e-01
      2.75581092e-01 7.87612051e-02 1.16613455e-01 1.51017874e-01
      2.75581092e-01 2.30959743e-01 7.33251944e-02 8.41634870e-02
      1.16856247e-01 2.75581092e-01 1.54436365e-01 8.31561163e-02
      1.32676840e-01 2.75581092e-01 1.43694207e-01 3.83493640e-02
      2.72205826e-02 5.00597805e-02 2.24286363e-01 1.07125647e-01
      8.32157135e-02 1.07994922e-01 2.32257545e-01 1.25841156e-01
      2.33947337e-01 1.17743969e-01 2.35476568e-01 3.86466950e-01
      6.20710962e-02 1.44062340e-01 1.67005807e-01 9.34522226e-02
      1.44768879e-01 6.66856766e-02 3.45229208e-02 6.27982989e-02
      3.86466950e-01 1.46034256e-01 6.95873648e-02 1.14253715e-01
      2.13333577e-01 4.64379899e-02 7.63316080e-02 3.49945240e-02
      9.50683579e-02 3.86466950e-01 1.42815799e-01 1.34351090e-01
      1.12787470e-01 5.09239510e-02 1.02001719e-01 1.31552098e-02
      3.41644846e-02 5.17301522e-02 3.17168772e-01 1.73933700e-01
      2.12857515e-01 2.14565888e-01 1.91830426e-01 1.69749141e-01
      3.35507630e-03 1.72355492e-02 2.42580753e-02 3.17168772e-01
      1.21759668e-01 2.27102563e-01 2.42277101e-01 3.17168772e-01
      1.80576757e-01 1.53926546e-02 3.42126861e-02 5.51019870e-02
      3.17168772e-01 8.49458352e-02 8.89071599e-02 1.51614994e-01
      2.74867475e-01 2.21982952e-02 3.44175845e-03 1.19084157e-02
      2.32413188e-02 3.17168772e-01 6.41039461e-02 5.14768399e-02
      6.97693005e-02 5.19229844e-02 1.28179029e-01 1.93622541e-02
      4.00473326e-02 6.82782754e-02 3.33436608e-01 8.14412758e-02
      1.27871037e-01 1.55853376e-01 2.81227887e-01 2.14048609e-01
      4.40265089e-02 5.22942394e-02 6.74738809e-02 3.33436608e-01
      1.34470657e-01 6.77514225e-02 1.40290365e-01 3.21432889e-01
      3.76897231e-02 1.27057517e-02 1.46414191e-02 2.11275686e-02
      3.33436608e-01 8.45758319e-02 9.53197107e-02 9.19911861e-02
      8.39992389e-02 1.31731480e-01 2.55873371e-02 4.59515005e-02
      5.23981750e-02 3.33436608e-01 1.65495068e-01 1.78216547e-01
      2.05680370e-01 2.08519086e-01 1.25870034e-01 2.39760131e-02
      1.70846246e-02 1.66839696e-02 3.40263307e-01 1.53045535e-01
      6.43486232e-02 1.07068047e-01 2.06231445e-01 2.49265675e-02
      2.28396594e-03 1.64991338e-03 2.57895701e-03 3.40263307e-01
      2.43133292e-01 2.23016709e-01 2.28946596e-01 8.63078833e-02
      1.21400490e-01 2.70575471e-02 4.06100117e-02 3.70077640e-02
      3.40263307e-01 1.56163961e-01 9.98108834e-02 1.33652285e-01
      1.63682774e-01 1.71024188e-01 9.86468866e-02 7.71474913e-02
      2.14371439e-02 3.40263307e-01 1.74679726e-01 1.57681569e-01
      1.78920358e-01 1.87912375e-01 3.02352101e-01 1.62248969e-01
      1.64136916e-01 1.84494674e-01 3.02352101e-01 4.62563485e-02
      4.43665273e-02 1.14344031e-01 3.02352101e-01 2.21877228e-02
      5.79621233e-02 5.58127314e-02 8.58287811e-02 3.02352101e-01
      1.79405715e-02 8.99218768e-03 1.88413337e-02 1.07603585e-02
      2.21997395e-01 3.02352101e-01 2.64134496e-01 3.02352101e-01
      3.02352101e-01 1.06745418e-02 1.48051539e-02 3.24638113e-02
      1.40195176e-01 4.83766571e-02 1.11145541e-01 8.05139020e-02
      1.16227932e-01 2.50091165e-01 2.81452853e-03 2.13207095e-03
      3.15645570e-03 4.78554796e-03 8.97122640e-03 1.82242566e-05
      2.60456279e-03 4.85427817e-03 3.23314279e-01 8.15061703e-02
      9.74737480e-02 1.01531267e-01 4.51960675e-02 1.04442559e-01 0.
      3.86378840e-02 4.14046980e-02 3.23314279e-01 2.45633811e-01
      2.72066981e-01 3.01397026e-01 2.28193700e-01 3.08650434e-02
      3.35780019e-03 4.37946105e-03 3.80843785e-03 1.59918651e-01
      3.72918174e-02 2.51360014e-02 2.68947408e-02 2.90296469e-02
      1.14433765e-01 3.82208056e-03 3.03301010e-02 2.22374424e-02
      3.23314279e-01 2.85454839e-01 2.72293448e-01 3.23314279e-01
      2.41531834e-01 2.25073352e-01 3.77764478e-02 5.00051379e-02
      3.19428407e-02 2.58465648e-01 1.19046338e-01 9.50427800e-02
      1.37544453e-01 2.58465648e-01 2.58465648e-01 1.86287463e-01
      1.17606297e-01 2.85129286e-02 9.20938700e-02 4.49911170e-02
      8.38302821e-02 1.43218845e-01 2.58465648e-01 2.30128214e-01
      2.71636695e-02 3.34987007e-02 2.62124445e-02 2.58465648e-01
      1.85992420e-01 2.53854930e-01 2.58465648e-01 2.58465648e-01
      2.58465648e-01 1.11031063e-01 4.41833772e-02 1.78169105e-02
      4.60357554e-02 5.85604385e-02 1.05810091e-01 1.58655480e-01
      2.58465648e-01 1.22716308e-01 3.43952954e-01 2.56563812e-01
      3.43952954e-01 3.43952954e-01 4.90187854e-03 4.15553153e-03
      7.52656069e-03 3.89204584e-02 1.08560733e-01 9.59898382e-02
      9.14119259e-02 1.37564048e-01 2.22070768e-01 0. 1.01140846e-04
      5.01770701e-04 3.03128716e-02 3.95050049e-02 1.04870230e-01
      5.57375029e-02 9.58806351e-02 3.43952954e-01 1.98897153e-01
      1.92716539e-01 2.57510066e-01 7.99984410e-02 9.17462632e-02
      5.61502613e-02 7.74658173e-02 1.32191360e-01 3.43952954e-01
      9.07477140e-02 4.46867011e-02 5.29347919e-02 4.10510115e-02
      2.51583010e-01 5.18419482e-02 5.03567941e-02 5.60773015e-02
      1.23220608e-01 1.07377162e-02 7.90922344e-03 7.29129603e-03
      1.63930029e-01 3.20620954e-01 4.19807024e-02 2.29737908e-02
      2.71948166e-02 1.32356465e-01 1.04714133e-01 1.85085118e-01
      2.27612212e-01 3.20620954e-01 3.02615494e-01 7.62474388e-02
      7.86859468e-02 1.10699117e-01 3.20620954e-01 6.94415197e-02
      6.45563826e-02 8.06724131e-02 2.17857376e-01 3.20620954e-01
      5.88308722e-02 2.97292117e-02 3.66550684e-02 2.33787701e-01
      3.23445983e-02 7.41250664e-02 7.48342201e-02 3.20620954e-01
      2.64660150e-01 7.17120469e-02 2.89408211e-02 5.12937717e-02
      1.11105092e-01 1.23369634e-01 2.38976002e-01 2.64660150e-01
      2.64660150e-01 2.64660150e-01 1.38366982e-01 6.30500019e-02
      8.33812356e-02 1.57261834e-01 8.42032209e-02 1.16695367e-01
      1.15058191e-01 2.16711432e-01 2.64660150e-01 7.60955289e-02
      2.74255667e-02 4.89240736e-02 2.48475164e-01 4.02273536e-02
      6.27117306e-02 5.87322935e-02 2.64660150e-01 2.64660150e-01
      1.81847140e-01 1.27465412e-01 1.76285863e-01 2.64660150e-01
      7.91125074e-02 7.46599957e-02 6.49334639e-02 1.78541437e-01
      3.23465541e-02 3.59714217e-02 5.45196533e-02 6.41005635e-02
      3.55224282e-01 2.33987540e-01 2.25131124e-01 2.51651943e-01
      8.44500065e-02 1.29220001e-02 6.38475502e-03 1.22713400e-02
      3.25469822e-02 3.55224282e-01 1.48442015e-01 1.07573137e-01
      1.16133735e-01 3.87794524e-02 1.30727500e-01 3.08014452e-01
      2.67759562e-01 2.76654869e-01 3.55224282e-01 8.39963481e-02
      6.39779717e-02 6.02065325e-02 9.67299417e-02 7.65906572e-02
      3.28395553e-02 2.67254096e-02 6.27477095e-02 2.59608924e-01
      5.20968735e-02 7.48714730e-02 7.82449171e-02 6.93225190e-02
      5.21041416e-02 1.14228586e-02 1.27079505e-02 2.16303486e-02
      2.56859481e-01 1.45830005e-01 2.36679181e-01 2.53483534e-01
      1.15763471e-01 1.28301308e-01 8.50809272e-03 4.76931501e-03
      6.47627888e-03 2.33213663e-01 1.30086333e-01 2.56859481e-01
      2.56859481e-01 2.02086955e-01 1.38151407e-01 2.67938413e-02
      2.12220978e-02 2.79044975e-02 1.23833656e-01 9.56266373e-02
      2.14814648e-01 2.19023615e-01 1.48090422e-01 1.36536434e-01
      2.33376957e-02 3.28627564e-02 2.51177959e-02 2.56859481e-01
      2.56859481e-01 2.56859481e-01 2.56859481e-01 2.56859481e-01
      1.07797258e-01 1.10238045e-02 3.89431790e-03 6.48079813e-03
      2.91356534e-01 9.85776335e-02 9.72320884e-02 7.43773654e-02
      1.19024612e-01 2.22715914e-01 1.06160909e-01 1.05709508e-01
      1.39643937e-01 2.91356534e-01 1.60829127e-01 1.17496595e-01
      1.20504655e-01 2.17351750e-01 6.21754639e-02 2.60930099e-02
      2.61577182e-02 2.34495383e-02 2.91356534e-01 2.91356534e-01
      1.61050439e-01 2.42335528e-01 1.66158900e-01 2.91356534e-01
      1.18272454e-01 7.86563531e-02 7.97387138e-02 2.34995484e-01
      1.22305304e-01 1.00324742e-01 1.38823718e-01 2.91356534e-01
      1.73694566e-01 1.85238346e-01 1.75502583e-01 1.66771933e-01
      2.55429506e-01 1.32501036e-01 7.12170601e-02 1.66934550e-01
      2.55429506e-01 1.08323224e-01 5.99987991e-02 5.45368008e-02
      8.72792304e-02 1.77513704e-01 7.78581500e-02 7.06717595e-02
      9.89228413e-02 1.07158206e-01 1.86334521e-01 2.55429506e-01
      2.55429506e-01 2.55429506e-01 2.55429506e-01 1.31728292e-01
      6.12650439e-02 1.76644772e-01 2.55429506e-01 1.71799347e-01
      1.24579392e-01 1.15090191e-01 1.42895356e-01 2.55429506e-01
      1.06787957e-01 7.16846883e-02 9.78983268e-02 1.42418072e-01
      1.67142168e-01 4.22933474e-02 2.56907698e-02 5.68087362e-02
      1.72723785e-01 1.02778800e-01 1.25347659e-01 1.41832337e-01
      1.20555051e-01 1.56048357e-01 4.37601097e-02 4.23492417e-02
      5.42291887e-02 2.54543096e-01 2.54543096e-01 2.02883154e-01
      2.54543096e-01 2.30191588e-01 1.28601864e-01 2.16716379e-02
      8.33208393e-03 3.77446897e-02 2.31344268e-01 1.87928855e-01
      1.60365075e-01 1.59097686e-01 1.67299435e-01 1.80133268e-01
      5.77740707e-02 2.12362949e-02 8.63704532e-02 2.54543096e-01
      2.54543096e-01 2.53643632e-01 2.54543096e-01 2.54543096e-01
      4.18475680e-02 3.12151928e-02 2.63957828e-02 4.37611230e-02
      2.30625063e-01 2.30625063e-01 1.18339039e-01 2.08015636e-01
      1.17784709e-01 2.13208959e-01 9.22712535e-02 6.48322850e-02
      8.77420008e-02 2.21808791e-01 1.28149435e-01 1.09876864e-01
      1.40900850e-01 2.14706615e-01 1.22366019e-01 4.93136123e-02
      2.21330561e-02 8.83266255e-02 2.30625063e-01 2.30625063e-01
      1.96622953e-01 2.30625063e-01 2.28218704e-01 2.30625063e-01
      1.02211460e-01 4.55677770e-02 8.37608129e-02 2.24693343e-01
      2.15709433e-01 2.30625063e-01 2.30625063e-01 2.30625063e-01
      1.09756000e-01 2.55964309e-01 2.07685485e-01 2.55964309e-01
      2.55964309e-01 5.34783900e-02 3.22262347e-02 6.02713227e-02
      3.78369577e-02 2.55964309e-01 9.50625911e-02 7.03015104e-02
      1.22537889e-01 2.45177671e-01 4.53213528e-02 3.94583307e-02
      7.05038384e-02 2.55964309e-01 7.09679797e-02 8.97107050e-02
      6.05636872e-02 8.32730606e-02 2.55964309e-01 2.17433661e-01
      2.55964309e-01 2.55964309e-01 1.56896487e-01 2.21785367e-01
      3.54782641e-02 2.15097442e-02 5.78954071e-02 2.08133459e-01
      8.19827169e-02 1.18783213e-01 1.78769857e-01 2.55964309e-01
      2.51536459e-01 5.61197996e-02 3.22570801e-02 5.89710847e-02
      2.07532048e-01 1.15106300e-01 8.05836841e-02 1.10677809e-01
      2.51536459e-01 2.51536459e-01 1.59863532e-01 1.07837766e-01
      1.62774906e-01 2.51536459e-01 1.84510991e-01 1.55669987e-01
      1.96846709e-01 2.51536459e-01 2.51536459e-01 5.23919538e-02
      3.31500843e-02 5.13075031e-02 1.31403565e-01 5.60285486e-02
      3.04884929e-02 6.72842041e-02 2.51536459e-01 1.37543485e-01
      1.58288032e-01 1.41837522e-01 1.78364038e-01 2.51536459e-01
      1.93250895e-01 1.87776074e-01 1.93794042e-01 9.73572880e-02
      1.84310496e-01 1.04860246e-01 9.61290672e-02 1.55746028e-01
      2.36299232e-01 1.42984346e-01 1.35515898e-01 1.75357074e-01
      2.35879496e-01 2.36299232e-01 1.57028690e-01 6.34712577e-02
      8.31729025e-02 2.36299232e-01 2.03695819e-01 2.08824605e-01
      2.36299232e-01 2.36299232e-01 8.17490444e-02 8.73497725e-02
      1.22839205e-01 1.49372354e-01 2.36299232e-01 1.74878478e-01
      1.44474640e-01 1.25173688e-01 7.07776323e-02 2.36299232e-01
      8.96956325e-02 5.98565266e-02 6.41404465e-02 2.36299232e-01
      1.23454191e-01 8.91634822e-02 9.51309130e-02 2.33972162e-01
      4.71014306e-02 0. 0. 1.84134499e-03 2.86774755e-01 2.19944149e-01
      2.86774755e-01 2.86774755e-01 1.62712082e-01 3.74481343e-02
      1.14523212e-03 6.23690663e-04 5.27833690e-05 2.72033632e-01
      1.64738074e-01 1.46276936e-01 2.14662075e-01 1.06894940e-01
      2.81899367e-02 0. 0. 0. 2.86774755e-01 1.83999315e-01
      1.57944441e-01 2.30321676e-01 8.37942660e-02 2.05798391e-02
      1.50453381e-03 2.45068455e-03 4.51347185e-03 2.86774755e-01
      2.86774755e-01 1.86243936e-01 2.86774755e-01 9.01654139e-02
      9.82223079e-02 1.44590447e-02 8.89198203e-03 7.39501044e-03
      7.73114339e-02 5.24795726e-02 3.59916426e-02 6.80363625e-02
      9.83061343e-02 5.94562553e-02 4.11975645e-02 4.24985848e-02
      5.44075593e-02 3.08538735e-01 2.77260214e-01 2.06656352e-01
      2.39131033e-01 7.61718005e-02 1.12334833e-01 4.76097353e-02
      5.15839122e-02 7.80374259e-02 3.08538735e-01 2.33891457e-01
      9.95418504e-02 1.50054917e-01 1.44799322e-01 2.20124796e-01
      7.61980787e-02 5.83783835e-02 1.51156723e-01 3.08538735e-01
      2.91861922e-01 1.85316876e-01 2.41872102e-01 3.06879461e-01
      1.80877894e-02 3.37011218e-02 3.88858058e-02 3.60196717e-02
      2.62973905e-01 1.56792045e-01 1.25616550e-01 1.40844315e-01
      4.42097783e-02 2.62973905e-01 8.73414725e-02 6.89658374e-02
      5.47182821e-02 2.62973905e-01 6.23300597e-02 8.56938958e-02
      1.07868209e-01 2.46668130e-01 3.46894972e-02 2.99118720e-02
      1.94273293e-02 3.30900624e-02 2.62973905e-01 1.53867528e-01
      2.21246004e-01 2.62973905e-01 1.26891151e-01 2.58505166e-01
      9.31893364e-02 5.46785742e-02 4.81229573e-02 2.62973905e-01
      1.90649763e-01 2.62973905e-01 2.62973905e-01 2.62973905e-01
      1.60511583e-02 3.07099370e-04 1.40771910e-04 0. 2.98384935e-01
      8.81579369e-02 4.93137278e-02 7.85098076e-02 3.18125151e-02
      3.35038230e-02 5.54968882e-03 3.64792300e-03 1.17767248e-02
      2.99905241e-01 2.99905241e-01 1.60412088e-01 2.74995029e-01
      1.07559152e-01 1.73276484e-01 5.45098148e-02 7.79592618e-02
      6.07987978e-02 2.26996705e-01 3.80251929e-02 1.82566456e-02
      2.26421971e-02 1.09529443e-01 2.99905241e-01 1.95448115e-01
      1.35350436e-01 1.69746116e-01 2.99905241e-01 2.29446426e-01
      1.30629495e-01 2.50516742e-01 2.99905241e-01 5.89557663e-02
      2.38215644e-02 2.72747315e-02 5.84007949e-02 2.63637304e-01
      1.71806276e-01 9.11310613e-02 1.42549589e-01 1.02783717e-01
      2.28273094e-01 9.77203697e-02 5.93156591e-02 1.64353728e-01
      1.90799683e-01 1.09247133e-01 6.08377792e-02 7.98528790e-02
      2.10172161e-01 1.95218265e-01 2.00703800e-01 1.61436185e-01
      1.89059630e-01 2.63637304e-01 1.54281735e-01 8.40860754e-02
      1.56792656e-01 1.38905317e-01 2.63637304e-01 2.63637304e-01
      2.47406676e-01 2.63637304e-01 2.63637304e-01 4.06237617e-02
      3.32286358e-02 4.76531312e-02 1.65741280e-01 1.55309066e-01
      4.94652689e-02 1.92854535e-02 5.84332347e-02 2.01232225e-01
      1.06455058e-01 1.21049181e-01 1.63119435e-01 2.07122296e-01
      7.19479099e-02 2.16575153e-02 7.27808662e-03 5.04144793e-03
      3.26687932e-01 2.32424870e-01 1.74903497e-01 2.48214588e-01
      1.89790294e-01 1.90316126e-01 1.06333114e-01 7.44491518e-02
      1.38309985e-01 3.26687932e-01 8.05403441e-02 5.98954447e-02
      7.64489397e-02 1.97849676e-01 5.00531308e-02 3.42642562e-03
      7.45432917e-03 1.29840542e-02 3.26687932e-01 2.22251475e-01
      2.02222213e-01 2.64758676e-01 1.78497359e-01 2.28569642e-01
      1.99900031e-01 2.23785341e-01 2.02786446e-01 2.47541025e-01
      1.77216239e-03 2.21974426e-03 3.34508065e-03 1.01980112e-01
      2.47541025e-01 2.47541025e-01 2.15739951e-01 2.43361145e-01
      2.47541025e-01 5.43317944e-02 2.58045141e-02 4.65736017e-02
      2.46564165e-01 2.47541025e-01 2.47541025e-01 2.47541025e-01
      2.08754405e-01 1.64820865e-01 0. 0. 4.60177143e-05 1.39363378e-01
      1.11453451e-01 1.41854391e-01 1.34756312e-01 1.27060950e-01
      1.93884581e-01 3.48061956e-02 1.88669506e-02 2.11961605e-02
      7.61093423e-02 2.45116919e-01 2.52986521e-01 2.32791334e-01
      1.68055326e-01 1.78661034e-01 5.94675243e-02 3.21310088e-02
      4.49487530e-02 1.82327628e-01 2.74362862e-01 2.66523451e-01
      2.74362862e-01 2.15337083e-01 2.74362862e-01 1.54159153e-02
      2.64740661e-02 3.12043168e-02 2.74362862e-01 1.74707294e-01
      7.99570158e-02 8.65991786e-02 5.81466109e-02 6.80742487e-02
      4.62381020e-02 3.11593730e-02 3.71897407e-02 2.31519327e-01
      2.74362862e-01 1.01008877e-01 1.15540847e-01 7.09111914e-02
      8.80490094e-02 1.24212811e-02 2.07720492e-02 2.40307115e-02
      2.74362862e-01 3.24382365e-01 1.14710204e-01 1.41660020e-01
      1.59333482e-01 3.32279176e-01 2.13227198e-02 2.06748657e-02
      2.42352840e-02 2.49810725e-01 7.90961981e-02 2.33800616e-02
      4.15489823e-02 6.37325421e-02 3.32279176e-01 7.91604221e-02
      1.26127660e-01 1.30045950e-01 1.21610597e-01 3.32279176e-01
      8.76607597e-02 9.56994072e-02 8.46538767e-02 2.39168391e-01
      3.65570816e-03 5.77266747e-03 2.03155968e-02 3.32279176e-01
      2.30107650e-01 5.99669814e-02 5.73281310e-02 7.40179271e-02
      2.47346997e-01 2.17933469e-02 1.65000223e-02 5.07592261e-02
      2.22213477e-01</_>
    <_>
      1.22216374e-01 4.17045578e-02 7.39374086e-02 8.35146308e-02
      2.57168025e-01 1.66380316e-01 2.46303752e-01 9.37249810e-02
      1.42084718e-01 1.71369791e-01 1.45551056e-01 1.55803531e-01
      2.57168025e-01 2.57168025e-01 6.95018396e-02 8.55603218e-02
      5.96732013e-02 1.42401174e-01 4.69377972e-02 1.11451996e-02
      1.34655153e-02 3.45608443e-02 1.95420474e-01 2.57168025e-01
      2.57168025e-01 1.54883191e-01 8.51600990e-02 1.84307322e-01
      7.01574087e-02 6.73462301e-02 1.46014109e-01 2.57168025e-01
      1.92292780e-01 2.57168025e-01 1.90353587e-01 2.57168025e-01
      2.07012087e-01 1.38931960e-01 1.75169647e-01 2.06876501e-01
      2.21093759e-01 2.95449514e-02 1.74343064e-02 3.02898660e-02
      1.26600981e-01 2.29173318e-01 9.03842971e-02 1.92780510e-01
      2.11427465e-01 1.56206697e-01 7.37137198e-02 8.98056477e-02
      6.22893795e-02 2.35396013e-01 2.35396013e-01 8.98564458e-02
      1.63895413e-01 1.78680182e-01 1.53727397e-01 9.19047743e-02
      1.19375363e-01 1.03139959e-01 2.35396013e-01 2.35396013e-01
      1.02685511e-01 2.35396013e-01 2.35396013e-01 1.92893505e-01
      1.55089408e-01 9.94261429e-02 1.31417990e-01 2.35396013e-01
      2.43297815e-01 1.26749605e-01 1.37535542e-01 2.31704846e-01
      2.43297815e-01 1.07693225e-01 1.77193165e-01 1.25737563e-01
      2.43297815e-01 2.43297815e-01 1.59757033e-01 8.86512101e-02
      7.48600885e-02 1.94340006e-01 8.09312910e-02 1.46209523e-01
      2.43297815e-01 2.43297815e-01 1.73022807e-01 1.01314299e-01
      2.43297815e-01 2.43297815e-01 2.43297815e-01 1.39239952e-01
      1.00437477e-01 1.11046180e-01 2.43297815e-01 1.19882584e-01
      5.09314053e-02 3.43381725e-02 5.85079715e-02 1.11950740e-01
      2.69238185e-02 3.25074904e-02 6.00069165e-02 1.78840935e-01
      4.83265892e-02 7.32753845e-03 2.73542460e-02 1.77308880e-02
      2.45629221e-01 2.09433690e-01 2.45629221e-01 9.06609073e-02
      5.15087023e-02 9.04375240e-02 2.99056452e-02 4.05655541e-02
      4.09964956e-02 2.10029751e-01 2.42076755e-01 2.45629221e-01
      1.57736197e-01 1.17125615e-01 2.36532599e-01 1.12894922e-01
      1.31528392e-01 1.28525928e-01 2.45629221e-01 1.53115839e-01
      2.45629221e-01 6.48165718e-02 2.06856623e-01 2.43781731e-01
      5.05574606e-02 4.24850881e-02 5.34263439e-02 1.76212624e-01
      2.45629221e-01 2.45629221e-01 1.79815665e-01 2.45629221e-01
      1.97922111e-01 7.37161040e-02 1.00013383e-01 9.16727334e-02
      1.09301373e-01 8.65056217e-02 1.63593829e-01 8.57915282e-02
      2.20675454e-01 2.44349286e-01 8.79540443e-02 2.44349286e-01
      1.95106044e-01 1.00080013e-01 1.32986635e-01 7.80029148e-02
      1.36119425e-01 2.44349286e-01 2.44349286e-01 3.01876459e-02
      1.00261942e-01 8.34903046e-02 1.40575439e-01 1.86272278e-01
      2.41603732e-01 1.21202812e-01 2.44349286e-01 2.44349286e-01
      7.47043565e-02 1.31580293e-01 1.20168455e-01 2.44349286e-01
      1.71316504e-01 1.34961441e-01 1.61770955e-01 2.44349286e-01
      1.57089591e-01 4.23085093e-02 1.86108187e-01 1.33312151e-01
      8.56029689e-02 1.55429199e-01 8.35540146e-02 1.61595240e-01
      2.68805444e-01 9.22167078e-02 4.61010262e-03 1.10426694e-02
      1.24690700e-02 3.69507708e-02 5.04290573e-02 4.68555465e-02
      6.23442382e-02 1.35093957e-01 2.75343359e-01 6.01696670e-02
      5.41600101e-02 6.38447329e-02 1.42231643e-01 2.75343359e-01
      2.73101330e-01 2.75343359e-01 2.75343359e-01 2.75343359e-01
      3.06796469e-03 5.42892097e-03 4.98119416e-03 9.28373411e-02
      2.01814085e-01 2.42773980e-01 2.75343359e-01 2.75343359e-01
      1.73352003e-01 1.06381111e-01 1.21458150e-01 1.21396773e-01
      2.43012503e-01 7.84039199e-02 1.21735290e-01 3.45344692e-02
      1.55839592e-01 2.43012503e-01 4.42529246e-02 7.84422681e-02
      7.68249780e-02 2.43012503e-01 1.96641147e-01 2.43012503e-01
      9.90039706e-02 2.43012503e-01 1.02505498e-01 3.86148766e-02
      1.46213770e-01 8.78891498e-02 2.43012503e-01 1.95331842e-01
      2.43012503e-01 9.49409381e-02 1.39162421e-01 2.43012503e-01
      2.79887654e-02 6.84659779e-02 6.67801425e-02 2.43012503e-01
      2.14208722e-01 2.36019805e-01 8.98771659e-02 2.43012503e-01
      2.53813654e-01 2.24952325e-02 1.50318891e-01 1.03927933e-01
      1.12156399e-01 1.41640335e-01 1.60099030e-01 6.60399869e-02
      2.53813654e-01 1.95729360e-01 4.46945131e-02 1.29733115e-01
      1.17842562e-01 2.53813654e-01 1.48688719e-01 1.72655419e-01
      9.76714343e-02 2.29533628e-01 2.53813654e-01 6.70892596e-02
      1.28098339e-01 1.01816900e-01 1.19804397e-01 7.33351633e-02
      8.59258622e-02 3.95795666e-02 2.53813654e-01 2.53813654e-01
      8.35212767e-02 2.53813654e-01 1.63706973e-01 2.33408570e-01
      1.31044298e-01 1.63974464e-01 9.00755301e-02 2.53813654e-01
      1.25315949e-01 4.67768610e-02 5.93183376e-02 6.38340712e-02
      1.86158419e-01 1.87080979e-01 2.26206303e-01 1.78093821e-01
      2.12044686e-01 2.14067727e-01 3.97082344e-02 1.03916347e-01
      6.16137385e-02 1.95119485e-01 1.29468903e-01 1.58538535e-01
      1.43206194e-01 2.26206303e-01 1.61959976e-01 9.70256701e-02
      2.24426821e-01 1.42758146e-01 2.26206303e-01 1.88018173e-01
      2.19509348e-01 1.29783928e-01 1.15025289e-01 2.26206303e-01
      1.64172679e-01 2.26206303e-01 2.21331418e-01 2.26206303e-01
      1.38780504e-01 9.46010053e-02 7.83295408e-02 1.61687881e-01
      7.30475858e-02 1.09550245e-02 7.23147541e-02 4.44415621e-02
      2.69717038e-01 2.08374858e-01 2.64595389e-01 1.24205507e-01
      1.18976176e-01 9.36757922e-02 2.82422788e-02 2.63629518e-02
      4.88664359e-02 2.69717038e-01 2.69717038e-01 2.69717038e-01
      1.34655565e-01 9.61392894e-02 1.16781399e-01 4.06080559e-02
      5.73735088e-02 3.42493318e-02 2.69717038e-01 2.19817549e-01
      2.69717038e-01 1.51873961e-01 1.33995786e-01 1.52477184e-02
      2.92090755e-02 3.66245769e-02 4.25808579e-02 2.69717038e-01
      2.69717038e-01 2.69717038e-01 1.81676626e-01 2.31639314e-02
      2.30650559e-01 7.79398084e-02 8.14972296e-02 1.08107395e-01
      2.31011003e-01 1.36967883e-01 1.37127802e-01 7.35956281e-02
      1.58497453e-01 2.41600946e-01 1.45020768e-01 2.41600946e-01
      2.41600946e-01 2.25256443e-01 7.69338682e-02 7.85273761e-02
      3.44857723e-02 1.53588131e-01 6.52118698e-02 6.28102720e-02
      5.76557778e-02 1.01976007e-01 2.41600946e-01 2.41600946e-01
      2.41600946e-01 1.69300199e-01 7.48308152e-02 1.38031065e-01
      2.26425886e-01 2.27143690e-01 2.41600946e-01 2.41600946e-01
      1.05746642e-01 1.32996708e-01 8.07983875e-02 9.70198661e-02
      1.43402681e-01 1.46976873e-01 2.26565197e-01 2.15784714e-01
      2.26565197e-01 1.23235643e-01 8.38165283e-02 5.05534820e-02
      7.47358426e-02 2.26565197e-01 1.66552871e-01 2.26565197e-01
      1.98373511e-01 2.22412735e-01 1.32705003e-01 3.85865197e-02
      6.40913472e-02 1.70180514e-01 7.45511949e-02 1.77932993e-01
      2.12614924e-01 2.26565197e-01 2.26565197e-01 7.46643469e-02
      4.03751992e-02 4.13543172e-02 7.13939369e-02 2.26565197e-01
      1.78147927e-01 2.26565197e-01 2.26565197e-01 2.26565197e-01
      1.08774550e-01 3.48798260e-02 6.36748150e-02 2.26565197e-01
      1.04495004e-01 3.24216597e-02 5.20369112e-02 3.18176560e-02
      2.64143765e-01 2.64143765e-01 2.64143765e-01 1.23634525e-01
      1.07869610e-01 2.57290024e-02 2.90398821e-02 5.92159070e-02
      5.08394800e-02 2.64143765e-01 2.64143765e-01 2.64143765e-01
      1.05064601e-01 4.32510301e-02 1.11839183e-01 3.77419963e-02
      5.36555760e-02 7.54510835e-02 2.64143765e-01 2.52395093e-01
      2.64143765e-01 1.03908218e-01 1.05369605e-01 4.98875529e-02
      3.47722061e-02 1.07965469e-01 1.65899664e-01 2.64143765e-01
      2.64143765e-01 2.64143765e-01 7.83817619e-02 9.80998799e-02
      5.44058681e-02 4.69136350e-02 5.69014587e-02 9.86984298e-02
      2.74730295e-01 2.31978863e-01 2.56220818e-01 1.09406509e-01
      7.26133883e-02 1.27148047e-01 1.63670585e-01 9.20346454e-02
      1.93140835e-01 2.74730295e-01 1.55222058e-01 1.42414063e-01
      7.33111352e-02 7.29059577e-02 1.30758286e-01 2.97923330e-02
      1.03711076e-01 1.96116671e-01 2.74730295e-01 1.66950807e-01
      1.28245205e-01 7.08425790e-02 1.84658796e-01 1.46268934e-01
      5.46755604e-02 6.27700314e-02 1.27991080e-01 2.74730295e-01
      2.74730295e-01 2.22656369e-01 1.21964470e-01 2.47859403e-01
      1.09150954e-01 1.41159847e-01 1.11354254e-01 1.86212584e-01
      2.39842415e-01 8.75790715e-02 6.74025565e-02 3.32202800e-02
      6.37940392e-02 2.39842415e-01 2.02702880e-01 2.39842415e-01
      2.37067804e-01 2.39842415e-01 9.11409706e-02 6.63593709e-02
      3.29666510e-02 2.39842415e-01 8.37241039e-02 4.56119366e-02
      6.71502277e-02 6.58824146e-02 2.39842415e-01 1.96277857e-01
      1.68091536e-01 1.08417906e-01 2.07704529e-01 2.39842415e-01
      1.26434162e-01 2.39842415e-01 2.39842415e-01 2.39842415e-01
      4.29899246e-02 6.05207011e-02 3.57997790e-02 2.29298741e-01
      8.04810449e-02 9.26330313e-02 1.32234111e-01 2.27733955e-01
      2.50437349e-01 1.43915012e-01 1.18709564e-01 6.96537942e-02
      7.09855780e-02 1.01086780e-01 1.31717980e-01 2.17121407e-01
      2.50041306e-01 2.50437349e-01 1.67157874e-01 1.46016881e-01
      6.66711256e-02 1.14147276e-01 1.33675903e-01 1.40496969e-01
      1.99632451e-01 2.50437349e-01 2.50437349e-01 8.28654766e-02
      5.83623424e-02 5.06881215e-02 1.30262583e-01 1.34357870e-01
      2.50437349e-01 2.50437349e-01 2.50437349e-01 2.50437349e-01
      8.59132335e-02 7.58547559e-02 8.99866894e-02 1.26966938e-01
      2.33299091e-01 1.12278029e-01 1.88391984e-01 1.78329840e-01
      1.33225247e-01 8.70160088e-02 7.38153383e-02 6.62759393e-02
      2.29672998e-01 2.27628320e-01 1.06673308e-01 2.05346704e-01
      1.58832029e-01 2.06469283e-01 1.67420402e-01 1.59388483e-01
      1.01531297e-01 2.38452181e-01 1.58421040e-01 1.94980696e-01
      2.38452181e-01 1.78359896e-01 2.38452181e-01 1.31549716e-01
      4.79244888e-02 8.94872993e-02 1.03381410e-01 1.48502216e-01
      1.48129120e-01 2.28295460e-01 2.06333920e-01 2.38452181e-01
      1.41758725e-01 5.93085065e-02 4.77507412e-02 1.14773147e-01
      8.33777189e-02 6.60909340e-02 1.91120997e-01 1.75921381e-01
      1.87720090e-01 1.56906679e-01 1.58088148e-01 9.10172537e-02
      2.44546756e-01 8.92917812e-02 8.80375281e-02 2.54052788e-01
      2.54052788e-01 2.54052788e-01 6.07456826e-02 6.18355386e-02
      2.99528558e-02 1.41478896e-01 1.59916177e-01 1.66339770e-01
      2.54052788e-01 2.54052788e-01 2.54052788e-01 1.07691012e-01
      5.95522560e-02 2.71460451e-02 1.37399152e-01 1.51158720e-01
      9.75479931e-02 2.54052788e-01 2.54052788e-01 2.54052788e-01
      6.30401224e-02 3.17541659e-02 1.94395222e-02 1.22334599e-01
      1.44269720e-01 1.39076427e-01 1.38070911e-01 1.40938565e-01
      2.21501306e-01 1.13847852e-01 1.14764437e-01 6.64074048e-02
      1.13102004e-01 7.99027383e-02 1.32993236e-01 2.21501306e-01
      2.21501306e-01 1.88051000e-01 1.40219584e-01 2.07564786e-01
      1.43019572e-01 1.52912185e-01 2.21501306e-01 1.10196456e-01
      1.02366015e-01 8.67857113e-02 2.21501306e-01 1.41772345e-01
      1.23719871e-01 8.38682204e-02 2.17171311e-01 1.57251760e-01
      9.10308585e-02 1.81241289e-01 2.21501306e-01 2.21501306e-01
      2.01797336e-01 2.21501306e-01 2.03579888e-01 2.21501306e-01
      5.63015118e-02 6.27006739e-02 1.67006388e-01 1.71158463e-01
      2.45380595e-01 1.37903675e-01 1.18716002e-01 1.19562916e-01
      1.56324342e-01 1.12223811e-01 6.55434951e-02 8.34502280e-02
      1.16406955e-01 2.45380595e-01 1.55883461e-01 1.49938419e-01
      8.54054019e-02 2.13262782e-01 1.00829549e-01 6.28101453e-02
      1.19532026e-01 2.24953622e-01 2.45380595e-01 1.64473087e-01
      2.04658702e-01 2.10055307e-01 2.45380595e-01 1.74297541e-01
      7.22171068e-02 9.71354842e-02 1.09469622e-01 1.66789979e-01
      2.15662241e-01 2.45380595e-01 1.99447364e-01 2.45380595e-01
      2.11398184e-01 9.38474536e-02 1.71460196e-01 2.02687174e-01
      2.43789002e-01 8.53459835e-02 9.74412560e-02 5.75692207e-02
      2.09606424e-01 2.43789002e-01 4.59092930e-02 1.06617525e-01
      1.00139767e-01 1.58197299e-01 2.90600210e-02 5.63376434e-02
      4.66482788e-02 2.43789002e-01 2.43789002e-01 1.38533518e-01
      2.27258697e-01 1.88009501e-01 1.28434196e-01 1.09031819e-01
      1.71043575e-01 9.55795944e-02 2.43789002e-01 2.43789002e-01
      1.25713259e-01 2.26420209e-01 1.55861825e-01 1.86513007e-01
      1.04476400e-01 1.30864859e-01 1.07945047e-01 2.43789002e-01
      2.32910424e-01 5.42177297e-02 3.44606601e-02 5.88284470e-02
      2.11250171e-01 1.33532897e-01 1.55712813e-01 9.56569463e-02
      2.32910424e-01 1.49262547e-01 1.02234542e-01 1.97980046e-01
      1.79373443e-01 2.32910424e-01 1.38212562e-01 1.39864594e-01
      1.16554804e-01 1.85392991e-01 1.32045388e-01 4.30061705e-02
      1.99910309e-02 3.51743139e-02 2.10257292e-01 1.91340774e-01
      2.32910424e-01 1.20396867e-01 2.32910424e-01 1.60060063e-01
      1.34134948e-01 2.32910424e-01 1.73550159e-01 2.32910424e-01
      1.74833968e-01 2.32910424e-01 1.15744010e-01 1.88673109e-01
      1.29516855e-01 1.22597463e-01 2.12190315e-01 2.25283414e-01
      2.25283414e-01 1.03253983e-01 1.25698611e-01 1.32588893e-01
      1.45616367e-01 1.35651961e-01 9.17994902e-02 9.81311724e-02
      1.34892017e-01 1.27427325e-01 1.73228070e-01 2.22134516e-01
      1.71162441e-01 2.25283414e-01 2.10252196e-01 1.58266485e-01
      2.25283414e-01 2.25283414e-01 2.25283414e-01 4.68822122e-02
      9.66091603e-02 6.63818792e-02 1.20113648e-01 2.25283414e-01
      1.01386979e-01 1.47821635e-01 1.51479065e-01 1.96088120e-01
      1.22370407e-01 2.24203736e-01 1.08277701e-01 2.25283414e-01
      2.23260716e-01 1.48763105e-01 1.85974047e-01 1.75133765e-01
      1.44117102e-01 9.82200578e-02 1.39194250e-01 8.56631696e-02
      2.09767133e-01 2.23260716e-01 1.57703608e-01 2.23260716e-01
      2.15332255e-01 2.23260716e-01 9.72027630e-02 8.27599913e-02
      9.35393497e-02 1.70074046e-01 2.23260716e-01 8.34610760e-02
      1.34281337e-01 1.16670810e-01 1.77819759e-01 1.01132222e-01
      1.70985326e-01 7.90461898e-02 2.23260716e-01 2.23260716e-01
      7.63222277e-02 1.61682487e-01 1.33449644e-01 2.23260716e-01
      1.60821930e-01 1.64214194e-01 1.29932120e-01 2.23260716e-01
      1.10308178e-01 6.09304421e-02 2.95395218e-02 3.11785303e-02
      2.26693407e-01 1.18642718e-01 1.84789926e-01 9.73375961e-02
      1.31390795e-01 2.13168979e-01 1.30302832e-01 2.23126933e-01
      1.37140676e-01 2.46722624e-01 1.71844557e-01 2.46722624e-01
      2.06164226e-01 1.91642344e-01 1.10739991e-01 8.94634277e-02
      4.59490083e-02 5.44169918e-02 2.46722624e-01 8.53931531e-02
      3.37583423e-02 1.07960477e-01 1.23738609e-01 2.26455554e-01
      1.65616125e-01 2.26514190e-01 1.58070773e-01 2.46722624e-01
      1.63786560e-01 7.66913593e-02 2.46722624e-01 2.46722624e-01
      2.14270920e-01 1.13684535e-01 2.35167295e-01 1.59620419e-01
      2.35167295e-01 3.83709334e-02 6.08947314e-02 8.65702629e-02
      1.74533457e-01 2.35167295e-01 1.09564133e-01 2.33842939e-01
      1.46270737e-01 2.24011511e-01 7.21919015e-02 6.78481087e-02
      5.96693754e-02 1.84130624e-01 1.67480737e-01 1.49365649e-01
      2.35167295e-01 2.05956027e-01 2.35167295e-01 5.69758862e-02
      2.63116956e-02 7.95816407e-02 1.44883528e-01 2.13733315e-01
      2.18290806e-01 2.35167295e-01 2.35167295e-01 2.35167295e-01
      8.51710513e-02 4.32407595e-02 4.98320833e-02 1.15089305e-01
      1.72700629e-01 6.84951991e-02 1.42465144e-01 8.56831148e-02
      2.65754312e-01 8.42427686e-02 7.44808167e-02 5.57547994e-02
      1.65620163e-01 1.20139636e-01 3.35817263e-02 5.14922738e-02
      4.59297895e-02 2.84206331e-01 2.55087674e-01 2.64479697e-01
      1.27547458e-01 1.76024497e-01 1.32502154e-01 2.15209514e-01
      2.84206331e-01 2.02243909e-01 2.84206331e-01 9.52700078e-02
      5.49995899e-02 7.95736685e-02 1.22536466e-01 5.30468933e-02
      9.98812392e-02 1.02019161e-01 1.00561939e-01 2.84206331e-01
      1.99853495e-01 2.50739425e-01 1.08149171e-01 9.73011702e-02
      5.01540154e-02 6.74684122e-02 1.08742699e-01 8.10559914e-02
      3.02055448e-01 5.57094477e-02 2.52253357e-02 7.76235983e-02
      1.04226530e-01 7.68155903e-02 1.97059214e-01 3.02055448e-01
      2.68503577e-01 3.02055448e-01 1.10534385e-01 5.93105629e-02
      1.86332569e-01 1.71770945e-01 3.77461277e-02 3.20548005e-02
      1.31357357e-01 8.50947052e-02 3.02055448e-01 6.61478639e-02
      4.60422188e-02 4.60544862e-02 5.91261461e-02 1.27260029e-01
      1.05313718e-01 3.02055448e-01 1.87515199e-01 3.02055448e-01
      1.38172910e-01 1.44730598e-01 1.27454296e-01 2.21102327e-01
      9.15655419e-02 1.78418815e-01 2.30561733e-01 2.25350723e-01
      2.30561733e-01 7.12027177e-02 4.30225581e-02 5.35873473e-02
      6.84290454e-02 1.32764041e-01 1.95696175e-01 2.30561733e-01
      2.03646481e-01 2.30561733e-01 1.58581227e-01 1.20094500e-01
      6.92403391e-02 8.87291655e-02 1.85959890e-01 1.01045474e-01
      2.24114999e-01 1.24870665e-01 2.30561733e-01 1.15816876e-01
      1.77267298e-01 8.17681849e-02 1.80623308e-01 2.30561733e-01
      1.25024155e-01 1.69261277e-01 1.24558330e-01 1.87431946e-01
      1.65379331e-01 2.30561733e-01 1.42611444e-01 1.81941062e-01
      7.84477964e-02 1.64323539e-01 1.91419303e-01 1.61886066e-01
      2.50156820e-01 1.82541206e-01 1.37257323e-01 1.05851717e-01
      8.75713602e-02 5.19210547e-02 9.41006243e-02 7.68344551e-02
      1.16730981e-01 2.50156820e-01 1.01389915e-01 1.04482763e-01
      5.61439544e-02 6.90744296e-02 2.50156820e-01 1.11444034e-01
      1.09701388e-01 1.04371689e-01 2.37651139e-01 2.04571649e-01
      1.98463216e-01 2.06329539e-01 2.50156820e-01 1.48999617e-01
      9.28993151e-02 3.26181687e-02 1.08484402e-01 2.50156820e-01
      2.26808116e-01 2.17209771e-01 2.01138571e-01 2.42880479e-01
      7.26094991e-02 4.36546467e-02 4.47020084e-02 5.03421128e-02
      2.73629904e-01 9.72356498e-02 4.74928916e-02 7.66354725e-02
      1.25739768e-01 2.09735557e-01 5.81800900e-02 7.65267015e-02
      5.58535308e-02 2.73629904e-01 2.73629904e-01 1.88280270e-01
      2.09291399e-01 2.73629904e-01 7.37884119e-02 7.89736137e-02
      1.26119420e-01 1.38680145e-01 2.62819886e-01 5.88654615e-02
      4.84029576e-02 3.77190225e-02 1.56799942e-01 1.68084219e-01
      1.35969892e-01 2.12406456e-01 2.42386296e-01 2.73629904e-01
      1.93574592e-01 1.09754890e-01 1.39582172e-01 2.73629904e-01
      2.22749829e-01 5.95502555e-02 4.88809682e-02 4.31657992e-02
      1.81847960e-01 1.75653815e-01 2.37125635e-01 1.37957796e-01
      2.37125635e-01 2.37125635e-01 9.75551084e-02 1.38955474e-01
      7.56061077e-02 9.78197381e-02 1.61590815e-01 2.37125635e-01
      1.89170614e-01 2.37125635e-01 1.82423547e-01 7.55441636e-02
      6.80621490e-02 8.83882493e-02 2.01103911e-01 1.37986660e-01
      1.80343106e-01 1.25919133e-01 2.34584227e-01 2.37125635e-01
      4.19421420e-02 5.29229753e-02 3.64239067e-02 1.07052401e-01
      1.71799511e-01 2.37125635e-01 2.00594068e-01 2.37125635e-01
      2.38678843e-01 6.85609803e-02 1.24867149e-01 8.39299932e-02
      1.48079291e-01 1.07865028e-01 1.39982074e-01 1.40863076e-01
      2.41902232e-01 1.50148600e-01 6.21702448e-02 8.03805068e-02
      1.17539078e-01 2.21057504e-01 1.82320192e-01 2.20541492e-01
      1.91520602e-01 2.17196599e-01 2.15395465e-01 3.94192450e-02
      1.00842632e-01 7.62486309e-02 2.41902232e-01 8.89774337e-02
      1.59739599e-01 9.62601602e-02 2.41902232e-01 1.67931974e-01
      1.07661992e-01 2.41902232e-01 2.34355345e-01 2.41902232e-01
      1.09571092e-01 9.44123641e-02 7.50062615e-02 2.41902232e-01</_>
    <_>
      3.01554143e-01 9.02336016e-02 1.33194521e-01 3.57795320e-02
      3.01554143e-01 2.03196704e-01 1.06739745e-01 1.45579681e-01
      3.01554143e-01 3.01554143e-01 1.78844098e-03 2.42678518e-03
      5.35570597e-03 3.01554143e-01 2.48392940e-01 1.52585104e-01
      2.16447368e-01 3.01554143e-01 9.10194442e-02 2.44039879e-03
      2.90675252e-03 0. 4.09370810e-02 3.25401276e-02 2.52492875e-02
      3.46887223e-02 1.15206145e-01 3.01554143e-01 0. 0. 0.
      6.08787350e-02 3.34198289e-02 3.19703892e-02 6.78837076e-02
      3.01554143e-01 2.90780783e-01 0. 0. 1.32573431e-03 1.56147644e-01
      1.03947952e-01 5.36309257e-02 1.13713264e-01 2.90780783e-01
      2.90780783e-01 0. 0. 0. 1.94132254e-01 1.42248482e-01
      6.42472804e-02 1.02178633e-01 2.90780783e-01 2.03984112e-01
      3.15244833e-04 1.04269770e-03 7.99488218e-04 2.13261306e-01
      1.15432031e-01 6.35838434e-02 1.08905517e-01 2.90780783e-01
      2.90780783e-01 2.20786911e-02 2.34733764e-02 1.28094666e-02
      2.90780783e-01 1.89075291e-01 1.18636280e-01 1.72726274e-01
      2.90780783e-01 2.78183848e-01 7.98280258e-03 6.22503879e-03
      1.87570055e-03 5.71383461e-02 3.28682587e-02 1.66379996e-02
      1.74945854e-02 2.80315638e-01 2.41255030e-01 1.96451675e-02
      1.67284012e-02 9.01961047e-03 3.50276977e-02 7.72210909e-03
      8.94750096e-03 1.16603300e-02 2.16825143e-01 4.23701435e-01
      2.58791260e-02 1.93856265e-02 9.05614160e-03 6.07886389e-02
      4.03470322e-02 3.09741758e-02 4.23457697e-02 4.23701435e-01
      4.23701435e-01 2.86625652e-03 5.84494846e-04 6.09756135e-05 0. 0.
      0. 0. 4.23701435e-01 1.96842149e-01 9.12218690e-02 2.75807139e-02
      5.00498526e-02 5.38541377e-02 4.51757275e-02 4.92950380e-02
      7.66590312e-02 2.19673723e-01 9.65990052e-02 2.59606000e-02
      6.98114373e-03 1.20357787e-02 1.11039668e-01 5.47616482e-02
      5.37583791e-02 5.07792048e-02 1.29522532e-01 2.69595861e-01
      2.62524962e-01 1.11290745e-01 2.59428680e-01 2.69595861e-01
      2.37111211e-01 1.73767716e-01 1.76664263e-01 2.69595861e-01
      2.69595861e-01 1.31897524e-01 1.32893279e-01 1.90394744e-01
      2.69595861e-01 1.89464405e-01 1.38407692e-01 9.49073955e-02
      2.69595861e-01 3.17391492e-02 1.64920336e-03 4.18473687e-03
      5.97918266e-03 1.36750489e-01 4.02041748e-02 3.41269672e-02
      4.26068194e-02 6.85617402e-02 2.90810198e-01 9.40147787e-02
      1.06553890e-01 1.20366894e-01 2.90810198e-01 9.35597271e-02
      5.60912602e-02 8.60511065e-02 2.90810198e-01 2.90810198e-01
      1.28809392e-01 1.50356174e-01 6.43633455e-02 2.40955800e-01
      4.49500456e-02 2.56985538e-02 1.62619762e-02 2.16313869e-01
      2.90810198e-01 1.49577454e-01 1.51736677e-01 1.34624645e-01
      2.90810198e-01 2.55703211e-01 1.02299832e-01 1.77609146e-01
      2.90810198e-01 3.26882869e-01 6.24991581e-02 5.74691407e-02
      4.94569875e-02 8.57902393e-02 2.87700854e-02 1.15024922e-02
      2.08083913e-02 3.26882869e-01 3.26882869e-01 4.04018983e-02
      5.20697273e-02 1.03293909e-02 1.47224462e-03 7.51260482e-03
      6.85862848e-04 4.60171280e-03 3.26882869e-01 3.10749352e-01
      1.06141679e-01 1.02283083e-01 7.39797503e-02 1.70496598e-01
      1.12847954e-01 5.27846329e-02 1.06390394e-01 2.94955909e-01
      3.26882869e-01 1.46851942e-01 1.95555761e-01 5.42663597e-02
      1.77055560e-02 4.31991257e-02 4.93646367e-03 3.24124284e-02
      3.26882869e-01 2.81348437e-01 1.69363424e-01 1.16711915e-01
      1.34094343e-01 2.24282905e-01 1.11384585e-01 9.72315222e-02
      7.48356879e-02 2.81348437e-01 2.81348437e-01 1.30423307e-01
      1.55207947e-01 1.49172187e-01 2.53100365e-01 6.38136119e-02
      6.51889071e-02 2.85755675e-02 2.81348437e-01 2.81348437e-01
      8.47883150e-02 9.01430622e-02 4.01009880e-02 5.72766289e-02
      2.58700550e-02 3.76257412e-02 3.74213345e-02 2.81348437e-01
      2.81348437e-01 9.24618617e-02 1.12374574e-01 9.41091180e-02
      1.87658101e-01 1.02426531e-02 1.49667794e-02 8.06495175e-03
      2.81348437e-01 2.64699727e-01 1.67130530e-01 2.10371360e-01
      6.53248057e-02 7.85193145e-02 1.28688375e-02 1.24087110e-02
      7.62884319e-03 2.42209375e-01 2.64699727e-01 1.87515557e-01
      1.64286077e-01 7.71956667e-02 1.82973549e-01 1.28816828e-01
      7.68478811e-02 1.27951398e-01 2.64699727e-01 2.64699727e-01
      1.83019057e-01 2.22499922e-01 7.22654685e-02 1.16677321e-01
      1.47931697e-03 2.74317292e-03 2.24609533e-03 2.61204600e-01
      2.64699727e-01 2.64699727e-01 2.64699727e-01 1.05909370e-01
      1.07719585e-01 3.94154936e-02 2.92147435e-02 4.25764769e-02
      1.66271791e-01 2.41322830e-01 1.38714030e-01 1.10922374e-01
      1.01335853e-01 1.95126683e-01 1.42770827e-01 8.95766839e-02
      1.49323419e-01 2.68482566e-01 3.21607202e-01 1.08571254e-01
      1.19640648e-01 6.13208972e-02 6.68697357e-02 5.76169416e-02
      2.60211490e-02 5.50199822e-02 3.21607202e-01 2.58546919e-01
      2.03198642e-01 1.71157047e-01 9.00388584e-02 1.36832267e-01
      7.37740919e-02 5.92928641e-02 1.00397818e-01 2.67789215e-01
      3.21607202e-01 8.29784274e-02 8.71556997e-02 3.33043747e-02
      6.02696091e-02 3.38263214e-02 3.41949873e-02 6.51489273e-02
      3.21607202e-01 1.55710161e-01 3.96306105e-02 3.40388604e-02
      5.85708059e-02 2.16843009e-01 8.17019120e-02 1.42956153e-01
      9.69145373e-02 2.27580205e-01 1.55556709e-01 5.02322130e-02
      9.93795469e-02 1.31633282e-01 3.16046417e-01 2.53141187e-02
      1.41705098e-02 9.98891983e-03 7.89269507e-02 3.16046417e-01
      1.85471416e-01 1.55739859e-01 1.22847378e-01 2.08023235e-01
      5.39424382e-02 1.46068439e-01 8.03691670e-02 2.36323997e-01
      2.27988720e-01 3.00406486e-01 2.67338187e-01 2.18920156e-01
      3.16046417e-01 1.56083517e-02 6.12885039e-03 2.90732854e-03
      6.98949769e-02 3.36968303e-01 1.31332159e-01 2.05158666e-01
      1.12236068e-01 3.36968303e-01 1.52333145e-04 0. 0. 2.25940272e-01
      3.36968303e-01 2.53016025e-01 2.74601698e-01 8.42842534e-02
      1.84874251e-01 8.21648631e-03 4.77884011e-03 9.59235989e-03
      1.84939831e-01 1.12200648e-01 1.31734923e-01 1.54629901e-01
      1.52975857e-01 3.36968303e-01 0. 0. 0. 4.55672219e-02
      4.85934764e-02 1.85366478e-02 3.33315022e-02 5.30653149e-02
      3.36968303e-01 4.41777632e-02 3.27890627e-02 1.59644485e-02
      3.96883152e-02 1.92403302e-01 1.86905757e-01 1.95702896e-01
      9.04990807e-02 1.43800110e-01 1.87564977e-02 1.18680783e-02
      2.38163583e-02 1.30529791e-01 2.81795591e-01 2.41010621e-01
      2.66140670e-01 7.45677352e-02 6.32883906e-02 1.32968957e-02
      9.33985878e-03 2.24451907e-02 2.81795591e-01 1.36571288e-01
      1.36571705e-01 1.46556810e-01 1.10030875e-01 2.81795591e-01
      9.32033062e-02 6.78984970e-02 4.42079380e-02 1.16017684e-01
      2.81795591e-01 2.81795591e-01 2.81795591e-01 1.32690161e-01
      1.43498734e-01 5.94442897e-02 4.26694788e-02 4.12270650e-02
      2.81795591e-01 2.73025483e-01 2.10596696e-01 2.09831968e-01
      9.18757096e-02 6.36667386e-02 8.12487584e-03 2.45001782e-02
      1.66269317e-02 2.59249806e-01 2.73025483e-01 2.73025483e-01
      2.62753874e-01 1.16873771e-01 1.85827464e-01 5.62248111e-04 0. 0.
      1.43726051e-01 2.73025483e-01 1.75029114e-01 1.77397832e-01
      6.25134632e-02 1.65353552e-01 1.21512316e-01 7.21460506e-02
      5.84252030e-02 2.73025483e-01 2.73025483e-01 1.40469998e-01
      9.93353128e-02 1.57556329e-02 2.58863419e-02 4.98796161e-03
      6.72503859e-02 1.29424855e-01 2.73025483e-01 1.41232014e-01
      1.54877752e-01 1.69590637e-01 8.99993181e-02 2.66039699e-01 0.
      1.12744019e-04 2.92919402e-04 7.75878876e-02 1.38899699e-01
      3.10313627e-02 3.62840295e-02 1.52769918e-02 1.52209952e-01
      3.39473635e-02 4.16507237e-02 4.43728007e-02 1.44824028e-01
      2.74875998e-01 2.74875998e-01 2.74875998e-01 5.08143157e-02
      5.33049926e-02 3.47673846e-03 7.03534931e-02 1.44767582e-01
      2.74875998e-01 2.74875998e-01 2.74875998e-01 2.74875998e-01
      6.21880703e-02 2.74875998e-01 1.44979611e-01 8.85216072e-02
      1.57419547e-01 2.74875998e-01 2.79267311e-01 7.57760555e-02
      7.19108805e-02 4.77766804e-02 2.86376774e-01 1.17209725e-01
      1.37344375e-01 1.20256126e-01 2.86376774e-01 2.86376774e-01
      2.42695138e-01 2.78624982e-01 1.15927421e-01 1.22705877e-01
      6.42092004e-02 7.00468719e-02 7.01354146e-02 2.86376774e-01
      2.41692364e-01 8.13871399e-02 5.89357801e-02 1.16435438e-02
      2.86376774e-01 2.03631595e-01 1.26086622e-01 1.69086292e-01
      2.79018700e-01 5.72765954e-02 8.57903529e-03 3.45187099e-03
      3.31051485e-03 1.71905890e-01 2.75254957e-02 2.19978765e-02
      1.23487450e-02 5.54767549e-02 2.41608620e-01 1.13835104e-01
      1.35382429e-01 3.10890824e-02 9.73147452e-02 9.86050591e-02
      8.17139819e-02 8.50569233e-02 2.41608620e-01 2.41608620e-01
      1.33260742e-01 1.05129495e-01 7.83357676e-03 3.18934722e-03
      1.67470817e-02 1.57912865e-01 2.01094374e-01 2.41608620e-01
      2.41608620e-01 9.91110280e-02 1.56952500e-01 5.37332706e-02
      9.76007059e-02 1.19960293e-01 2.22775951e-01 2.41608620e-01
      2.41608620e-01 2.41608620e-01 1.77669585e-01 2.19985396e-01
      3.18768956e-02 3.44992266e-03 6.07369468e-02 2.41608620e-01
      2.41608620e-01 2.41608620e-01 2.15843737e-01 2.56894946e-01
      1.85318872e-01 2.32804548e-02 2.17878670e-02 8.46839882e-03
      1.18304543e-01 1.54681385e-01 1.88744694e-01 1.62005380e-01
      2.17369184e-01 1.67218313e-01 5.37572876e-02 2.56894946e-01
      6.18934408e-02 5.05716093e-02 5.91959208e-02 9.80846360e-02
      2.56894946e-01 1.40177235e-01 1.56385213e-01 2.43614409e-02
      1.55308433e-02 4.51438129e-02 2.51094759e-01 2.46550843e-01
      2.56894946e-01 2.56894946e-01 1.48248583e-01 1.16973281e-01
      1.01009466e-01 2.56894946e-01 3.52226347e-02 1.42955139e-01
      1.32989302e-01 2.56894946e-01 6.77426308e-02 5.36065884e-02
      4.58007567e-02 5.28667383e-02 3.69530559e-01 9.97017696e-02
      4.43676375e-02 5.05144298e-02 6.27682209e-02 1.15504414e-02
      3.69655318e-04 1.31387240e-03 5.55059826e-03 2.26074085e-01
      1.21601336e-02 6.56258781e-03 2.27817032e-03 1.15510207e-02
      3.69530559e-01 2.19525680e-01 1.56474397e-01 1.92627534e-01
      3.69530559e-01 2.41490360e-02 7.08904639e-02 5.29165380e-02
      2.51816332e-01 3.69530559e-01 6.88361004e-02 3.82857881e-02
      3.64837721e-02 1.99362665e-01 1.58039983e-02 3.09836436e-02
      3.30312401e-02 3.69530559e-01 2.38376021e-01 1.29686430e-01
      1.64248705e-01 5.36695644e-02 1.10916018e-01 1.23871684e-01
      2.38376021e-01 2.38376021e-01 2.38376021e-01 2.38376021e-01
      2.11737767e-01 2.38376021e-01 5.18471263e-02 3.99908796e-02
      6.17939010e-02 2.38376021e-01 2.26372406e-01 2.38376021e-01
      2.38376021e-01 1.09320156e-01 1.05557710e-01 6.23901412e-02
      1.62760153e-01 6.30951226e-02 1.39428377e-01 1.73661008e-01
      2.06081033e-01 1.96793750e-01 1.17226325e-01 1.22702979e-01
      7.30467662e-02 2.05016688e-01 3.68470214e-02 9.20679495e-02
      1.05196275e-01 1.49611533e-01 2.08067313e-01 7.09666833e-02
      8.14036503e-02 2.47150343e-02 5.39076664e-02 8.46228376e-02
      2.47456416e-01 2.47456416e-01 2.47456416e-01 2.47456416e-01
      9.24347863e-02 6.64087385e-02 6.47096187e-02 2.47456416e-01
      1.24650054e-01 2.15226680e-01 2.31809720e-01 2.47456416e-01
      8.99084732e-02 1.57466248e-01 1.21991456e-01 1.11607492e-01
      2.47456416e-01 5.62458374e-02 1.02667220e-01 1.09573938e-01
      9.27291811e-02 1.83184460e-01 2.05176160e-01 1.78814471e-01
      1.84355527e-01 2.47456416e-01 1.28120676e-01 1.17450379e-01
      1.48685917e-01 1.44291982e-01 2.44050026e-01 1.10378474e-01
      7.01056793e-02 6.66799992e-02 2.80677557e-01 7.50681311e-02
      1.05605923e-01 1.36241212e-01 2.04329357e-01 2.82416821e-01
      5.27600832e-02 2.68112216e-02 1.99621562e-02 8.07637721e-02
      7.35012889e-02 1.21222436e-01 1.64922297e-01 2.82416821e-01
      2.44066566e-01 6.08155541e-02 5.58466613e-02 5.92945442e-02
      2.48234987e-01 9.50490832e-02 1.02435477e-01 1.67121053e-01
      2.82055408e-01 2.82416821e-01 4.59882617e-02 2.27488372e-02
      2.71474738e-02 4.84425537e-02 1.15659527e-01 1.69870466e-01
      2.77402371e-01 2.82416821e-01 2.69511491e-01 1.27823025e-01
      1.17153771e-01 1.35398507e-01 1.71919346e-01 1.19116105e-01
      9.81140211e-02 1.35240585e-01 2.69511491e-01 2.19307244e-01
      1.03398301e-01 1.02395177e-01 1.57895610e-01 2.69511491e-01
      1.31829053e-01 8.24839398e-02 1.01876572e-01 1.97306708e-01
      2.69511491e-01 9.87439901e-02 7.57114887e-02 1.42138213e-01
      1.28471419e-01 1.81765646e-01 1.24162473e-01 1.22139372e-01
      2.69511491e-01 1.80465326e-01 8.40651095e-02 5.55426106e-02
      1.31786659e-01 2.69511491e-01 1.81982964e-01 1.05306409e-01
      1.09381780e-01 2.04727471e-01 5.92364147e-02 1.10368766e-01
      1.08767971e-01 1.05489977e-01 2.69192904e-01 7.12829381e-02
      6.32779077e-02 6.53637424e-02 3.59381139e-02 2.54076511e-01
      1.98234871e-01 2.10077509e-01 1.67926207e-01 2.69192904e-01
      1.16191894e-01 1.53688520e-01 1.57727912e-01 2.09356844e-01
      1.93818398e-02 8.95737391e-03 1.83684062e-02 2.14452054e-02
      2.69192904e-01 1.03071943e-01 1.74968749e-01 2.15511620e-01
      7.65321404e-02 1.28733918e-01 4.39784899e-02 6.44738302e-02
      5.42617962e-02 2.69192904e-01 1.85321316e-01 2.69192904e-01
      2.69192904e-01 2.69192904e-01 2.88067639e-01 1.05068296e-01
      9.42322016e-02 7.63312951e-02 1.10124871e-01 6.84598163e-02
      9.19425935e-02 1.35045603e-01 2.88067639e-01 2.88067639e-01
      1.38475269e-01 6.65477440e-02 8.62063915e-02 1.92547869e-02
      1.01869419e-01 9.89790335e-02 1.85104936e-01 2.88067639e-01
      2.88067639e-01 5.71183190e-02 4.61496189e-02 4.47589904e-02
      1.70300111e-01 1.20061725e-01 1.99773088e-01 2.37111896e-01
      2.88067639e-01 2.88067639e-01 1.00615129e-01 4.34568934e-02
      5.39244972e-02 4.58308607e-02 6.20474182e-02 5.21345772e-02
      8.73539299e-02 2.88067639e-01 2.59421557e-01 1.64128114e-02
      1.03110168e-02 2.03330070e-02 4.13418531e-01 1.49490535e-01
      1.40462920e-01 1.07927822e-01 4.13418531e-01 4.66259755e-02
      1.95274688e-02 1.07864244e-02 2.14230493e-02 1.81555554e-01
      5.81721179e-02 3.65834050e-02 3.56202163e-02 6.16503358e-02
      9.38811451e-02 0. 0. 0. 4.13418531e-01 2.19697922e-01
      1.57167107e-01 1.07831322e-01 2.01711237e-01 6.16100617e-03 0. 0.
      0. 4.13418531e-01 6.96581081e-02 5.08574210e-02 4.89457920e-02
      2.32733227e-02 3.61932628e-02 3.75724435e-02 1.78347155e-02
      1.73969418e-02 8.65315795e-02 4.38722521e-02 1.30228922e-01
      1.70617819e-01 6.35673106e-02 2.02689365e-01 2.09161758e-01
      1.21292159e-01 1.58250451e-01 2.96511352e-01 2.01611862e-01
      2.96511352e-01 2.96511352e-01 2.96511352e-01 3.48340347e-02
      4.10332531e-02 1.72629301e-02 2.37554591e-02 1.14651211e-01
      1.96725354e-02 2.79199295e-02 3.89165767e-02 5.70315719e-02
      2.96511352e-01 2.42159799e-01 1.17694326e-01 1.63378343e-01
      2.96511352e-01 5.26346751e-02 7.91672692e-02 1.49809793e-01
      2.96511352e-01 1.88474119e-01 7.96106085e-02 6.10331446e-02
      1.07231237e-01 3.02368373e-01 1.30956531e-01 1.38589397e-01
      1.82841226e-01 2.77586937e-01 1.49573773e-01 1.29210716e-02
      5.88767417e-03 1.45445932e-02 1.07104070e-01 3.07901613e-02
      3.34632099e-02 4.44233865e-02 1.89083681e-01 3.02368373e-01
      8.99141133e-02 6.35274053e-02 9.96810198e-02 2.27897003e-01
      3.98238488e-02 9.30551961e-02 1.25938624e-01 3.02368373e-01
      3.02368373e-01 2.35017017e-03 6.39156159e-03 1.38263265e-02
      6.48770034e-02 9.23307016e-02 3.02368373e-01 2.39522889e-01
      3.02368373e-01 8.33396018e-02 1.25539735e-01 2.01941699e-01
      7.75948167e-02 2.97209799e-01 2.58460492e-01 2.03926504e-01
      1.51932895e-01 7.24476650e-02 2.56997421e-02 6.27064556e-02
      8.31310898e-02 5.30393533e-02 2.30533585e-01 1.08591370e-01
      1.09707445e-01 1.06807582e-01 3.89836319e-02 2.97209799e-01
      2.97209799e-01 2.97209799e-01 1.22441813e-01 2.14803010e-01
      1.64645821e-01 1.81687415e-01 1.29774153e-01 2.97209799e-01
      6.16605617e-02 1.62968352e-01 1.84143439e-01 8.20669159e-02
      1.32547021e-01 7.99564868e-02 8.09122622e-02 6.50592297e-02
      3.28480601e-02 3.79888937e-02 2.61881817e-02 2.22737473e-02
      4.24084105e-02 6.75671250e-02 1.63363107e-02 1.33021940e-02
      1.83561835e-02 3.62096913e-02 3.07643622e-01 1.07348256e-01
      5.21165431e-02 8.64487067e-02 1.04240067e-01 2.40815710e-02
      3.78046185e-02 6.58984780e-02 3.07643622e-01 1.13888130e-01
      1.86592117e-01 1.22603349e-01 1.95109263e-01 2.35025793e-01
      3.31655033e-02 1.09908897e-02 1.46555780e-02 4.74173427e-02
      3.07643622e-01 3.07643622e-01 3.07643622e-01 3.07643622e-01
      3.07643622e-01 1.30362928e-01 7.18428195e-02 8.82852897e-02
      3.07643622e-01 2.62285262e-01 3.66854258e-02 1.92879494e-02
      2.70137545e-02 4.03520502e-02 4.19275612e-02 7.42085427e-02
      8.84546489e-02 2.62285262e-01 2.62285262e-01 3.69254276e-02
      1.80616248e-02 1.86654683e-02 2.65576690e-02 7.38286301e-02
      1.95875823e-01 1.53114468e-01 2.62285262e-01 2.62285262e-01
      2.42317453e-01 1.87363595e-01 2.03194723e-01 2.44136989e-01
      1.42428726e-01 8.78058225e-02 1.09575622e-01 2.62285262e-01
      2.62285262e-01 1.32053554e-01 8.75107720e-02 1.23133346e-01
      1.83875173e-01 1.33135155e-01 1.25216916e-01 1.25184298e-01
      2.62285262e-01 2.99148887e-01 1.02499589e-01 1.23899646e-01
      2.18037125e-02 4.47816223e-01 1.26578465e-01 1.23254120e-01
      8.81038010e-02 3.69319737e-01 3.05725448e-02 6.41544238e-02
      6.00097775e-02 2.47220267e-02 2.71893442e-01 4.94632237e-02
      3.02342698e-02 2.71362290e-02 2.76798625e-02 3.83099839e-02 0. 0.
      0. 4.47816223e-01 5.52238040e-02 4.49279360e-02 2.48228274e-02
      7.88246542e-02 6.77958596e-03 4.75504901e-03 3.17937462e-03
      2.89794034e-03 4.47816223e-01 2.34698076e-02 1.23957656e-02
      1.38817299e-02 1.76420789e-02 1.88335851e-01 2.27471575e-01
      1.17829308e-01 1.17081434e-01 2.37737462e-01 6.34465888e-02
      2.96780504e-02 5.09515889e-02 1.83776453e-01 2.88754165e-01
      2.88754165e-01 2.88754165e-01 2.88754165e-01 2.88754165e-01
      1.04134582e-01 4.52061668e-02 6.88339993e-02 2.88754165e-01
      1.16556555e-01 4.85903397e-02 1.97452866e-02 7.69106206e-03
      7.15839937e-02 3.10537666e-02 1.95103548e-02 3.85747366e-02
      1.59482330e-01 2.88754165e-01 1.81302562e-01 1.46385521e-01
      3.53186913e-02 8.69652927e-02 3.09110992e-02 2.40512621e-02
      3.31470110e-02 2.60202944e-01 2.30028182e-01 2.41875321e-01
      2.41875321e-01 1.79677710e-01 1.97638988e-01 5.70855737e-02
      3.01476046e-02 3.77220437e-02 1.17300317e-01 2.41875321e-01
      1.76945776e-01 1.15420282e-01 2.17668250e-01 2.41875321e-01
      6.51148558e-02 1.25301361e-01 1.39425695e-01 2.41875321e-01
      1.50111914e-01 1.61919743e-01 1.02886423e-01 8.64339173e-02
      1.42788664e-01 1.71601344e-02 3.46422903e-02 4.03276309e-02
      1.45885468e-01 2.41875321e-01 1.63890660e-01 9.61074084e-02
      2.08824977e-01 2.41875321e-01 8.21032375e-02 1.38080955e-01
      1.93499818e-01 2.41875321e-01</_>
    <_>
      4.26591069e-01 1.03839010e-01 9.49004889e-02 0. 2.64572948e-01
      1.53262010e-02 2.73480881e-02 8.37443992e-02 4.26591069e-01
      3.91000748e-01 9.14955810e-02 1.22014903e-01 0. 2.66375273e-01 0.
      0. 0. 2.76366174e-01 0. 0. 0. 0. 9.09383968e-03 0. 0. 0. 0.
      3.08730066e-01 1.43409550e-01 1.15270950e-01 1.08431295e-01
      1.36407584e-01 0. 7.36214826e-03 1.89353507e-02 2.24706367e-01
      1.02941608e-02 1.26618966e-02 2.29197387e-02 3.41078416e-02
      3.26404601e-01 3.41236182e-02 2.29135863e-02 1.28091136e-02
      1.10423006e-02 1.01645596e-01 1.89994037e-01 1.23873189e-01
      1.29957870e-01 3.26404601e-01 1.67670444e-01 1.39279738e-01
      1.56436160e-01 1.01981111e-01 1.12339132e-01 2.66211629e-02
      2.25096885e-02 1.66860130e-02 1.84598058e-01 5.02045415e-02
      5.42070493e-02 5.29556908e-02 1.14591636e-01 1.36961311e-01
      3.83954644e-02 2.77416464e-02 3.05601954e-02 3.26404601e-01
      3.26404601e-01 3.26404601e-01 3.26404601e-01 3.17804366e-01
      7.84180760e-02 1.19334102e-01 6.56515360e-02 5.41120619e-02
      3.98021191e-01 1.02309369e-01 8.77123922e-02 9.12473574e-02
      7.48049840e-02 1.62396431e-02 1.11344233e-02 7.55503587e-03
      1.44608598e-02 3.98021191e-01 3.30418982e-02 2.66449880e-02
      1.30615011e-02 1.73965171e-02 1.43525928e-01 9.73564982e-02
      5.85811585e-02 1.04489394e-01 3.98021191e-01 2.31749207e-01
      2.31108829e-01 2.19587997e-01 2.56119877e-01 7.43894354e-02
      7.87313282e-02 4.42654043e-02 1.00960538e-01 3.98021191e-01
      3.44785452e-02 3.67488079e-02 3.92793640e-02 7.98159242e-02
      1.53155355e-02 1.40519366e-02 2.47707795e-02 1.22457957e-02
      3.36862840e-02 0. 0. 0. 7.47025898e-03 2.52485454e-01
      2.24672541e-01 2.57754892e-01 2.21858382e-01 2.17602655e-01
      6.59167301e-03 6.57182699e-03 1.47224162e-02 1.19324185e-01
      3.09433211e-02 3.51811089e-02 6.20597675e-02 5.24539687e-02
      2.52878934e-01 4.14494202e-02 3.74662019e-02 1.98269170e-02
      2.57601645e-02 3.02844077e-01 3.02844077e-01 3.02844077e-01
      3.02844077e-01 3.02844077e-01 1.34330109e-01 1.44521043e-01
      1.91487610e-01 3.02844077e-01 1.90714449e-01 9.80908647e-02
      1.12438619e-01 1.05576731e-01 1.92558050e-01 6.08140975e-02
      3.87199186e-02 6.01585843e-02 1.36231437e-01 1.88222662e-01
      1.19622558e-01 1.21727861e-01 1.09651364e-01 2.62518108e-01
      1.45526305e-01 1.19208008e-01 1.30804613e-01 1.72354952e-01
      2.57855892e-01 2.06139132e-01 2.23365590e-01 2.06555545e-01
      2.62518108e-01 9.35647711e-02 6.77240640e-02 9.33733508e-02
      1.77783027e-01 2.08662882e-01 2.43900105e-01 2.40815848e-01
      2.27656096e-01 2.62518108e-01 1.17564291e-01 7.66099319e-02
      6.68198466e-02 7.34876543e-02 2.53942549e-01 1.74154326e-01
      1.55987099e-01 1.67597219e-01 3.36077511e-01 1.57058641e-01
      1.29930645e-01 1.55886933e-01 2.31223658e-01 1.07078187e-01
      7.57664815e-02 4.63604443e-02 6.50274307e-02 3.36077511e-01
      7.85585046e-02 4.70422171e-02 8.13729241e-02 1.04867488e-01
      1.77527457e-01 1.84764192e-01 1.81173027e-01 1.82965428e-01
      3.36077511e-01 1.37003347e-01 6.61551356e-02 9.76567939e-02
      8.80779848e-02 6.61036000e-02 1.47453928e-02 2.12574564e-02
      1.88398473e-02 3.36077511e-01 1.35251299e-01 8.61143619e-02
      1.26627222e-01 9.58059654e-02 1.86128896e-02 1.06269550e-02
      1.96797308e-02 2.24084426e-02 1.95096150e-01 4.86283228e-02
      5.88834323e-02 3.40476483e-02 3.73176150e-02 3.02376240e-01
      1.80164203e-01 1.90696865e-01 2.28482604e-01 3.02376240e-01
      2.40713522e-01 2.94484407e-01 3.02376240e-01 3.02376240e-01
      5.61320502e-03 0. 0. 0. 2.18109190e-02 3.35295568e-03
      1.06867403e-02 7.25320308e-03 1.09582413e-02 2.17989996e-01
      2.68727839e-02 4.02107164e-02 1.00745022e-01 3.02376240e-01
      1.34800598e-01 1.88205034e-01 1.58730030e-01 2.94503868e-01
      2.33796030e-01 1.15009449e-01 1.67938292e-01 1.62108541e-01
      2.39201471e-01 1.21924058e-01 1.10674918e-01 1.46983281e-01
      2.39201471e-01 1.24204852e-01 1.09245211e-01 1.61684841e-01
      1.41761318e-01 2.39201471e-01 1.78823590e-01 1.58296242e-01
      1.90937549e-01 1.36482850e-01 2.12294966e-01 5.11651747e-02
      9.34446082e-02 1.01645075e-01 1.61143243e-01 9.97680649e-02
      9.63822007e-02 1.11230060e-01 2.29438931e-01 1.39640152e-01
      4.17159647e-02 1.00094467e-01 8.22437033e-02 2.07052246e-01
      2.15464562e-01 2.24544957e-01 2.39201471e-01 2.39201471e-01
      3.75554003e-02 3.86291631e-02 3.97528224e-02 4.23140079e-02
      2.94054061e-01 1.81269690e-01 1.32379889e-01 1.86444759e-01
      1.21503659e-01 4.33645062e-02 2.68979650e-03 3.89722595e-03
      8.99282936e-03 2.94054061e-01 1.56256199e-01 1.35749996e-01
      1.86508179e-01 1.37595266e-01 8.93041417e-02 2.30331235e-02
      2.02918593e-02 2.67939027e-02 2.20017537e-01 2.12107420e-01
      2.82986671e-01 2.94054061e-01 2.89103955e-01 1.45945966e-01
      7.58373886e-02 6.35198653e-02 9.31651220e-02 2.94054061e-01
      1.00194231e-01 1.55403271e-01 2.23474085e-01 2.36373484e-01 0. 0.
      0. 0. 2.21390091e-02 0. 0. 0. 0. 4.95655537e-01 4.40175086e-02
      1.38292620e-02 1.23558585e-02 4.33806688e-01 1.94752768e-01
      3.43272150e-01 2.42064252e-01 4.95655537e-01 0. 0. 0. 0. 0. 0. 0.
      0. 0. 2.21789882e-01 0. 0. 0. 0. 0. 0. 0. 2.21789882e-01
      2.62920052e-01 4.37144414e-02 6.27173632e-02 4.09726687e-02
      7.42197931e-02 4.31185588e-02 6.41555339e-02 7.71697089e-02
      2.80419379e-01 2.37616464e-01 3.90027128e-02 8.24008286e-02
      6.18355833e-02 1.92425743e-01 1.96017474e-01 3.04929823e-01
      3.04929823e-01 3.04929823e-01 1.34429321e-01 5.69965579e-02
      6.54674917e-02 4.94059059e-04 1.08498000e-02 0. 0. 0.
      9.59455818e-02 3.04929823e-01 3.04929823e-01 3.04929823e-01
      1.45681493e-03 1.40391784e-02 0. 6.11928198e-03 2.88748904e-03
      2.95151770e-01 1.85381755e-01 3.58740240e-02 1.41172102e-02
      2.15699058e-02 9.30202976e-02 8.59342292e-02 2.52641857e-01
      2.75892258e-01 2.75892258e-01 2.75892258e-01 1.33299395e-01
      1.13126956e-01 1.10166259e-01 2.75892258e-01 1.26445219e-02
      1.35004804e-01 1.95087805e-01 2.75892258e-01 2.75892258e-01
      2.07087383e-01 1.09935232e-01 4.97396511e-04 1.27285309e-02
      9.16719716e-03 1.93759464e-02 2.84411609e-02 2.75892258e-01
      2.75892258e-01 3.60897332e-02 1.72484275e-02 4.53497894e-04
      1.38629094e-01 5.78126013e-02 9.01009738e-02 9.04555246e-02
      2.75892258e-01 3.32072675e-02 3.87660451e-02 3.90945449e-02
      2.47358781e-04 9.71666537e-03 0. 0. 0. 1.32020041e-02
      2.42559254e-01 3.02298367e-01 1.95784360e-01 7.29813124e-04
      8.97656474e-03 0. 0. 0. 1.00449987e-01 2.75475115e-01
      3.40898961e-01 3.27459365e-01 1.54061928e-01 2.24692211e-01 0. 0.
      0. 8.07764605e-02 3.40898961e-01 3.40898961e-01 3.40898961e-01
      1.42977133e-01 1.56430125e-01 0. 0. 0. 1.40872851e-01
      2.91711092e-01 1.97387606e-01 1.27060950e-01 9.20728606e-04
      6.99024135e-03 0. 0. 6.35034448e-05 1.37092978e-01 2.91711092e-01
      2.91711092e-01 2.60516644e-01 1.72095816e-03 8.40281416e-03 0. 0.
      9.52551723e-04 1.64727062e-01 2.91711092e-01 2.91711092e-01
      2.32919693e-01 3.28400955e-02 2.51736101e-02 0. 0. 1.39707598e-04
      1.51514441e-01 2.91711092e-01 2.91711092e-01 2.91711092e-01
      1.65378124e-01 6.58500046e-02 6.46924041e-03 1.91854127e-02
      4.47319960e-03 1.90411896e-01 2.67643064e-01 2.67643064e-01
      1.48579046e-01 1.17578134e-02 3.24302204e-02 1.15693314e-02
      1.21151479e-02 1.93616748e-02 2.55018383e-01 2.67643064e-01
      6.90510944e-02 4.38284799e-02 5.83180636e-02 2.67643064e-01
      7.21699372e-02 7.40332082e-02 6.96810186e-02 2.67643064e-01
      2.67643064e-01 2.67643064e-01 2.10256860e-01 8.34084526e-02
      6.15808181e-02 1.76248439e-02 3.53935435e-02 1.84131078e-02
      2.52993464e-01 2.67643064e-01 1.77418441e-01 1.07290491e-01
      1.00503631e-01 2.67643064e-01 4.08413932e-02 4.05668318e-02
      2.92063467e-02 2.44782001e-01 2.42384315e-01 2.60632694e-01
      2.48462915e-01 1.65694773e-01 1.43824354e-01 0. 0. 0.
      5.75188659e-02 2.45626166e-01 2.60632694e-01 2.39399597e-01
      1.46995857e-01 1.16607852e-01 0. 0. 0. 3.95049341e-02
      2.21286401e-01 2.60632694e-01 1.88215151e-01 2.04370022e-01
      1.16096020e-01 0. 0. 0. 4.54349481e-02 2.60632694e-01
      2.60632694e-01 2.60632694e-01 2.60632694e-01 2.24700481e-01 0. 0.
      0. 5.79154156e-02 2.13598534e-01 2.61422962e-01 1.80540279e-01
      6.61598593e-02 5.88591360e-02 1.38687331e-03 7.56445760e-03
      8.67994386e-04 2.85585206e-02 2.61422962e-01 2.61422962e-01
      2.37250537e-01 2.42743313e-01 1.74358442e-01 1.75636373e-02
      4.09610905e-02 7.70100160e-03 7.74597228e-02 2.14763492e-01
      2.61422962e-01 2.06515819e-01 1.29082218e-01 2.27203310e-01
      3.08325533e-02 2.89108362e-02 1.35736875e-02 4.83676121e-02
      2.61422962e-01 2.61422962e-01 1.55317977e-01 1.32728130e-01
      2.61422962e-01 1.03720091e-01 9.44221020e-02 7.72982091e-02
      2.22810149e-01 2.84139603e-01 2.84139603e-01 1.63724288e-01
      1.33171782e-01 2.84139603e-01 5.52990884e-02 8.64948332e-02
      3.84171419e-02 2.24406987e-01 2.41942510e-01 9.68623832e-02
      4.84798364e-02 2.60175075e-02 2.84139603e-01 4.54331897e-02
      6.24749959e-02 3.32417414e-02 1.69303864e-01 2.84139603e-01
      2.38791525e-01 1.22052550e-01 1.15115948e-01 2.84139603e-01
      7.52688944e-02 7.43696690e-02 5.98942116e-02 2.84139603e-01
      1.28920689e-01 6.14166185e-02 6.58165812e-02 5.85089885e-02
      2.84139603e-01 3.63979675e-02 3.18456031e-02 1.58519112e-02
      8.36116001e-02 1.84528545e-01 2.55839497e-01 1.90747947e-01
      2.53162831e-01 2.55839497e-01 0. 0. 0. 4.14551422e-02
      2.39921823e-01 2.55839497e-01 2.55839497e-01 2.55839497e-01
      2.55839497e-01 0. 0. 0. 7.16452897e-02 1.86274901e-01
      2.55839497e-01 2.55839497e-01 2.55839497e-01 2.55839497e-01 0. 0.
      0. 3.08610089e-02 8.70220885e-02 1.16296120e-01 1.18325703e-01
      1.01558506e-01 2.48884484e-01 0. 0. 0. 3.09297852e-02
      2.63718665e-01 3.34693372e-01 2.61056453e-01 2.12220877e-01
      3.34693372e-01 8.30841288e-02 5.62198907e-02 4.45224755e-02
      1.43556952e-01 3.34693372e-01 1.28589541e-01 5.23792394e-02
      6.69296235e-02 3.34693372e-01 2.49865770e-01 2.05105156e-01
      2.53215432e-01 3.34693372e-01 3.01859733e-02 1.68410372e-02
      2.76050083e-02 1.22986184e-02 4.52396795e-02 2.45295791e-03
      2.50954530e-03 2.86717247e-03 2.73609199e-02 1.01624429e-01
      1.44995877e-03 0. 0. 2.85617402e-03 5.39650721e-03 7.29366532e-03
      1.52799273e-02 1.14945054e-01 3.81533682e-01 2.07497627e-01
      1.63706854e-01 1.31047219e-01 3.81533682e-01 8.12907293e-02
      8.41135010e-02 1.23852685e-01 3.81533682e-01 3.70864064e-01
      1.38926700e-01 1.75426513e-01 1.14944987e-01 3.81533682e-01
      1.56318222e-03 0. 1.50562939e-03 2.33080029e-01 1.39028311e-01
      8.34888220e-03 7.63020571e-03 0. 3.50567093e-03 1.23226002e-03
      2.19884585e-03 6.73323218e-03 1.35945573e-01 5.18511906e-02
      7.35644391e-03 9.81026515e-03 0. 6.93317968e-03 0. 0. 0.
      4.26343195e-02 2.25324571e-01 3.31615478e-01 3.59225661e-01
      2.74183810e-01 5.41118085e-01 0. 0. 0. 4.70721200e-02
      3.83244976e-02 3.94315459e-02 6.51306957e-02 5.21914363e-02
      1.64365515e-01 0. 0. 0. 1.74559020e-02 1.86820775e-02
      1.41952233e-02 3.61640006e-02 1.90853681e-02 5.41118085e-01 0. 0.
      0. 9.76596028e-03 3.98091413e-03 1.72425667e-03 3.93976225e-03
      4.41324773e-05 4.61773388e-02 0. 0. 0. 2.87033687e-03
      6.20320380e-01 0. 0. 0. 0. 0. 0. 0. 6.20320380e-01 0. 0. 0. 0. 0.
      0. 0. 0. 0. 0. 0. 0. 0. 0. 0. 0. 0. 0. 0. 0. 0. 0. 0. 0. 0. 0. 0.
      0. 0. 0. 0. 0. 0. 0. 0. 0. 0. 0. 0. 0. 0. 0. 0. 0. 0. 0. 0. 0. 0.
      0. 0. 0. 0. 0. 0. 0. 0. 0. 0. 0. 0. 0. 0. 4.96590277e-03 0. 0. 0.
      4.72189397e-01 9.77819413e-03 4.14681481e-03 8.73214658e-03
      4.96590277e-03 1.44840078e-03 0. 0. 0. 3.64545025e-02 0.
      1.53987145e-04 5.82143082e-04 1.44840078e-03 8.91054571e-02 0. 0.
      1.28250953e-03 4.72189397e-01 3.71789813e-01 2.67741650e-01
      4.71890748e-01 2.61434436e-01 3.49809974e-02 0. 0. 0.
      1.17148407e-01 6.95989653e-02 7.78964385e-02 9.01191682e-02
      7.01572523e-02 0. 0. 0. 0. 0. 0. 0. 0. 0. 0. 0. 0. 0. 0. 0. 0. 0.
      0. 3.08811486e-01 0. 0. 0. 6.57456219e-01 0. 5.64245820e-01
      1.25621811e-01 3.08811486e-01 0. 0. 0. 0. 0. 0. 0. 0. 0. 0. 0. 0.
      0. 0. 0. 0. 0. 0. 0. 0. 0. 0. 0. 0. 0. 0. 0. 0. 0. 0. 0. 0. 0. 0.
      0. 0. 0. 0. 0. 0. 0. 0. 0. 0. 0. 1.28549740e-01 3.08681857e-02
      2.19162628e-02 3.10290195e-02 2.75392324e-01 2.75392324e-01
      2.49111950e-01 2.75392324e-01 2.75392324e-01 5.26977554e-02
      1.93062034e-02 2.32843664e-02 3.01873852e-02 2.16379076e-01
      9.90603566e-02 1.09745197e-01 1.18272603e-01 9.44681689e-02
      2.75392324e-01 9.56542939e-02 7.46824890e-02 6.43056482e-02
      1.80073678e-01 1.13756873e-01 1.91456974e-01 2.75392324e-01
      2.75392324e-01 2.03798860e-01 6.79097548e-02 8.52542371e-02
      6.64122477e-02 2.75392324e-01 7.15936199e-02 8.52147937e-02
      8.61258507e-02 1.86642334e-01 6.08955696e-02 1.15013514e-02
      5.16594090e-02 6.73725232e-02 5.93118131e-01 9.73154604e-02
      1.70210466e-01 3.78950909e-02 6.08955696e-02 0. 0. 0. 0. 0. 0. 0.
      0. 0. 2.52240032e-01 4.98391911e-02 2.23857418e-01 1.48219556e-01
      5.93118131e-01 1.25119880e-01 1.32385924e-01 2.94739604e-02
      2.52240032e-01 0. 0. 0. 0. 0. 0. 0. 0. 0. 0. 0. 0. 0. 0. 0. 0. 0.
      0. 0. 0. 0. 0. 0. 0. 0. 0. 0. 0. 0. 0. 0. 0. 0. 0. 0. 0. 0. 0. 0.
      0. 0. 0. 0. 0. 0. 2.89420992e-01 2.73794625e-02 2.25295890e-02
      1.27787152e-02 4.54746671e-02 1.51961613e-02 1.64262936e-01
      2.23702490e-01 2.89420992e-01 2.29097515e-01 2.08703037e-02
      2.67526656e-02 1.36570549e-02 1.71453610e-01 5.87525554e-02
      1.16562456e-01 1.09137103e-01 2.89420992e-01 1.87224910e-01 0. 0.
      0. 7.88673013e-02 3.43077332e-02 1.26523614e-01 1.70038402e-01
      2.89420992e-01 1.67096391e-01 0. 0. 0. 2.89420992e-01
      2.29903102e-01 2.65857190e-01 2.50556946e-01 2.89420992e-01
      1.17073841e-01 2.40298314e-03 1.07932258e-02 4.33449075e-03
      3.08554083e-01 8.58000666e-02 1.24612674e-01 7.24323019e-02
      1.87121019e-01 1.30910822e-03 0. 0. 0. 1.03559885e-02 0.
      8.17514025e-04 3.58091984e-06 1.30910822e-03 1.58889994e-01 0. 0.
      0. 3.87015849e-01 3.87015849e-01 3.87015849e-01 3.87015849e-01
      3.87015849e-01 1.96366217e-02 0. 0. 0. 1.91894233e-01
      5.48810922e-02 7.66912848e-02 4.19955738e-02 4.24297825e-02 0. 0.
      0. 0. 0. 0. 0. 0. 0. 0. 0. 0. 0. 0. 0. 0. 0. 0. 0. 0. 0. 0. 0. 0.
      0. 0. 0. 0. 0. 0. 0. 0. 0. 0. 0. 0.</_>
    <_>
      1.84742093e-01 5.67751117e-02 9.89046991e-02 6.61343336e-02
      3.32241803e-01 3.10201552e-02 8.70043188e-02 7.79977664e-02
      1.58450156e-01 2.49329314e-01 1.24595404e-01 4.41089198e-02
      2.32449509e-02 1.10685892e-01 4.89382930e-02 7.74646625e-02
      7.40189031e-02 2.39488080e-01 1.61223054e-01 1.31512642e-01
      1.89223304e-01 1.10043690e-01 3.32241803e-01 6.89697042e-02
      1.58918649e-01 1.02990918e-01 1.37901738e-01 2.40975797e-01
      2.68735796e-01 2.10820794e-01 7.15360120e-02 3.32241803e-01
      1.13465987e-01 1.32809266e-01 9.96729508e-02 1.98750630e-01
      2.85668433e-01 7.95289427e-02 2.78426521e-02 2.63722409e-02
      2.57142037e-01 7.46380314e-02 4.73609194e-02 1.06194764e-01
      3.03753734e-01 2.88207948e-01 4.10468243e-02 1.16038760e-02
      1.11975297e-02 1.18950680e-01 7.18059689e-02 9.65183973e-02
      2.97695160e-01 2.63807982e-01 2.48333320e-01 1.66624397e-01
      1.53369769e-01 1.89926401e-02 3.48511934e-01 1.29228294e-01
      6.47478700e-02 1.10270441e-01 2.56383955e-01 1.32684838e-02
      4.92520817e-03 1.98338274e-02 2.67913536e-04 3.48511934e-01
      2.49759294e-02 1.41763045e-02 2.24270821e-02 2.90879440e-02
      3.64359677e-01 3.59560847e-02 1.22514991e-02 5.99476555e-03
      4.27358486e-02 4.50914130e-02 1.57343596e-01 3.64359677e-01
      3.64359677e-01 3.64359677e-01 9.82989464e-03 2.21373257e-03
      1.38340762e-03 4.09927629e-02 2.56390427e-03 2.97235221e-01
      3.64359677e-01 3.64359677e-01 2.82348376e-02 0. 0. 0. 0. 0.
      5.36665367e-03 1.14321085e-02 3.59535515e-02 1.68069452e-01
      2.74075605e-02 9.89416428e-03 3.88008021e-02 1.13803335e-01 0.
      1.46286609e-02 6.11958466e-02 1.72673047e-01 1.37255564e-01
      1.10266298e-01 2.47157753e-01 1.18031807e-01 3.29824001e-01
      9.33215022e-02 9.96755362e-02 5.69654964e-02 1.96638316e-01
      2.01387599e-01 3.07030469e-01 3.29824001e-01 8.22017938e-02
      3.29824001e-01 1.09866753e-01 4.41568643e-02 8.05423856e-02
      1.52353108e-01 1.14152499e-01 4.15960960e-02 7.84894973e-02
      3.31691317e-02 2.16055840e-01 3.70070785e-02 3.06428373e-02
      5.00790514e-02 1.45782664e-01 1.85306847e-01 2.19485953e-01
      1.87167257e-01 2.38609519e-02 2.73248434e-01 4.27030586e-02
      5.12631517e-03 8.00205246e-02 1.50590584e-01 2.16085538e-01
      3.79346937e-01 3.83234233e-01 1.28491707e-02 3.83234233e-01
      7.06652328e-02 2.21287254e-02 5.21641895e-02 1.36146069e-01
      3.25711607e-03 2.68751681e-02 8.34072158e-02 9.63139406e-04
      3.83234233e-01 7.37021212e-03 3.95328132e-03 4.02258290e-03
      6.20887289e-03 1.89836264e-01 3.12618732e-01 3.26051325e-01
      1.89709279e-03 2.59667009e-01 1.83992069e-02 9.55216121e-04
      3.80212143e-02 1.19699664e-01 3.63638788e-03 1.97484363e-02
      4.78568003e-02 4.37790644e-04 6.26100153e-02 0. 0. 0.
      3.63638788e-03 0. 0. 0. 0. 0. 0. 0. 0. 0. 4.19191182e-01
      2.39377767e-01 8.64156783e-02 3.05751175e-01 4.19191182e-01 0. 0.
      0. 4.19191182e-01 0. 0. 0. 0. 0. 0. 0. 0. 0. 2.69563466e-01
      5.52410223e-02 1.99420806e-02 8.18714648e-02 4.19191182e-01 0. 0.
      0. 2.27723405e-01 1.47221401e-01 7.32471794e-02 7.85559565e-02
      7.46783018e-02 4.46899742e-01 1.33903086e-01 5.43903559e-02
      1.73030913e-01 1.01829015e-01 8.12748969e-02 7.89443031e-02
      2.91110855e-02 0. 5.78430928e-02 0. 0. 4.41662967e-02
      7.75999203e-02 1.65933445e-01 2.70263106e-01 2.66655266e-01
      2.65376627e-01 4.46899742e-01 2.40314156e-01 2.65954971e-01
      2.49640644e-01 1.82112232e-01 0. 0. 0. 0. 7.09589496e-02 0. 0. 0.
      0. 5.51079392e-01 6.21966422e-01 1.66852504e-01 0. 6.54782057e-02
      0. 0. 1.53538778e-01 4.94885206e-01 1.46846054e-02 0. 0. 0. 0. 0.
      0. 0. 1.46846054e-02 0. 0. 0. 0. 0. 0. 0. 0. 0. 0. 0. 0. 0. 0. 0.
      0. 0. 0. 0. 0. 0. 0. 0. 0. 0. 0. 0. 0. 0. 0. 0. 0. 0. 0. 0. 0. 0.
      0. 0. 0. 0. 0. 0. 0. 0. 0. 0. 0. 0. 0. 0. 0. 0. 0. 2.65537471e-01
      2.82207251e-01 4.02753651e-01 1.36244148e-01 4.02753651e-01
      1.24808744e-01 4.02753651e-01 2.37775594e-01 3.15203339e-01 0. 0.
      0. 0. 6.46261945e-02 0. 0. 0. 0. 1.41304135e-01 2.87182964e-02
      1.86547324e-01 0. 2.70709515e-01 1.38959335e-02 1.05764076e-01
      6.76857457e-02 1.41304135e-01 0. 0. 0. 0. 1.35965962e-02 0. 0. 0.
      0. 0. 0. 0. 0. 0. 0. 0. 0. 0. 0. 0. 0. 0. 0. 0. 0. 0. 0. 0. 0. 0.
      0. 0. 0. 0. 0. 0. 0. 0. 0. 0. 0. 0. 0. 0. 0. 0. 0. 0. 0. 0. 0. 0.
      0. 0. 0. 0. 0. 0. 0. 0. 0. 0. 0. 0. 0. 0. 0. 0. 0. 0. 0. 0. 0. 0.
      0. 0. 0. 0. 0. 0. 0. 4.10818607e-02 7.70608243e-03 3.47635173e-03
      8.43401160e-03 6.54565683e-03 0. 0. 2.24796962e-03 4.00155745e-02
      9.64330509e-02 9.90782026e-03 4.46959492e-03 6.55978732e-03
      2.51415372e-02 0. 0. 9.74120107e-03 9.41430032e-02 2.18267813e-01
      1.39580727e-01 1.93344802e-01 3.25485319e-01 3.25485319e-01
      4.42928150e-02 1.44454278e-02 3.37195434e-02 2.02273548e-01
      3.25485319e-01 2.45758891e-01 3.25485319e-01 3.25485319e-01
      3.25485319e-01 4.50666435e-02 1.12353340e-02 1.46118015e-01
      3.25485319e-01 1.00829892e-01 4.66609607e-03 2.10495992e-03 0.
      5.62737994e-02 0. 0. 1.24704642e-02 9.91088226e-02 0. 0. 0. 0.
      1.75061566e-03 0. 0. 0. 0. 3.97153288e-01 2.28459701e-01
      3.63964260e-01 3.76479357e-01 3.97153288e-01 2.15634871e-02 0.
      1.87056959e-01 3.97153288e-01 1.06173508e-01 8.02261457e-02
      8.86744857e-02 5.76450769e-03 2.69993037e-01 8.55798796e-02 0.
      3.40810940e-02 1.75089866e-01 0. 0. 0. 0. 0. 0. 0. 0. 0. 0. 0. 0.
      0. 0. 0. 0. 0. 0. 3.94850224e-01 2.29881018e-01 3.29320252e-01
      2.72330772e-02 3.94850224e-01 2.45221674e-01 0. 1.61008194e-01
      3.94850224e-01 1.47488534e-01 5.30494638e-02 1.18782960e-01
      1.23786703e-02 3.81500959e-01 5.65896183e-02 0. 7.31855482e-02
      2.95479119e-01 4.62848134e-02 9.60136428e-02 2.21898660e-01
      2.38962010e-01 2.75941581e-01 8.45054463e-02 6.76962212e-02
      3.46439034e-02 3.97964381e-02 9.98004824e-02 1.46901891e-01
      2.75941581e-01 2.75941581e-01 2.75941581e-01 7.64705539e-02
